tree
version=v4
num_class=1
num_tree_per_iteration=1
label_index=0
max_feature_idx=26
objective=lambdarank
feature_names=Column_0 Column_1 Column_2 Column_3 Column_4 Column_5 Column_6 Column_7 Column_8 Column_9 Column_10 Column_11 Column_12 Column_13 Column_14 Column_15 Column_16 Column_17 Column_18 Column_19 Column_20 Column_21 Column_22 Column_23 Column_24 Column_25 Column_26
feature_infos=[0:5] [3:529] [-1000:800] [1000:2400] [1:14] [0:1] [0:21] [0:6] [0:1] [0:1] [0:1] [0:1] [0:1] [0:734] [0:1] [0:1] [1:14] [0:1] [0:1] [0:1] [0:705] [0:1] [0:1] [0:1] [0:1] [105:135] [-30:30]
tree_sizes=6834 6813 6808 6830 6849 6836 6831 6831

Tree=0
num_leaves=63
num_cat=0
split_feature=16 15 11 16 11 14 10 10 0 11 4 1 4 1 11 15 20 21 20 26 14 20 22 15 4 9 14 22 4 1 14 11 4 11 10 26 15 9 7 22 22 10 22 20 24 9 26 14 21 14 13 22 6 20 1 26 14 6 21 6 16 1
split_gain=295.709 57.6523 39.6175 19.0041 20.6872 15.4516 10.1906 9.75833 9.75207 10.1291 10.7586 8.80468 8.37216 9.33531 6.64989 7.527 5.99 5.6805 5.68279 5.63409 5.40045 5.0186 4.79371 4.69527 4.66786 4.60433 4.58013 4.89213 4.24741 4.17618 4.84244 4.06058 4.5679 4.97578 4.07695 4.0552 3.9886 4.88277 3.78651 3.77466 3.73816 3.67492 3.61413 3.78557 3.48923 3.47988 3.23797 3.05803 2.86676 2.8311 2.77159 2.76431 2.76348 2.75997 2.692 2.67237 2.66873 3.03425 2.77042 3.5079 2.85001 2.65561
threshold=5.5000000000000009 0.32315462315462323 0.63961038961038974 8.5000000000000018 0.57738095238095244 0.4737898964278166 0.56696428571428581 0.07417582417582419 1.0000000180025095e-35 0.36038961038961043 6.5000000000000009 22.500000000000004 7.5000000000000009 19.500000000000004 0.13809523809523813 0.28018691588785055 304.50000000000006 0.29958518315363653 628.50000000000011 9.5000000000000018 0.37410724888459129 333.50000000000006 0.34902177925433747 0.22382841039557461 1.5000000000000002 0.29166666666666669 0.26988996007400917 0.26600624634003517 3.5000000000000004 17.500000000000004 0.45501077586206901 0.67948717948717963 5.5000000000000009 0.38675213675213682 0.22649572649572652 -3.4999999999999996 0.21756661991584855 0.22500000000000003 1.5000000000000002 0.16060405643738981 0.21756661991584855 0.34313725490196084 0.32419919919919926 262.50000000000006 1.0000000180025095e-35 0.63333333333333341 1.5000000000000002 0.2797849462365592 0.27952639689401221 0.20024449877750614 212.50000000000003 0.26458434613514831 11.500000000000002 157.50000000000003 32.760042238648374 -1.0000000180025095e-35 0.4175007506756081 7.5000000000000009 0.24794235198482592 7.5000000000000009 8.5000000000000018 27.500000000000004
decision_type=2 2 2 2 2 2 2 2 2 2 2 2 2 2 2 2 2 2 2 2 2 2 2 2 2 2 2 2 2 2 2 2 2 2 2 2 2 2 2 2 2 2 2 2 2 2 2 2 2 2 2 2 2 2 2 2 2 2 2 2 2 2
left_child=2 3 5 14 7 8 11 21 -1 10 17 29 20 -14 15 16 23 18 47 26 25 -5 35 -2 -18 -4 36 -28 -23 30 -3 32 33 -16 -34 -17 37 -12 -9 -13 45 -36 43 -25 48 -11 -6 50 -15 -43 -10 -7 -26 -27 61 -37 58 -58 59 -41 -60 -38
right_child=1 6 12 4 46 51 -8 38 9 40 19 39 13 44 31 22 24 -19 -20 -21 -22 28 -24 42 52 53 27 -29 -30 -31 -32 -33 34 -35 41 55 54 -39 -40 56 -42 49 -44 -45 -46 -47 -48 -49 -50 -51 -52 -53 -54 -55 -56 -57 57 -59 60 -61 -62 -63
leaf_value=-0.028526112773939627 -0.031605819235967669 -0.020545366627754864 0.0057983182934155195 -0.043086154483922147 -0.0012862744046918623 0.026595542949366443 0.045426223236759274 -0.046470984491858103 -0.00025739325926800574 -0.0022033282656567336 -0.015377429872067123 -0.021671082479622593 -0.016461367850519507 0.029798013320846896 0.010031331986733486 0.031748189676757625 -0.003358735729653989 -0.011900974323795742 -0.02643744413939067 -0.046251794503483629 0.069760454080563125 -0.041005311687875572 0.042939980637925701 -0.024328095517575098 -0.052364153141057426 0.025729647525852495 -0.0084287706735020895 0.033375186311879412 -0.073365862139126478 -0.037131302973026366 0.025645711083598262 0.025868358630639909 -0.049220540218373854 -0.026148319639747654 0.0021051602125373662 -0.036121253799445578 -0.021275174927922479 0.020290159441414116 -0.024835873574835313 -0.034559072147365172 0.029897798497045543 -0.0010316539214986445 0.029186182835897537 0.028172630295840568 0.046655412245741351 0.030842905562688368 0.049649657088658795 0.040321126303620503 -0.013800760861495004 -0.043340101942499265 0.024556249587909043 0.054331466276698395 -0.015947978115962085 0.053889619351265988 -0.052972097918010767 0.0023346202142352679 0.030419520032047509 -0.0088534676118713785 0.022593870483014523 0.015210711747420953 -0.010878909251849877 0.015962137815822796
leaf_weight=12.626697593368588 51.138158624991775 15.314694936387243 7.2692902693524948 59.717700630426407 7.010502437129615 18.339420864358544 12.809190106578169 34.773935682140291 14.186506425496189 21.089484448544681 17.253465610090643 7.8452832093462339 8.875164511613546 11.411029976326974 27.216892809374258 3.3462457712739768 6.5090946853160849 12.897053818218408 4.8014357183128586 6.3165924362838259 37.758418220095336 18.75243426579982 3.6649962095543733 16.841267304029323 52.868304689880461 13.816717425361274 11.388559661805632 15.875974063761531 48.604214207269251 16.777593577280641 7.7223101584240785 5.7889995891600838 12.044771280139683 13.337520842906086 15.911756515968589 11.318831171840435 20.952020136639483 19.270428225863725 60.008833921514452 7.4425890427082759 104.31760170776397 5.7499941745772984 5.0575049496255806 3.3666388858109704 33.865145675837994 11.685245426371692 4.5524540264159441 25.181310135871172 4.7164490809664121 12.019436639733611 53.052140249405056 27.000916134566069 6.9808295168913892 53.047113287262619 4.4832928525283924 6.951635417528446 26.660844945348799 5.5097181759774676 20.611444150097672 5.3260805467143655 8.3036689888685924 5.329811797477304
leaf_count=182 845 205 88 1092 94 173 99 615 202 278 315 112 116 103 343 34 101 188 73 52 212 335 31 287 1043 152 156 168 1072 237 68 70 225 195 228 214 337 258 953 118 1086 80 58 38 286 122 34 251 63 200 667 193 115 449 88 72 262 63 231 57 116 69
internal_value=0 -0.0242912 0.0252571 -0.0321818 -0.0425629 0.0166888 0.00472446 -0.045962 0.0131529 0.0147422 0.00780636 9.82006e-05 0.0454158 0.029315 -0.0227388 -0.0286522 -0.0330781 0.0185415 0.02266 -0.00398002 0.0535519 -0.0551656 -0.00335242 -0.0230235 -0.0441411 0.0444778 -0.000701596 0.016233 -0.0650882 -0.0189052 -0.00463875 -0.0117539 -0.0145456 -0.00221033 -0.0252043 -0.0127526 -0.00770048 0.00348042 -0.0331757 0.00947571 0.0252827 -0.0154443 -0.00511048 -0.0146655 0.0376051 0.0101431 0.0211235 0.0254664 0.0169863 -0.0304339 0.0193938 0.0439288 -0.0484485 0.0485355 -0.020666 -0.0221275 0.0130296 0.0236293 0.00448715 -0.0142021 0.012939 -0.0134154
internal_weight=0 627.856 576.807 493.533 233.42 406.048 134.323 221.857 360.708 348.081 210.989 121.514 170.759 58.8678 260.113 168.044 142.762 110.118 97.2214 100.87 111.892 127.074 25.2817 76.4036 66.3582 74.1331 94.5536 27.2645 67.3566 39.8146 23.037 92.0694 86.2804 40.5544 45.726 21.6167 67.289 36.5239 94.7828 81.6996 137.092 33.6812 25.2654 20.2079 49.9926 32.7747 11.563 92.42 16.1275 17.7694 67.2386 45.3403 59.8491 66.8638 30.7651 18.2705 73.8543 32.1706 41.6838 12.7687 28.9151 26.2818
internal_count=16269 9942 6327 8374 4195 4858 1568 4067 4492 4310 2824 1469 1469 568 4179 2838 2487 1381 1193 1443 901 2499 351 1228 1259 689 1391 324 1407 510 273 1341 1271 538 733 320 1067 573 1568 959 1486 508 383 325 452 400 128 1120 166 280 869 366 1158 601 494 286 847 325 522 175 347 406
is_linear=0
shrinkage=0.05


Tree=1
num_leaves=63
num_cat=0
split_feature=16 14 16 11 14 10 22 4 11 4 15 13 2 17 9 14 4 4 3 3 25 23 14 21 14 13 13 1 15 4 22 21 5 25 4 14 21 21 16 1 4 15 15 4 1 13 14 6 23 4 21 3 21 11 15 20 20 4 6 21 22 4
split_gain=473.812 218.923 82.0261 80.108 46.2176 30.5577 25.6602 23.629 21.6684 21.4653 26.7978 20.0904 19.4734 15.5369 14.4058 14.1675 13.968 13.7108 23.8225 15.8162 13.5977 13.388 12.9848 16.272 12.2349 13.4889 11.8569 14.779 11.8065 13.5569 11.7676 12.1475 11.7558 12.474 11.7443 11.7101 13.9311 11.7062 15.7951 12.9381 10.8523 15.3854 11.6849 10.8132 15.9043 10.7175 17.2196 11.3154 10.6172 15.4236 12.3633 11.6011 10.5638 10.3943 10.3524 10.2013 10.0757 12.0234 10.0039 9.76157 9.60013 9.26809
threshold=4.5000000000000009 0.33357418111753373 7.5000000000000009 0.58578431372549034 0.35764506722024519 0.17156862745098042 0.22756041426927506 3.5000000000000004 0.55050505050505061 4.5000000000000009 0.22564832384566733 598.50000000000011 1.0000000180025095e-35 1.0000000180025095e-35 1.0000000180025095e-35 0.36323828139971642 5.5000000000000009 8.5000000000000018 1500.0000000000002 1725.0000000000002 126.50000000000001 1.0000000180025095e-35 0.23841627571478879 0.20912712785222748 0.36744435244264778 588.50000000000011 519.50000000000011 35.500000000000007 0.11483516483516486 6.5000000000000009 0.2007194244604317 0.30875140215835689 0.45000000000000007 126.50000000000001 1.5000000000000002 0.45501077586206901 0.29821028187059578 0.28336707152496632 1.5000000000000002 21.500000000000004 11.500000000000002 0.47744233378561746 0.36086349895356956 7.5000000000000009 24.500000000000004 107.50000000000001 0.24350637181409299 9.5000000000000018 1.0000000180025095e-35 9.5000000000000018 0.21861869747899162 1500.0000000000002 0.27952639689401221 0.26969696969696971 0.20670914542728638 296.50000000000006 153.50000000000003 6.5000000000000009 2.5000000000000004 0.2540002560163851 0.18537609774723179 7.5000000000000009
decision_type=2 2 2 2 2 2 2 2 2 2 2 2 2 2 2 2 2 2 2 2 2 2 2 2 2 2 2 2 2 2 2 2 2 2 2 2 2 2 2 2 2 2 2 2 2 2 2 2 2 2 2 2 2 2 2 2 2 2 2 2 2 2
left_child=3 2 7 6 9 45 11 12 17 -5 -11 20 58 54 15 28 32 19 21 24 22 35 -1 -24 56 30 27 40 -15 -30 -26 -32 33 -7 52 36 -19 39 -39 -12 41 42 -16 -6 -45 46 -4 -47 51 50 -50 -9 -14 55 -8 -22 -3 -58 -2 -48 -60 -49
right_child=1 8 5 4 43 16 13 48 -10 10 37 -13 34 14 26 -17 -18 18 -20 -21 53 -23 23 -25 25 -27 -28 -29 29 -31 31 -33 -34 -35 -36 -37 -38 38 -40 -41 -42 -43 -44 44 -46 47 59 61 49 -51 -52 -53 -54 -55 -56 -57 57 -59 60 -61 -62 -63
leaf_value=-0.029733317179982184 -0.025687003398828446 0.031842651743687639 -0.046413511250474528 0.031982483197120062 0.05172703567208288 -0.033436211094602014 -0.023632901317094293 -0.033191005036351105 0.038199459083216827 -0.0085190867886726692 0.048999677865666932 0.024657804385720135 -0.022307599842249101 0.03680310656186022 0.017970359704603058 0.027890277898240876 -0.037314581188327443 -0.056703052491072096 0.023786663880102775 -0.021997664558658141 -0.044887753305719341 -0.050758369461705345 0.03099877594592948 -0.022851240530131597 -0.015751877111665348 0.044477278909693559 0.029252147693886888 -0.025890803167972334 0.0061048154243908545 -0.028133090789395854 0.030043671343522899 -0.0020459490962049633 0.02910160909732214 0.00016675807290748767 -0.0363483704404792 0.010713474398755474 0.016720576975932398 0.033238862296660503 -0.013920571635988564 0.016953884117268538 -0.010979704321491694 -0.022261988491984675 0.045020359182231962 0.0040861582558346992 0.046916012916772901 -0.057330398336018121 0.032679345474635711 -0.017711729385044214 0.016425651663076312 -0.037687750626613621 -0.014071695497306065 -0.0123651172741933 0.032496935884092255 0.015670466722390579 0.0058794935794281786 0.002140476264983412 0.00050406384715068523 -0.05349809128170762 -0.019027363914026357 -0.028129463599278405 0.019184992402125799 -0.056972731263696411
leaf_weight=96.369558218866587 17.800944790244102 17.269555598497391 57.93948064930737 219.24491302669048 195.7584125623107 66.544666768983006 36.777275454252958 242.75469144247472 60.780280891805887 108.19137083366513 56.390474677085876 52.680173076689243 19.37714372202754 14.00956469401717 235.46609213575721 42.998178169131279 147.37670760974288 18.247068703174595 41.514206536114216 30.020431615412235 16.346899837255478 26.502360545098782 23.872436311095953 31.177180353552103 25.841758411377668 49.566968146711588 214.1888900436461 20.66205520182848 59.634255480021238 54.596984792500734 98.065559946000576 41.819365862756968 12.946048539131878 46.70459221303463 51.523945095017552 34.394450839608908 9.157961640506981 29.483792990446091 41.60874081403017 73.581706639379263 31.152283769100904 19.61334653198719 48.052450627088547 35.880698507651687 54.5524041056633 266.19383595511317 12.641611337661745 40.515265360474586 45.062538333237171 47.866854855790734 118.73554707691073 94.462858702987432 14.468637209385632 72.141877006739378 138.2338491640985 34.142784770578146 51.946472018957138 11.853181313723324 18.547064077109098 11.79622135683894 107.34203162416816 24.328826013952494
leaf_count=396 91 57 480 408 275 419 136 1535 125 285 107 123 108 35 633 76 1021 115 135 109 71 99 72 128 95 106 443 64 181 246 241 112 50 258 293 86 36 67 104 150 99 36 88 102 94 2471 59 273 193 307 591 534 55 211 376 132 223 71 94 84 393 204
internal_value=0 -0.0175598 -0.0274269 0.0166892 0.0288653 -0.0400119 0.0086863 -0.0162762 0.0103988 0.0200386 0.0114952 -0.00333515 -0.00277045 0.0129761 0.0161393 0.00339973 -0.0268827 0.00661938 -0.00708649 0.0120758 -0.00878626 -0.021705 -0.0187601 0.00063741 0.0155896 0.0217989 0.0199597 0.0142858 -0.00496403 -0.0103614 0.0147899 0.0205039 -0.0145023 -0.019698 -0.0215474 -0.00863579 -0.0324422 0.0222536 0.00582735 0.0311254 0.0168389 0.0197245 0.0226971 0.0450387 0.0301532 -0.0486141 -0.0317801 -0.0526948 -0.0218971 -0.013025 -0.0056328 -0.027411 0.00138089 0.00358101 -0.000421349 -0.0136618 -0.00096481 -0.0101996 0.0084572 0.00337482 0.0134496 -0.0330836
internal_weight=0 1981.91 1464.93 2056.81 814.693 686.987 1242.12 777.942 516.98 528.501 309.256 326.731 229.06 915.385 740.374 171.239 273.572 456.199 129.816 326.383 274.051 88.3018 151.419 55.0496 296.363 215.294 569.135 354.946 128.241 114.231 165.727 139.885 126.195 113.249 85.3697 61.7995 27.405 201.065 71.0925 129.972 334.284 303.132 283.519 286.192 90.4331 413.415 82.3773 331.038 548.882 211.665 163.798 337.218 33.8458 122.632 175.011 50.4897 81.0692 63.7997 143.69 24.4378 125.889 64.8441
internal_count=16261 11123 9513 5138 1592 5319 3546 4194 1610 1121 713 1133 1034 2413 1901 538 1748 1485 471 1014 1010 336 596 200 905 554 1363 920 462 427 448 353 727 677 456 237 151 428 171 257 856 757 721 471 196 3571 623 2948 3160 1091 784 2069 163 414 512 203 351 294 578 143 487 477
is_linear=0
shrinkage=0.05


Tree=2
num_leaves=63
num_cat=0
split_feature=16 14 14 16 10 9 4 9 16 4 2 20 10 2 9 11 20 4 11 21 1 1 13 26 13 22 22 8 14 6 20 4 0 8 11 22 11 14 14 14 26 6 22 21 1 21 20 14 1 21 26 18 6 21 0 22 23 26 21 21 10 8
split_gain=411.187 128.941 83.9306 56.2347 45.6013 30.9324 22.9347 24.9784 20.7825 18.9373 17.5926 17.2683 19.7911 17.0296 16.5619 15.5651 15.2701 14.4606 14.4208 13.9566 13.3069 13.6668 12.9389 12.1613 13.7104 13.2124 18.7697 16.9847 15.6615 11.6452 11.3353 11.2309 10.7359 10.4787 10.4212 12.591 10.2319 10.077 10.3698 10.0388 10.5053 9.84483 9.57651 9.37812 9.24963 9.13992 8.96188 8.80884 8.73844 8.68543 9.92031 8.61828 8.53739 7.91219 10.7698 7.80292 11.0632 7.79246 7.6678 7.66509 7.57414 8.69706
threshold=5.5000000000000009 0.36744435244264778 0.40101351351351361 7.5000000000000009 0.45804195804195807 0.45000000000000007 7.5000000000000009 0.63333333333333341 1.5000000000000002 10.500000000000002 -299.99999999999994 581.50000000000011 0.22649572649572652 31.668426610348472 0.36666666666666675 0.087121212121212141 153.50000000000003 5.5000000000000009 0.96153846153846168 0.26985440975507208 38.500000000000007 76.500000000000014 571.50000000000011 2.5000000000000004 274.50000000000006 0.2681669600201157 0.30741758241758249 0.26491228070175443 0.23726934495847271 4.5000000000000009 542.50000000000011 5.5000000000000009 1.5000000000000002 0.60555555555555574 0.62019230769230782 0.25403330731199586 0.27922077922077926 0.25319965371206632 0.28582350371341203 0.24492088970419632 11.500000000000002 8.5000000000000018 0.25268941584731064 0.32879588064430953 63.500000000000007 0.30673139158576057 477.50000000000006 0.49305018890606223 34.500000000000007 0.31000979136853207 2.5000000000000004 1.0000000180025095e-35 6.5000000000000009 0.32639830712258938 3.5000000000000004 0.21886405109489054 1.0000000180025095e-35 1.0000000180025095e-35 0.27861645968630139 0.22780305419163027 0.56696428571428581 0.60555555555555574
decision_type=2 2 2 2 2 2 2 2 2 2 2 2 2 2 2 2 2 2 2 2 2 2 2 2 2 2 2 2 2 2 2 2 2 2 2 2 2 2 2 2 2 2 2 2 2 2 2 2 2 2 2 2 2 2 2 2 2 2 2 2 2 2
left_child=2 3 4 9 6 15 11 22 -4 10 -2 13 -13 20 48 16 37 32 19 -19 23 42 44 25 -25 28 -27 -28 -1 -18 60 34 -16 41 35 -10 -11 -5 -39 40 -17 49 -22 58 -8 51 -30 -43 57 50 -3 -41 -50 54 -33 -56 -57 -6 -20 -15 -21 -62
right_child=1 33 8 5 14 -7 7 -9 31 36 -12 12 -14 59 17 39 29 18 43 30 21 -23 -24 24 -26 26 27 -29 46 -31 -32 53 -34 -35 -36 -37 -38 38 -40 45 -42 47 -44 -45 -46 -47 -48 -49 52 -51 -52 -53 -54 -55 55 56 -58 -59 -60 -61 61 -63
leaf_value=-0.014777803045837277 0.031358415233096369 0.021214068151510772 0.050934800847842 -0.039573596973593431 0.00065384552667189936 -0.0039569559296859748 -0.026085061812460411 0.013303924938760044 0.0032365206024218881 -0.047594904372337044 -0.014285958952086465 0.011306719083735992 -0.05038342751200247 0.009915900732997189 -0.0030636176604517413 -0.042173704915652838 -0.064362200208356313 -0.0080592911570838543 0.029694504025927927 0.023998658976497042 -0.0070789896143420121 0.021825746361225334 0.0079757278044825467 -0.0069792835551557107 0.040481099120446888 0.038407518712201619 0.021828714897976512 -0.02843333265988883 0.024786284913660278 -0.04252296809387994 0.045732423378736543 -0.0037273704890133474 0.030042917705750766 0.042373657470160003 0.056577813463185959 0.041292221585587666 -0.0060354059994745038 0.026394089910705187 -0.040296752754189424 -0.030743031270452404 0.0045981326784047529 0.001016607762673207 -0.061010038581373861 0.058868148041344874 0.015052872276122684 0.023470476517276642 -0.014086071072069887 -0.045113398652990619 -0.010102507616247404 -0.0075096862884280599 -0.01300991212424555 0.014535955241845092 0.029606369443069037 0.043987414262253804 -0.00084992011932979051 0.043835025495395481 0.0043399684237363494 -0.036002561276790732 -0.0018442158518079178 -0.021596621627240287 -0.031818800449788791 0.01078653299659408
leaf_weight=76.656063422560692 21.138640247285366 151.45593884214759 119.4559445604682 46.72684445977211 39.175443604588509 62.940366122871637 184.17999145016074 86.863801572471857 35.101597607135773 63.643380329012871 489.87904965877533 24.530836571007967 25.956842064857483 28.418526999652386 26.30288365483284 150.20427762158215 131.20029911957681 102.06597916036844 64.949871726334095 42.3638004809618 20.645388305187225 20.328799363225698 39.756430681794882 18.407399103045464 80.008797764778137 80.2637093141675 43.765318311750889 25.92202702909708 65.925114896148443 134.91577976942062 25.810698255896568 55.940662935376167 322.54919796437025 21.814793296158314 46.098088510334492 56.865180246531963 19.62425085529685 14.213997408747675 8.4491779357194883 62.736278271302581 12.838860694319008 32.396320950239897 13.035553954541681 18.959118649363518 14.118851812556384 11.237509980797766 18.33336690813303 14.177210390567778 21.464321330189705 47.249679107218981 23.901487406343222 11.963748302310703 33.875688057392836 24.879011742770672 25.375848349183798 53.357830092310905 26.667820103466511 21.983717869967222 27.070163626223803 56.119660709053278 17.597768653184175 32.735536929219961
leaf_count=322 81 386 196 447 138 387 1009 267 84 551 2767 93 117 104 76 1243 1495 321 145 107 72 60 150 66 177 189 130 85 176 1308 68 140 654 38 74 101 129 75 65 438 76 116 58 43 61 57 64 58 84 160 84 61 96 44 69 93 66 81 95 227 65 114
internal_value=0 -0.0201224 0.0137168 -0.0271389 0.00870485 -0.0373306 0.00113753 -0.00953873 0.0330818 -0.0159917 -0.0123403 0.00694156 -0.0207721 0.00952883 0.0174594 -0.0409116 -0.0480115 0.020438 0.0128997 0.00545319 0.0132925 -0.00988952 -0.0178946 0.0163683 0.0316234 0.0114528 0.0220788 0.00299469 0.00147552 -0.0534908 0.017061 0.026369 0.0275451 0.00980805 0.0371836 0.0269583 -0.0379881 -0.0265369 0.000878514 -0.0311904 -0.0384851 0.00702182 -0.0291093 0.0275189 -0.0230952 -0.0170673 0.0162622 -0.0136787 3.7382e-05 0.0113946 0.016502 -0.0233951 0.0142988 0.0181953 0.0139717 0.023312 0.0308897 -0.0128896 0.0204965 -0.0110112 0.0086748 -0.00443901
internal_weight=0 1532.71 2163.88 1241.71 1720.14 647.427 923.236 324.919 443.742 594.285 511.018 598.317 50.4877 547.83 796.904 584.487 335.506 680.405 331.553 220.574 463.292 54.0097 238.055 409.282 98.4162 310.866 149.951 69.6873 160.915 266.116 118.508 324.286 348.852 290.995 138.065 91.9668 83.2676 69.39 22.6632 248.981 163.043 269.181 33.6809 110.979 198.299 85.9375 84.2585 46.5735 116.499 222.607 175.357 74.7 55.34 186.221 161.342 105.401 80.0257 61.1592 92.02 84.5382 92.6971 50.3333
internal_count=16403 10022 6381 9180 5514 5652 3427 1487 867 3528 2848 1940 210 1730 2087 5265 3390 1688 958 675 1399 190 1220 1209 243 966 404 215 562 2803 354 671 730 842 259 185 680 587 140 1875 1319 804 130 283 1070 556 240 174 399 630 470 499 180 412 368 228 159 219 240 331 286 179
is_linear=0
shrinkage=0.05


Tree=3
num_leaves=63
num_cat=0
split_feature=9 11 11 4 4 4 22 0 20 11 21 5 12 0 20 13 4 26 0 4 22 13 20 22 17 10 13 3 8 20 1 11 5 21 20 21 12 21 5 23 11 22 11 21 10 22 12 21 10 13 13 3 8 21 22 8 12 8 10 13 1 25
split_gain=261.752 44.2849 42.895 41.7844 20.0295 18.6966 18.2701 16.8099 16.4213 16.3961 16.6229 15.7917 16.6854 15.6388 14.6051 15.0796 14.5801 14.5673 13.9681 12.7927 12.4007 12.3537 12.2884 15.2595 12.2057 12.0703 11.8709 11.8216 11.2243 11.0486 10.9161 10.5712 10.2064 9.74146 10.4738 10.1729 9.7305 19.8386 12.7452 10.8693 9.6864 9.62102 9.61016 9.50123 9.35406 9.03017 8.97964 8.91242 8.8851 8.99519 8.8633 8.85733 9.0866 14.1374 8.88842 10.8406 10.2559 8.63198 17.1975 10.0581 8.25758 8.04558
threshold=0.29166666666666669 0.63961038961038974 0.40588235294117653 6.5000000000000009 5.5000000000000009 12.500000000000002 0.23430461711711714 4.5000000000000009 44.500000000000007 0.89444444444444449 0.3354943784806137 0.45000000000000007 0.76388888888888895 3.5000000000000004 204.50000000000003 594.50000000000011 4.5000000000000009 1.0000000180025095e-35 1.0000000180025095e-35 10.500000000000002 0.20812706270627065 204.50000000000003 93.500000000000014 0.27716807825360856 1.0000000180025095e-35 0.19375000000000003 631.50000000000011 1300.0000000000002 0.080128205128205135 122.50000000000001 27.500000000000004 0.36038961038961043 0.18333333333333338 0.25117381241044862 35.500000000000007 0.26809081056414358 0.37980769230769235 0.3154306858930343 0.18333333333333338 1.0000000180025095e-35 0.13809523809523813 0.34409722222222228 0.88194444444444453 0.30776584791881162 0.38675213675213682 0.3144009216589862 0.080128205128205135 0.29958518315363653 0.26969696969696971 367.50000000000006 346.50000000000006 1725.0000000000002 0.45804195804195807 0.29388157629915879 0.24015503875968994 0.15587044534412958 0.060661764705882359 0.30384615384615393 0.2817460317460318 509.50000000000006 24.500000000000004 132.50000000000003
decision_type=2 2 2 2 2 2 2 2 2 2 2 2 2 2 2 2 2 2 2 2 2 2 2 2 2 2 2 2 2 2 2 2 2 2 2 2 2 2 2 2 2 2 2 2 2 2 2 2 2 2 2 2 2 2 2 2 2 2 2 2 2 2
left_child=2 6 3 7 29 8 17 14 -5 10 45 12 22 26 20 41 -9 32 -8 36 -1 -21 -6 61 -18 -15 43 -17 33 -3 50 -32 48 34 -22 -35 37 38 51 -39 -29 -16 -25 -10 47 -4 -41 -27 49 -2 -19 52 54 -54 -20 -56 -57 58 59 -58 -23 -24
right_child=1 4 9 5 11 -7 18 16 13 -11 -12 -13 -14 25 15 27 24 30 19 21 28 60 23 42 -26 44 -28 40 -30 -31 31 -33 -34 35 -36 -37 -38 39 -40 46 -42 -43 -44 -45 -46 -47 -48 -49 -50 -51 -52 -53 53 -55 55 56 57 -59 -60 -61 -62 -63
leaf_value=-0.020209796809833994 -0.06322296896361955 0.013371488932777354 -0.0085351426711303153 -0.0013330780064956171 -0.020310118528884032 -0.054595828657395311 -0.026965445923609888 0.014476524663917762 -0.049503922712537868 0.03430753619376261 0.045701701575104794 -0.025260959106156052 0.048567739063959392 -0.026167460877275995 -0.023350474065919377 0.019606508550933759 0.0048738766739917401 -0.0050031493316782015 0.048604328314748202 -0.038957291428325942 0.06406342155776841 -0.007912960930665321 0.010134462241404778 0.014507419835427682 -0.049742098029819576 -0.0059916480265253848 0.0055167710272767123 -0.05327769658183204 0.044320864355710803 0.038185218533315628 -0.041949125551673967 0.0083313105983626543 -0.05543990292280282 -0.044435361412899499 0.0030676078623406025 0.00036155348179156923 0.042955135749450271 0.005027561934253846 0.039123274849918052 -0.0041672814016068026 0.0033279128256691369 0.004170784580003215 0.045014420445234869 -0.011669300704453774 -0.04868558083551109 0.01807585826383178 -0.062077377660104308 0.040473532475999927 -0.0012929917591636372 -0.012185636779748083 0.025238136178167361 -0.013004201576619471 -0.0069349170883996995 0.032635201210115032 -0.0078120748088367185 0.032375802623122556 -0.024752402728437713 0.00086349280083165131 0.048736364055573307 0.026508476591324038 0.021909096197440931 -0.025673847684875559
leaf_weight=62.286628261208534 12.169029772281645 56.224470369517803 189.49557984434068 71.991688556969166 23.320064291357994 53.385504327714443 21.401584193110466 113.98107404448092 122.19477198086679 38.447588667273521 17.088600624352694 21.24259278178215 39.044337511062622 282.70461573638022 388.22553381882608 44.05625974200666 21.914607919752598 34.209621643647552 25.672653794288635 18.207492757588625 10.380157090723516 52.619006615132093 87.568521767854691 50.47338056191802 17.92491902410984 67.535534614697099 12.82266905903816 12.061837900429966 16.116277985274792 252.98452005535364 17.496135607361794 23.42543588578701 12.300420373678206 13.823881722986696 18.726781506091356 87.24946241825819 30.944555416703224 42.562328416854143 61.121802842244506 12.659006454050543 17.675415523350239 34.274204807356 54.985641833394766 20.018162781372666 9.7546472735702974 37.321075953543186 13.582779224961994 11.150130577385424 98.065197706222534 26.968904435634613 79.689842220395803 26.122589282691479 80.133556246757507 30.293191939592361 34.906645637005568 121.10534525662661 18.52841017767787 76.158807307481766 36.287791725248098 17.764609921723604 40.021205179393291 18.079601675271988
leaf_count=371 95 124 914 355 74 566 112 529 1138 104 41 71 71 2306 2570 157 102 161 73 106 27 223 250 157 139 433 44 72 53 482 82 80 69 96 111 417 75 146 156 46 66 172 129 143 73 141 65 44 424 132 249 100 240 76 133 356 92 249 83 53 124 57
internal_value=0 0.014036 -0.0134747 -0.0168172 0.0248417 -0.0263585 0.00788758 -0.00955526 -0.0237515 0.0044002 -0.000435029 0.0154328 0.0186743 -0.0268104 -0.0128202 -0.0174783 0.00539233 -0.00245957 0.0120281 0.0131928 -0.0017064 -0.00244815 0.0135104 0.0173245 -0.0203157 -0.0211378 -0.040168 0.00333774 0.00625525 0.0337309 0.00826526 -0.0136541 -0.013547 0.0012408 0.0262254 -0.00614066 0.0159538 0.0144844 0.0177726 -0.0106465 -0.0206184 -0.0211133 0.030687 -0.0442969 -0.00494719 -0.00409637 -0.0353201 0.00101797 -0.00941726 -0.0292343 0.0161907 0.0149004 0.0165796 0.00411575 0.02072 0.0182197 0.0216035 0.012675 0.0248885 0.000376643 0.00506676 0.0038233
internal_weight=0 1668.34 1792.61 1510.25 603.923 651.558 1064.42 858.697 598.172 282.353 243.905 294.714 273.472 526.181 704.876 496.293 153.821 304.325 760.093 738.692 208.583 110.848 234.427 211.107 39.8395 371.145 155.036 73.7935 146.297 309.209 154.821 40.9216 149.504 130.18 29.1069 101.073 627.844 596.9 528.095 68.8041 29.7373 422.5 105.459 142.213 88.4403 226.817 26.2418 78.6857 137.203 39.1379 113.899 466.974 440.851 110.427 330.424 304.752 269.845 148.74 72.5808 36.293 92.6402 105.648
internal_count=16399 5215 11184 9984 1415 5102 3800 4882 4536 1200 1096 809 738 4181 4112 3037 770 1292 2508 2396 1075 453 667 593 241 2856 1325 295 704 606 572 162 720 651 138 513 1943 1868 1611 257 138 2742 286 1281 550 1055 111 477 651 227 410 1455 1355 316 1039 966 833 477 228 145 347 307
is_linear=0
shrinkage=0.05


Tree=4
num_leaves=63
num_cat=0
split_feature=16 15 14 16 16 10 14 8 10 20 22 25 14 14 13 0 22 0 13 10 1 11 17 10 20 11 1 11 3 13 20 20 15 22 8 15 13 20 8 14 22 20 20 12 11 26 16 23 8 22 22 22 22 11 25 11 14 12 25 13 14 14
split_gain=291.623 145.822 56.977 41.0971 37.4703 29.1743 18.6257 18.0885 15.6761 15.3182 13.1383 12.2363 15.6336 12.0103 11.4099 11.0726 11.032 10.7405 10.5342 10.3336 12.2397 9.96425 9.87353 9.84983 8.74633 8.6851 8.48532 8.22698 10.9929 7.98423 14.5895 7.69785 7.69515 7.59901 7.49697 10.4831 8.55569 7.67559 7.49033 7.32838 7.04318 8.68304 8.66667 7.47248 15.1818 7.00069 6.97328 6.89105 17.2519 8.01425 8.22447 9.9273 11.8996 7.26151 7.07069 8.03742 6.5647 8.74358 6.48038 8.34366 7.11723 6.55052
threshold=5.5000000000000009 0.32315462315462323 0.30751587861679613 7.5000000000000009 3.5000000000000004 0.14835164835164838 0.4175007506756081 0.64495798319327746 0.37980769230769235 138.50000000000003 0.23962637741046836 130.50000000000003 0.26651456258726131 0.48264915161466893 606.50000000000011 1.0000000180025095e-35 0.28729518219613603 3.5000000000000004 580.50000000000011 0.080128205128205135 53.500000000000007 0.19375000000000003 1.0000000180025095e-35 0.21825396825396828 606.00000000000011 0.42261904761904767 35.500000000000007 0.16025641025641027 1300.0000000000002 643.50000000000011 44.500000000000007 70.500000000000014 0.15643825301204822 0.20941306755260247 0.17914438502673799 0.38174878556557951 134.50000000000003 440.50000000000006 0.96153846153846168 0.25465563878485237 0.22756041426927506 509.50000000000006 368.50000000000006 0.14835164835164838 0.36038961038961043 2.5000000000000004 1.5000000000000002 1.0000000180025095e-35 0.28991596638655465 0.33689931350114422 0.19395370088333844 0.22568518069366969 0.26518318170641758 0.38675213675213682 118.50000000000001 0.46410256410256417 0.23535764197687717 0.080128205128205135 125.50000000000001 314.50000000000006 0.14525231237560007 0.29726616016938606
decision_type=2 2 2 2 2 2 2 2 2 2 2 2 2 2 2 2 2 2 2 2 2 2 2 2 2 2 2 2 2 2 2 2 2 2 2 2 2 2 2 2 2 2 2 2 2 2 2 2 2 2 2 2 2 2 2 2 2 2 2 2 2 2
left_child=2 3 4 19 8 31 10 16 40 -9 -3 -7 -13 -8 15 -10 18 26 23 58 24 -17 -18 -4 56 29 32 28 -19 30 -15 -5 -6 -29 36 -36 -12 -38 -11 -35 41 42 -1 -42 -45 -44 -25 53 -49 50 -50 -52 -53 -23 -55 -56 57 -21 59 60 -2 -60
right_child=1 6 7 5 17 11 13 9 14 38 34 12 -14 25 -16 21 22 27 -20 20 -22 47 -24 46 -26 -27 -28 33 -30 -31 -32 -33 -34 39 35 -37 37 -39 -40 -41 43 -43 45 44 -46 -47 -48 48 49 -51 51 52 -54 54 55 -57 -58 -59 61 -61 -62 -63
leaf_value=-0.0018695459841466219 -0.040216844841140131 -0.020004339748184261 0.020573972742831181 -0.019801780959273558 0.014810233627722888 -0.030875266925913504 0.035890086235737535 0.0081469589534135783 -0.014193064006045803 0.031661457461689878 0.014616075938937429 0.0057349351658596342 -0.066466541528910419 0.014586958056178836 -0.019920743707104113 -0.0097715067725270294 0.00071678456328268247 0.0051645382602724457 0.023960007163505742 -0.0018690330181722744 -0.050746352938949441 -0.0032255341392813165 0.030754278397017255 0.016988155326069423 0.024114325943374919 0.033990747329233968 -0.047832269396853533 -0.010628910389105559 -0.023265758118161815 0.02356454590831368 -0.031871656252303981 -0.050764928496882994 -0.018243576808784506 0.023754946055007442 0.031631553949522072 -0.016073213358177189 -0.046293161211529793 -0.0013954177180015171 0.053003870165511571 -0.009997480215120846 0.010601783745190864 0.020396750593050281 -0.064706487963356332 0.01281854212151004 -0.051852523709922174 -0.0088576064707142303 -0.013441360774518726 0.053871815608882045 -0.017706882699002592 -0.017453819762056014 0.044301912165845253 -0.013336577209195961 0.020970316774545788 0.0054194574774420598 0.052609977146034582 0.026512493297749885 0.0056785438689964957 -0.033375477450848616 -0.01864436819659258 -0.046506836751410353 -0.010612140618506231 0.016936742513051793
leaf_weight=25.591461423784494 30.549912173300982 68.688251363113523 50.854316707700491 23.615518098697066 20.553834173828363 176.59144236892462 68.946190696209669 41.237533733248711 25.213294040411711 92.434219904243946 32.230503536760807 51.801142524927855 7.7434930801391593 35.37732932344079 20.000617779791355 27.542206108570099 31.974963832646608 67.285980626940727 95.778299637138844 47.534190248697996 13.949747785925863 20.503022603690624 190.47754089906812 23.844249740242958 23.558425720781088 27.684992007911205 19.119521092623472 36.057256173342466 67.124246910214424 29.997808979824185 30.639393460005522 260.09647033270448 99.587352564558387 70.67058577015996 44.820453457534313 14.685584604740141 15.173951966688035 23.293095000088215 85.785408854484558 20.117110263556242 180.31681808829308 14.736003912985323 14.106629669666292 21.162310782819986 14.502127647399901 9.4994202479720098 77.439559623599052 22.608694195747375 18.978470146656036 24.985841549932957 25.56770433485508 36.039285995066166 79.471780050545931 33.132336668670177 34.557773653417826 230.73366674408317 52.618437882512808 40.230817200616002 136.38003446161747 51.310305319726467 60.010956227779388 13.505434203892944
leaf_count=121 210 427 167 205 101 1472 192 105 104 205 122 322 62 92 58 119 87 310 244 273 102 78 454 58 115 63 124 159 382 75 132 3139 547 253 164 61 122 140 165 80 567 65 94 83 61 35 267 46 75 74 64 107 205 98 76 575 276 294 948 446 416 76
internal_value=0 -0.0175486 0.0124097 -0.0277609 0.00615745 -0.0374457 0.00826501 0.023983 0.0119276 0.0358452 -0.00247012 -0.0242963 -0.00459725 0.0193037 0.016484 0.017773 0.0183843 -0.00650779 0.0110615 -0.0169841 -0.0074278 0.0192505 0.0264593 0.00283778 -0.00345652 0.00984533 -0.0176687 -0.000513858 -0.00910047 0.0026046 -0.00712905 -0.0482662 -0.0125131 0.00858489 0.00686194 0.0197874 -0.0041416 -0.0198303 0.042173 0.0162485 0.00214762 -0.0123087 -0.0223161 0.0064639 -0.0141755 -0.0435054 -0.00618159 0.0207841 0.0135876 0.00840253 0.0125222 0.0166847 0.010244 0.0254125 0.0273843 0.0300968 -0.00822116 -0.0165246 -0.0227656 -0.0304406 -0.0209292 -0.0153473
internal_weight=0 1381.03 1969.59 989.496 1279.77 519.848 391.538 689.826 879.249 219.457 198.892 236.136 59.5446 192.646 599.335 579.334 470.369 400.516 247.916 469.648 177.892 554.121 222.453 152.138 163.942 123.7 139.261 261.255 134.41 96.0145 66.0167 283.712 120.141 126.845 130.204 59.506 70.6976 38.467 178.22 90.7877 279.915 63.9335 49.1975 215.981 35.6644 23.606 101.284 526.579 207.652 185.043 160.057 141.079 115.511 318.927 298.424 265.291 140.383 87.765 291.757 141.871 90.5609 149.885
internal_count=16359 9946 6413 8356 4661 5200 1590 1752 2705 475 1036 1856 384 554 1679 1621 1277 1956 736 3156 1060 1517 541 492 958 362 772 1184 692 299 224 3344 648 492 609 225 384 262 370 333 1026 315 250 711 144 129 325 1398 571 525 451 376 312 827 749 651 843 567 2096 1072 626 1024
is_linear=0
shrinkage=0.05


Tree=5
num_leaves=63
num_cat=0
split_feature=16 15 15 16 10 4 16 10 4 2 11 4 7 15 12 11 15 12 20 22 11 26 21 11 20 22 1 15 1 21 22 21 15 22 15 22 21 2 20 12 6 6 22 24 12 0 13 20 21 12 10 21 4 11 15 13 13 22 13 4 4 1
split_gain=275.67 114.458 57.5043 36.7551 28.0743 22.6432 19.7162 19.0429 16.0905 13.1435 12.9606 11.4631 13.5883 13.3738 10.8303 10.4153 14.1878 14.2316 10.2063 11.3551 9.48445 9.29589 9.0944 11.3111 11.3949 9.43027 11.9621 10.8826 8.67521 8.63772 9.73617 8.58778 12.575 8.54612 8.51448 8.3101 12.2969 10.8017 8.08416 8.07421 7.95088 7.93057 8.15028 7.9182 13.8759 8.49621 7.82974 7.67976 7.65065 7.44195 7.28508 9.0058 8.02494 7.61002 7.23394 7.18237 7.16476 7.04525 6.90808 6.86627 6.84057 8.84668
threshold=5.5000000000000009 0.32315462315462323 0.32461836409204836 7.5000000000000009 0.63068181818181823 4.5000000000000009 2.5000000000000004 0.13809523809523813 7.5000000000000009 175.00000000000003 0.10555555555555557 8.5000000000000018 1.0000000180025095e-35 0.2808003153952297 0.20714285714285716 0.55050505050505061 0.40460699841744335 0.069047619047619066 157.50000000000003 0.32663164275611239 0.89444444444444449 1.0000000180025095e-35 0.3154306858930343 0.57738095238095244 142.50000000000003 0.23590205639177445 14.500000000000002 0.24725141959647218 19.500000000000004 0.21072923551443051 0.23590205639177445 0.25306449191974789 0.4280261723009815 0.2240689655172414 0.36396103896103899 0.18773496240601506 0.28172708811877895 -1.0000000180025095e-35 153.50000000000003 0.24264705882352944 10.500000000000002 7.5000000000000009 0.16740412979351035 1.0000000180025095e-35 0.17156862745098042 3.5000000000000004 610.50000000000011 169.50000000000003 0.27618374093952308 0.10818713450292398 0.22649572649572652 0.21216140181657425 1.5000000000000002 0.21825396825396828 0.21073190789473686 107.50000000000001 469.50000000000006 0.33057681793329691 254.50000000000003 3.5000000000000004 6.5000000000000009 30.500000000000004
decision_type=2 2 2 2 2 2 2 2 2 2 2 2 2 2 2 2 2 2 2 2 2 2 2 2 2 2 2 2 2 2 2 2 2 2 2 2 2 2 2 2 2 2 2 2 2 2 2 2 2 2 2 2 2 2 2 2 2 2 2 2 2 2
left_child=2 3 5 11 8 22 10 38 33 47 -7 12 18 -14 -13 16 50 29 59 -20 -9 60 23 24 -1 26 -26 48 40 -18 -31 32 -10 34 -4 41 37 -37 -5 -24 49 42 -8 44 45 -30 -32 -6 -27 -23 51 -3 -53 -52 55 -38 -50 -39 -57 -2 -12 -62
right_child=1 15 4 7 9 6 35 20 31 -11 21 14 13 -15 -16 -17 17 -19 19 -21 -22 28 39 -25 25 27 -28 -29 43 30 46 -33 -34 -35 -36 36 54 57 -40 -41 -42 -43 -44 -45 -46 -47 -48 -49 56 -51 53 52 -54 -55 -56 58 -58 -59 -60 -61 61 -63
leaf_value=0.037917697388059224 -0.032862082492844884 -0.047945520825697696 0.031663750660988581 -0.027724276601419202 0.021500732990567362 -0.031433790995039609 0.015807910983468825 -0.027273392944649883 -0.037448875139626851 0.011960915168158337 0.016250817310672315 -0.033269708975743446 -0.0087202946944173795 0.025487000519988697 0.022103610516968786 0.028000847687508525 0.043806148715501446 -0.01841125485575423 -0.051570787432711207 0.0061128480245615886 0.028025103183131245 0.036831759891091227 -0.025080555304423265 0.028205517096338562 0.022578373024784791 0.015651329461870301 -0.015827943026895035 0.029470102878967536 0.051354789316823905 -0.016776719601509855 0.012259950447239857 0.012127622289344228 0.010253260127814445 0.028751561668883537 -0.0056409130682211379 -0.027353019060224495 -0.03717965436434853 0.0041184769900534223 -0.050386863746367416 0.017288951301986329 -0.031350270416315884 -0.046539852849546842 -0.037241476499812083 0.030981752511100132 -0.020231069204931833 0.007288443993963542 0.047232408073391775 0.046835962432241078 -0.029811990645840065 -0.0089916599820921948 0.037365736498082967 0.029711087087383722 -0.014680398771752826 -0.0048047622446648003 -0.028145573195229652 0.034062707854986378 0.011968205818923203 0.039383588188173904 -0.0088982062188957736 -0.000230481535438142 -0.019203529583357096 0.015305671776054597
leaf_weight=34.348239481449127 23.366508942097425 16.889610700309277 22.858600117266178 54.645272064954042 39.018870450556278 17.742398152127862 16.008274327963594 222.53087434358895 25.259623903781176 43.538155663758516 43.488762836903334 112.18679370358586 164.6809930447489 33.53754092566669 8.8995973318815214 47.358146965503693 27.919817317277193 29.477667015045881 42.510375948622823 10.366312548518179 7.2585262507200232 15.119494490325449 24.958344850689173 147.21784260869026 27.543062165379524 55.612504355609417 69.165073916316032 71.109318722039461 17.886850088834763 21.497979488223791 76.140577113255858 100.51109704747796 28.454120796173811 206.09500760957599 41.954439595341682 25.034533798694611 10.544879160821436 177.00527343712747 195.77807492390275 18.916500054299831 14.353467859327791 23.253764407709241 11.658847725018857 106.88138663396239 24.90105814486742 26.938306383788586 19.704850688576698 177.76737102866173 23.720614891499281 18.995303329080343 14.048051331192253 10.827782738953827 74.138931016437709 36.377215020358562 64.932998644188046 14.223734371364115 16.805152993649244 14.432785484939812 23.498192073777318 47.679310761392117 55.967671193182468 26.67205137014389
leaf_count=115 156 134 67 578 98 94 82 1941 121 101 129 1038 1042 151 54 120 75 126 393 62 31 41 110 324 81 176 330 197 39 86 248 303 77 500 133 144 64 788 2691 47 57 160 80 295 80 87 39 350 94 73 55 46 474 181 331 58 60 49 120 247 248 87
internal_value=0 -0.0169701 0.0128386 -0.0264165 0.0244488 0.00640054 0.000933923 -0.0359981 0.016467 0.0373708 0.00915775 -0.0159777 -0.0109886 -0.00283372 -0.0290522 0.00633851 0.00312565 0.0128142 -0.0239055 -0.0403585 -0.0254128 0.0112918 0.014754 0.0168906 0.0112309 0.00762823 -0.00477046 0.0147833 0.0173592 0.0192332 0.0130657 0.00354129 -0.0124538 0.0237855 0.00779709 -0.00704136 -0.00409952 0.00289133 -0.0455716 -0.00683488 -0.00136283 -0.0256416 -0.00706624 0.022476 0.00918402 0.0256094 0.0198634 0.0423956 0.00372856 0.0117876 -0.00800283 -0.0156469 -0.00874354 0.00744173 -0.0173764 -0.00261155 -0.0126157 0.006968 0.00776231 -0.01127 0.000413265 -0.00801582
internal_weight=0 1297.82 1924.39 923.44 685.457 1238.94 749.54 480.213 425.133 260.324 368.947 443.227 322.141 198.219 121.086 374.381 327.022 174.741 123.923 52.8767 229.789 351.204 489.397 445.522 298.304 263.956 96.7081 167.248 225.076 145.263 117.343 154.225 53.7137 270.908 64.813 380.593 329.672 216.473 250.423 43.8748 48.4683 50.9209 27.6671 176.608 69.7262 44.8252 95.8454 216.786 96.1383 34.1148 152.282 101.856 84.9667 50.4253 113.2 48.2668 40.5258 191.438 37.7219 71.0458 126.128 82.6397
internal_count=16358 9968 6390 8384 1750 4640 3106 5241 1201 549 1230 3143 2051 1193 1092 1584 1464 574 858 455 1972 1136 1534 1377 1053 938 411 527 672 448 373 501 198 700 200 1876 1554 981 3269 157 171 322 162 501 206 126 287 448 330 114 890 654 520 236 573 242 154 837 178 403 464 335
is_linear=0
shrinkage=0.05


Tree=6
num_leaves=63
num_cat=0
split_feature=16 15 8 16 4 16 14 17 10 4 14 6 6 15 14 1 4 2 14 9 13 25 7 4 3 4 14 25 21 25 4 3 21 20 25 20 4 25 3 10 14 11 8 21 20 15 25 20 21 11 9 14 20 2 15 14 12 11 14 24 15 12
split_gain=232.325 91.7779 40.2056 28.7648 19.6558 17.2868 17.8224 15.6957 15.3811 13.3198 12.8281 12.3339 11.7996 11.9713 11.556 11.2194 10.635 10.5103 10.4073 10.0175 10.0099 12.0298 9.16441 8.97821 8.85161 8.78754 8.31904 8.25389 8.08628 12.8814 10.9134 11.8838 8.05338 7.75637 7.68684 7.68478 7.22766 7.92056 10.6961 7.18859 7.14671 6.94639 8.06796 6.90656 6.88325 6.85007 6.81426 6.69023 6.98271 6.53137 6.77432 6.34792 6.31451 7.8191 6.21595 6.1346 8.33788 8.47248 7.09041 6.98314 9.90377 6.14516
threshold=5.5000000000000009 0.32960789210789215 0.72077922077922085 7.5000000000000009 7.5000000000000009 2.5000000000000004 0.36203806698801139 1.0000000180025095e-35 0.16025641025641027 7.5000000000000009 0.15402860916729902 1.5000000000000002 8.5000000000000018 0.15419580419580423 0.4175007506756081 52.500000000000007 5.5000000000000009 -174.99999999999997 0.12608360863409426 0.45000000000000007 537.50000000000011 116.50000000000001 1.0000000180025095e-35 3.5000000000000004 1300.0000000000002 5.5000000000000009 0.28174282603350781 133.50000000000003 0.24794235198482592 131.50000000000003 8.5000000000000018 1500.0000000000002 0.28757728327280241 312.50000000000006 128.50000000000003 119.50000000000001 6.5000000000000009 124.50000000000001 1300.0000000000002 0.18465909090909094 0.24008281573498966 0.78888888888888908 0.26491228070175443 0.34275724275724279 225.50000000000003 0.18537609774723179 125.50000000000001 442.50000000000006 0.23945223447112834 0.24264705882352944 0.22500000000000003 0.23587324625060477 542.50000000000011 175.00000000000003 0.44765682079114921 0.27446420428636581 0.12916666666666668 0.13809523809523813 0.14525231237560007 1.0000000180025095e-35 0.23413839371286183 0.06458333333333334
decision_type=2 2 2 2 2 2 2 2 2 2 2 2 2 2 2 2 2 2 2 2 2 2 2 2 2 2 2 2 2 2 2 2 2 2 2 2 2 2 2 2 2 2 2 2 2 2 2 2 2 2 2 2 2 2 2 2 2 2 2 2 2 2
left_child=2 3 5 4 22 7 12 9 35 -1 -9 34 13 18 19 23 -13 -12 -7 -3 21 -14 27 47 39 -23 49 32 29 -16 31 -30 -2 -18 44 40 52 38 -38 -22 -5 42 -10 -6 51 -40 -8 48 -15 -27 -51 -4 53 -19 -35 56 57 58 -24 -60 -61 -59
right_child=1 14 11 8 43 6 46 10 41 -11 17 16 20 15 28 -17 33 36 -20 -21 24 25 55 -25 -26 26 -28 -29 30 -31 -32 -33 -34 54 -36 -37 37 -39 45 -41 -42 -43 -44 -45 -46 -47 -48 -49 -50 50 -52 -53 -54 -55 -56 -57 -58 61 59 60 -62 -63
leaf_value=0.0045247631020021994 -0.034065750414179356 -0.0094487057359573783 0.029934235104361856 -0.038740706075087637 -0.033720686982143429 -0.021578225233148812 0.029698050185106375 -0.01586233970456585 -0.014046301464465033 -0.044778502994081967 -0.015857623387722512 0.043624985563848681 -0.027064735318639361 -0.0075956545246286368 0.037425502962608152 -0.04729811981227415 0.0036362544083538939 0.031078598287214588 0.028679300861098433 0.026416928095799833 0.037879565963027113 0.025143782715416479 -0.054606295647766423 -0.014770999588377201 -0.021900497808229419 -0.020954133362149293 0.043719903037198624 0.024762666653390546 0.025349925676221331 -0.0085285617341346095 -0.021854521360011203 -0.01882275126968224 -0.0031806185342496125 0.021591427364110825 0.02889036333333014 -0.046538999256045453 -0.023223212343208392 0.019682003101259983 0.043699479528725806 -0.0044101158178740342 0.0024217091177632056 0.014527670032227966 -0.034772153867121118 0.01220105742776368 -0.020764891333385133 0.0017427404605775195 0.009773764171958849 -0.01909898257294762 0.026723148647656649 -0.01537251042276191 0.019650314278839134 -0.0073462247608085569 0.0076736796983028948 -0.0015384382372011572 0.055737409967744067 0.021732613897611615 -0.030627915899981498 0.025038471576567745 0.011814810834481581 -0.0023982629258142061 -0.060764271075720494 -0.0098335887193803546
leaf_weight=52.732863582670689 64.888188447803259 145.39758183993399 24.169915553182364 25.578492566943169 135.07896686717868 13.40825593844056 62.182900711894035 27.802118275314569 84.215025784447789 17.435444369912148 20.616249665617943 121.10023206472397 17.426336701959372 23.695183351635933 57.657257426530123 19.338851679116488 38.783320516347885 222.36305889859796 36.225421901792288 21.477810684591532 13.246350672096012 105.78580144420266 7.3731954842805854 183.58640342019498 49.855576427653432 26.975999590009451 10.83686091005802 8.6687537394463998 57.755968414247036 20.168448265641928 28.105980433523655 19.733184564858675 31.381061477586627 49.186805538833141 43.676393561065197 207.26513248123229 29.441604629158974 149.7092671059072 13.327720791101454 33.523917397484183 17.294788174331188 10.571658875793217 111.66362572647631 8.2267500944435579 21.352296344935894 30.579533107578754 139.24080053716898 20.300707258284092 37.028561614453793 19.724963113665581 40.850134901702404 20.309738527983427 44.34302806481719 19.921003811061382 18.758712768554688 23.919453699141741 25.324828930199146 39.862842585891485 29.791972000151873 22.730113433673978 9.745418466627596 17.638265881687403
leaf_count=174 510 858 58 312 1311 77 161 111 766 94 85 251 98 99 143 111 122 559 149 76 34 355 75 987 228 195 39 33 149 72 115 71 218 142 109 3000 134 457 36 137 138 44 1055 53 62 127 411 89 111 121 162 59 127 61 31 105 179 173 181 161 91 100
internal_value=0 -0.016834 0.01128 -0.025432 -0.0160053 0.00772213 0.00308125 0.0140098 -0.0341447 -0.00818318 0.0168097 0.0268361 -0.000942059 -0.00750179 0.00480613 -0.011464 0.0334581 0.0185493 0.0149445 -0.00470273 0.00593621 0.0117761 -0.00827497 -0.00867691 -0.00744036 0.0152069 0.00437746 -0.0198994 0.0134358 0.0255594 0.00434454 0.0140045 -0.0241343 0.0216244 0.0128811 -0.0425177 0.0199693 0.0131236 -0.000347053 0.00810946 -0.0224593 -0.0238438 -0.025978 -0.0310182 0.00198637 0.0151679 0.0160411 0.00514292 0.0134254 -0.000930979 0.00818145 0.0131245 0.0252326 0.0284015 0.0316903 -0.00128603 -0.00501535 0.000285509 -0.0113713 -0.00546959 -0.021205 0.0143563
internal_weight=0 1231.51 1818.84 881.219 424.63 1481.5 853.233 628.272 456.589 70.1683 558.104 337.337 651.809 333.583 350.296 283.95 227.829 530.301 49.6337 166.875 318.226 221.6 281.324 264.611 96.6258 204.174 98.388 104.938 183.421 77.8257 105.595 77.4892 96.2692 106.729 109.508 250.138 509.685 223.058 73.3489 46.7703 42.8733 206.45 195.879 143.306 65.832 43.9073 201.424 81.0245 60.7237 87.5511 60.5751 44.4797 286.627 242.284 67.9455 176.386 152.467 127.142 69.6407 62.2675 32.4755 57.5011
internal_count=16352 9989 6363 8505 3190 5529 3564 1965 5315 268 1697 834 2992 1623 1484 1397 546 1586 226 934 1369 970 1826 1286 399 872 517 761 550 215 335 220 728 295 288 3450 1501 754 297 171 450 1865 1821 1364 179 163 572 299 210 478 283 117 747 620 173 1065 960 781 508 433 252 273
is_linear=0
shrinkage=0.05


Tree=7
num_leaves=63
num_cat=0
split_feature=16 15 11 15 16 11 20 21 15 2 16 20 10 22 26 8 5 21 20 0 15 1 22 10 1 11 22 13 13 10 7 22 8 20 8 20 3 21 15 8 15 13 13 25 20 8 20 15 3 15 22 11 13 10 1 13 20 9 21 21 25 1
split_gain=214.322 73.5371 39.0076 28.1808 18.9392 18.2119 14.7971 12.2409 13.9321 10.0342 9.92018 14.8235 19.1053 9.58142 10.8107 9.3957 8.71792 11.2899 19.7617 10.4767 8.31429 8.05581 10.6278 8.05103 8.04913 7.95801 9.17781 7.75888 9.23718 7.7325 9.27442 10.7154 8.01551 8.17821 7.89753 7.56838 7.43728 7.37997 7.93294 7.32889 6.98409 6.86817 11.6237 6.76483 6.73803 6.54348 6.46992 6.93296 6.4362 7.16427 6.43794 8.47387 7.38415 6.40423 6.12528 6.1084 6.8507 11.1635 5.986 5.92243 7.06398 5.80644
threshold=5.5000000000000009 0.30173704702006593 0.36931818181818188 0.40651483050847464 7.5000000000000009 0.57738095238095244 504.50000000000006 0.3482930571538167 0.37858312858312865 31.668426610348472 8.5000000000000018 304.50000000000006 0.19375000000000003 0.23766434020451227 2.5000000000000004 0.77350427350427364 0.36666666666666675 0.24391983577467732 479.50000000000006 2.5000000000000004 0.39105447276361827 16.500000000000004 0.30544953350296872 0.14835164835164838 10.500000000000002 0.095454545454545472 0.23430461711711714 620.50000000000011 558.50000000000011 0.96153846153846168 1.5000000000000002 0.26600624634003517 0.26969696969696971 333.50000000000006 0.29705882352941182 204.50000000000003 1725.0000000000002 0.26698980388657106 0.40460699841744335 0.21825396825396828 0.28454907161803716 581.50000000000011 576.50000000000011 131.50000000000003 562.50000000000011 0.86607142857142871 119.50000000000001 0.25324894514767943 1625.0000000000002 0.15919147224456962 0.32019417475728162 0.16025641025641027 464.50000000000006 0.28991596638655465 28.500000000000004 581.50000000000011 106.50000000000001 0.45000000000000007 0.23903410747254886 0.31000979136853207 125.50000000000001 21.500000000000004
decision_type=2 2 2 2 2 2 2 2 2 2 2 2 2 2 2 2 2 2 2 2 2 2 2 2 2 2 2 2 2 2 2 2 2 2 2 2 2 2 2 2 2 2 2 2 2 2 2 2 2 2 2 2 2 2 2 2 2 2 2 2 2 2
left_child=2 4 7 20 41 23 -7 8 16 15 35 12 61 -13 37 59 17 18 39 40 27 24 25 46 -21 -23 -27 28 29 32 31 -31 33 -4 -34 -3 55 -15 -39 -1 -19 42 43 48 -30 -32 47 -6 49 -2 51 -51 -53 -25 -24 56 -10 -58 -45 60 -5 -12
right_child=1 10 3 9 5 6 -8 -9 36 -11 11 13 -14 14 -16 -17 -18 19 -20 21 -22 22 54 53 -26 26 -28 -29 44 30 45 -33 34 -35 -36 -37 -38 38 -40 -41 -42 -43 -44 58 -46 -47 -48 -49 -50 50 -52 52 -54 -55 -56 -57 57 -59 -60 -61 -62 -63
leaf_value=0.0053127922472920933 -0.038335485729956563 -0.0048853455399477949 0.056138943128253328 0.043325417641611991 -0.034273067991694113 -0.026620610899626303 0.044369475560576348 -0.040447664173580478 0.038969247334785684 0.0086794901356990178 -0.00065555188657361128 -0.050988539022098593 0.042914728008724728 0.023300052793764157 -0.055900176304404095 0.052356416059177638 -0.023420443830269741 -0.0054411372318011993 -0.048626295512753562 0.022944671984850614 -0.019168106097889059 0.007865572592060676 0.0077327674274967496 -0.016767205490432889 -0.013809704679707227 -0.00067129845517152316 0.039614822162695573 -0.0085113193805209965 0.033131747109226388 0.028442589343907261 0.0096948256886835033 -0.0059471917712274934 -0.026469869038866046 0.0097956861518625673 0.0087539939578181441 0.011900389789559847 -0.012158339446147437 -0.042114711404518342 0.01786772206111489 -0.015152752686475264 -0.059150031340230586 -0.04364560123652339 0.047345502637288039 0.01566216574192162 0.00069014077116935559 0.044005651144946555 -0.045874332972241638 0.014237868931989306 -0.0062174295831020519 -0.03143521522458604 0.0035273152147728554 -0.02186710998475315 0.018395824274220762 -0.037049654005583008 -0.025931633838275677 0.033976260786436223 -0.016845507311792234 0.026071072407362617 -0.016814517847173836 0.050971371035298751 0.012544672253709123 -0.055540299220382353
leaf_weight=120.4479352645576 61.287223238497972 104.49475286155939 16.86162019520998 26.491108223795891 27.483740037307143 14.999069493263962 12.588399495929478 15.565975757315753 16.653992585837841 35.89548322558403 11.288481233641507 23.053225858137012 22.1275041885674 17.769096808508039 10.010379329323767 69.922092713415623 37.790154784917831 21.26930528506637 24.959442647174001 19.329792849719524 18.895693708211184 58.463345017284155 46.030679682269692 82.225755881518126 54.901014843955636 17.534738685935736 71.265128377825022 37.010336525738239 96.104607176035643 43.342502430081367 19.571337275207043 45.722704656422138 15.540198616683481 21.505014536902308 453.03383566066623 184.67895294167101 18.800837986171246 13.167709928005936 8.2879277579486352 67.398126730695367 7.5957707278430453 22.325681023299694 6.2992399837821713 27.483861844986677 19.21584590524435 53.389207065105438 182.75725434813648 9.3001732770353538 68.993782948702574 89.353110114112496 28.184806087985635 25.529618422500789 18.991813860833645 78.499240599572659 17.965870674699545 52.521220959722996 31.243178382515907 27.60912349820137 27.27156768552959 22.724906228482723 62.120677381753922 7.439847405999898
leaf_count=586 543 441 40 62 347 116 59 74 40 88 72 185 58 87 73 139 209 135 171 75 61 297 190 790 291 99 203 119 262 101 61 133 63 77 1552 825 57 110 28 347 47 195 22 140 68 123 2845 68 513 891 200 186 107 836 91 119 111 76 198 50 157 68
internal_value=0 -0.0164488 0.0109645 0.0170909 -0.025361 -0.0328313 0.0061917 0.00204727 0.00303204 0.0331217 0.000928949 -0.0115609 0.0123209 -0.0250424 -0.0121205 0.0378879 -0.000542821 0.00113843 -0.00773368 0.00714995 0.0129132 0.010068 0.0150283 -0.0356711 -0.00406105 0.0223794 0.0317409 0.0136737 0.0147301 0.0124427 0.0219365 0.0109182 0.00937113 0.0310716 0.00753192 0.00583883 0.0166977 0.000164228 -0.0191807 -0.00207149 -0.0210818 -0.0171862 -0.0153962 -0.0166676 0.0277784 0.0350574 -0.0419845 -0.0219557 -0.0196791 -0.0237913 -0.0180896 -0.0226331 -0.00466506 -0.0268411 -0.00197147 0.0209965 0.0116419 0.00338697 -0.000524681 0.0284162 0.0221276 -0.0241687
internal_weight=0 1185.89 1784.69 1057.35 783.574 407.854 27.5875 727.346 711.78 217.154 402.318 113.144 40.8558 72.2883 49.2351 181.259 564.951 527.161 212.806 314.356 840.193 285.491 211.26 380.266 74.2308 147.263 88.7999 821.297 784.287 668.966 162.026 89.0652 506.941 38.3666 468.574 289.174 146.828 39.2247 21.4556 187.846 28.8651 375.721 353.395 347.096 115.32 72.9605 219.541 36.7839 292.34 223.347 162.059 133.875 44.5214 160.725 63.9966 128.028 75.5063 58.8523 54.7554 111.337 88.6118 18.7283
internal_count=16377 10003 6374 3156 8056 5061 175 3218 3144 496 1947 681 198 483 298 408 2741 2532 1104 1428 2660 1246 880 4886 366 599 302 2599 2480 2150 418 234 1732 117 1615 1266 403 225 138 933 182 2995 2800 2778 330 184 3260 415 2440 1927 1384 1184 293 1626 281 346 227 187 338 269 219 140
is_linear=0
shrinkage=0.05


end of trees

feature_importances:
Column_20=40
Column_22=40
Column_21=39
Column_4=38
Column_14=38
Column_11=37
Column_15=33
Column_13=29
Column_10=25
Column_1=24
Column_16=22
Column_8=18
Column_25=14
Column_12=13
Column_6=12
Column_26=12
Column_3=11
Column_9=11
Column_0=10
Column_2=8
Column_5=5
Column_23=5
Column_7=4
Column_17=4
Column_24=3
Column_18=1

parameters:
[boosting: gbdt]
[objective: lambdarank]
[metric: ndcg]
[tree_learner: serial]
[device_type: cpu]
[data_sample_strategy: bagging]
[data: ]
[valid: ]
[num_iterations: 2000]
[learning_rate: 0.05]
[num_leaves: 63]
[num_threads: 0]
[seed: 42]
[deterministic: 0]
[force_col_wise: 0]
[force_row_wise: 0]
[histogram_pool_size: -1]
[max_depth: -1]
[min_data_in_leaf: 50]
[min_sum_hessian_in_leaf: 0.001]
[bagging_fraction: 0.8]
[pos_bagging_fraction: 1]
[neg_bagging_fraction: 1]
[bagging_freq: 1]
[bagging_seed: 400]
[feature_fraction: 0.8]
[feature_fraction_bynode: 1]
[feature_fraction_seed: 30056]
[extra_trees: 0]
[extra_seed: 12879]
[early_stopping_round: 0]
[early_stopping_min_delta: 0]
[first_metric_only: 0]
[max_delta_step: 0]
[lambda_l1: 0]
[lambda_l2: 1]
[linear_lambda: 0]
[min_gain_to_split: 0]
[drop_rate: 0.1]
[max_drop: 50]
[skip_drop: 0.5]
[xgboost_dart_mode: 0]
[uniform_drop: 0]
[drop_seed: 17869]
[top_rate: 0.2]
[other_rate: 0.1]
[min_data_per_group: 100]
[max_cat_threshold: 32]
[cat_l2: 10]
[cat_smooth: 10]
[max_cat_to_onehot: 4]
[top_k: 20]
[monotone_constraints: ]
[monotone_constraints_method: basic]
[monotone_penalty: 0]
[feature_contri: ]
[forcedsplits_filename: ]
[refit_decay_rate: 0.9]
[cegb_tradeoff: 1]
[cegb_penalty_split: 0]
[cegb_penalty_feature_lazy: ]
[cegb_penalty_feature_coupled: ]
[path_smooth: 0]
[interaction_constraints: ]
[verbosity: -1]
[saved_feature_importance_type: 0]
[use_quantized_grad: 0]
[num_grad_quant_bins: 4]
[quant_train_renew_leaf: 0]
[stochastic_rounding: 1]
[linear_tree: 0]
[max_bin: 255]
[max_bin_by_feature: ]
[min_data_in_bin: 3]
[bin_construct_sample_cnt: 200000]
[data_random_seed: 175]
[is_enable_sparse: 1]
[enable_bundle: 1]
[use_missing: 1]
[zero_as_missing: 0]
[feature_pre_filter: 1]
[pre_partition: 0]
[two_round: 0]
[header: 0]
[label_column: ]
[weight_column: ]
[group_column: ]
[ignore_column: ]
[categorical_feature: ]
[forcedbins_filename: ]
[precise_float_parser: 0]
[parser_config_file: ]
[objective_seed: 16083]
[num_class: 1]
[is_unbalance: 0]
[scale_pos_weight: 1]
[sigmoid: 1]
[boost_from_average: 1]
[reg_sqrt: 0]
[alpha: 0.9]
[fair_c: 1]
[poisson_max_delta_step: 0.7]
[tweedie_variance_power: 1.5]
[lambdarank_truncation_level: 30]
[lambdarank_norm: 1]
[label_gain: ]
[lambdarank_position_bias_regularization: 0]
[eval_at: 1,3,5]
[multi_error_top_k: 1]
[auc_mu_weights: ]
[num_machines: 1]
[local_listen_port: 12400]
[time_out: 120]
[machine_list_filename: ]
[machines: ]
[gpu_platform_id: -1]
[gpu_device_id: -1]
[gpu_use_dp: 0]
[num_gpu: 1]

end of parameters

pandas_categorical:null
