tree
version=v4
num_class=1
num_tree_per_iteration=1
label_index=0
max_feature_idx=41
objective=lambdarank
feature_names=Column_0 Column_1 Column_2 Column_3 Column_4 Column_5 Column_6 Column_7 Column_8 Column_9 Column_10 Column_11 Column_12 Column_13 Column_14 Column_15 Column_16 Column_17 Column_18 Column_19 Column_20 Column_21 Column_22 Column_23 Column_24 Column_25 Column_26 Column_27 Column_28 Column_29 Column_30 Column_31 Column_32 Column_33 Column_34 Column_35 Column_36 Column_37 Column_38 Column_39 Column_40 Column_41
feature_infos=[0:5] [0:0.7142857142857143] [3:357] [-800:650] [1000:2200] [1:14] [0:0.54285714285714282] [5:14] [0:0.7142857142857143] [0:20] [0:6] [0:1] [0:1] [0:1] [0:1] [0:1] [0:727] [0:0.55555555555555558] [0:0.78947368421052633] [1:14] [-1.7100000000000009:6.6999999999999993] [1:14] [1:14] [0:1] [20.16:25.5] [21.34:29.91] [0.33333333333333331:0.7142857142857143] [-1.4599999999999973:4.9100000000000001] [1:14] [1:14] [20.440000000000001:24.646666666666665] [21.760000000000002:27.293333333333333] [0:3] [0:1] [0:1] [8:705] [0.072727272727272724:0.46153846153846156] [0.064516129032258063:0.57894736842105265] [0:1] [0:1] [105:135] [-28:21]
tree_sizes=2342 2654 2664 2957 2759 2657 2860 2868 2868 2442 2536 2663 2444 2548 2453 2556 2561 2444 2664 2870 2657 2464 2878 2556 2653 2762 2662 2873 2643 2872 2765 2659 2765 2767 2655 2872 2775 2660 2776 2671 2666 2557 2979 2666 2764 2653 2650 2855 2660 2979 2664 2673 2879 2666 2992 2773 2975 2668 2772 2772 2975 2779 2775 2980 2659 2883 2898 3085 3087 2559 2761 2977 3092 2880 2657 2985 2764 2677 2879 2880 2685 2667 2563 2878 2767 2881 2865 2781 2767 2871 3092 2776 2981 2673 2683 2988 2769 2785 2668 2881 2768 2998 2668 2654 2774 2893 2568 2562 2891 3430 2675 2678 2996 2663 2666 2676 2884 2452 2880 2679 2586 2990 3003 3112 2998 2570 2748 2886 2795 2673 2677 2996 2989 2877 2776 3003 2674 2789 2996 2795 2461 2787 2576 2872 2577 2688 3008 2919 3002 2357 2575 2899 2782 2482 2686 2692 2675 2584 2802 2799 2800 2887 2483 3217 2908 2807 2796 2686 2802 2692 2584 3107 2698 2802 2798 2492 2902 2696 2907 2597 2801 2803 2690 2702 2812 2906 2916 2893 2809 2911 3008 2688 2690 2789 2695 2588 2470 2480 2490 2579 2708 2800 2701 2697 2784 2798 2802 2801 2814 2907 2588 2692 2701 2685 2923 2810 2381 2479 2695 2485 2816 2815 2707 2697 2682 2807 2917 2705 2596 2707 2708 2599 2916 2705 2802 2697 2821 2696 2809 3030 2597 2700 2695 2704 2927 2814 2923 2697 2371 2486 2920 2819 2701 2601 2594 2818 2922 2710 3012 2707 2487 2706 2601 2703 2926 2594 2721 2606 2711 2599 2813 3026 2489 2597 3031 2713 3035 2596 2913 2508 3037 2697 2494 2942 2808 2609 2923 2600 2287 2701 2699 2915 2595 2276 2597 2493 2810 2820 2816 2932 2712 2824 2709 2701 2822 2829 2588 2720 2385 2487 2603 2707 2705 2824 2821 2710 2615 2497 2399 2906 2277 2598 2493 2714 2722 2492 2487 2817 2602 2811 2815 2391 2832 2385 2502 2840 2715 2720 2820 2286 2703 2933 2827 2168 2922 2610 2935 2722 2711 2602 2718 2931 2501 2501 2816 2508 2401 2720 2506 2716 3033 2611 2825 2612 2488 2726 2814 2615 2722 2822 2619 2841 2620 2615 2512 2615 2720 2826 2511 2842 2724 2496 2183 2499 2490 2824 2819 2394 2501 2718 2293 2607 2617 2605 2732 2714 2625 2724 2494 2823 2733 2394 2609 2615 2611 2608 2618 2717 2718 2284 2510 2630 2943 2958 2497 2503 2838 2844 2739 2522 2406 2287 2501 2518 2615 2731 2621 2725 2392 2624 2623 2511 2515 2519 2516 2616 2624 2627 2729 2838 2505 2499 2623 2399 2513 2515 2606 2728 2495 2844 2632 2747 2629 2516 2292 2629 2739 2510 2730 2410 2741 2727 2612 2408 2516 2410 2519 2494 2512 2611 2734 2297 2732 2527 2618 2731 2736 2410 2651 2518 2628 2721 2201 2624 2403 2513 2188 2632 2954 2957 2848 2184 2646 2514 2416 2298 2527 2522 2309 2312 2634 2518 2533 2741 2835 2403 2611 2525 2636 2521 2864 2836 2868 2633 2190 2417 2630 2411 2638 2421 2524 2424 2859 2528 2419 2643 2418 2423 2428 2739 2527 2301 2312 2645 2309 2749 2305 2419 2306 2651 2748 2523 2416 2308 2189 2521 2526 2644 2309 2643 2518 2748 2304 2524 2422 2643 2305 2534 2523 2521 2420 2534 2418 2530 2648 2427 2752 2205 2200 2656 2310 2649 2200 2542 2535 2421 2439 2643 2754 2649 2427 2536 2536 2311 2763 2643 2531 2206 2531 2313 2530 2426 2554 2429 2432 2529 2648 2431 2752 2094 2539 2313 2643 2416 2314 2542 2841 2650 2201 2425 2537 2744 2428 2429 2761 2431 2434 2431 2978 2441 2317 2536 2410 2645 2544 2777 2423 2655 2428 2089 2753 2538 2754 2204 2429 2549 2310 2655 2101 2545 2755 2324 2458 2428 2537 2422 2430 2207 2437 2550 2207 2430 2210 2101 2430 2429 2312 2535 2536 2408 2318 2643 2550 2541 2759 2325 2209 2321 2208 2519 2325 2324 2223 2872 2210 2210 2210 2427 2317 2213 2428 2771 2208 2437 2204 2535 2316 2202 2318 2323 2769 2328 2660 2770 2662 2439 2558 2095 2654 2102 2666 2323 2317 2754 2311 2541 2536 2208 2324 2437 2323 2332 2209 2539 2102 2431 2215 2318 2217 2550 2657 2663 2550 2766 2445 2324 2334 2750 2427 2756 2435 2325 2209 2551 2434 2550 2104 2541 2309 2327 2207 2329 2324 2432 2439 2431 2426 2313 2212 2652 2325 2107 2652 2323 2656 2331 2419 2438 2218 2106 2655 2210 2429 2533 2432 2222 2311 2541 2317 2322 2315 2449 2431 2107 2441 2328 2330 2209 2435 2440 2660 2442 2325 2667 2325 2552 2433 2202 2331 2536 2216 2437 2554 2533 2668 2336 2450 2538 2669 2752 2445 2555 2326 2550 2211 2218 2445 2650 2660 2431 2655 2544 2554 1990 2202 2547 1993 2111 2541 2662 2217 2333 2320 2327 2767 2099 2777 2427 1994 2662 2217 2325 2437 2667 2543 2768 2338 2317 2543 2329 2218 2542 2221 2773 2561 2543 2430 2109 2096 2436 2445 2556 2222 2445 2334 2666 2442 2558 2107 2221 2552 2664 2108 2220 2448 2575 2114 2432 2438 2219 1995 2426 2213 2433 2348 2443 2332 2208 2455 2540 2335 2445 2673 2215 2558 2106 2439 2326 2669 2221 2438 2328 2439 2558 2004 2659 2223 2217 2448 2548 2446 2108 2334 2559 2550 2330 2320 2551 2209 2435 2003 2554 2442 2108 2773 2334 2903 2442 2324 2231 2665 2324 2555 2110 2329 2319 2565 2671 2109 2098 2443 2214 2562 2340 2225 2109 2323 2320 2340 2005 2453 2335 2102 2450 2332 2553 2329 2777 2104 2448 2441 2447 2212 2223 2548 2111 2111 2105 2444 2332 2101 2218 2338 2108 2553 2330 2446 2335 2775 2436 2328 1995 2450 2540 2330 2116 2109 2214 2109 2332 2218 2444 2447 2441 2225 2332 2110 2122 2427 2007 2115 2325 2344 2565 2104 2674 2789 2457 2223 2456 2121 2129 2552 2345 2453 2002 2455 2559 2226 2447 2456 2451 2341 2444 2562 2559 2345 1892 2006 2566 2337 2452 2004 2453 2678 2221 2099 2449 2456 1675 2234 2449 2235 1893 2232 2772 2117 2455 2341 2219 2120 1887 2452 2454 2435 2565 2443 2218 2562 2003 2557 2566 2230 2891 2345 2557 2342 1889 2444 2226 2452 2898 1999 2221 2220 2118 2224 2339 2113 2223 2229 2112 2226 2331 2454 2333 1896 2344 2231 2566 2117 2224 2552 2565 2455 2451 2450 2334 2228 2223 2460 1776 1998 2226 2444 2109 2236 2338 2441 2349 2347 2449 2336 2221 2227 2340 2330 2558 2120 2338 2665 2339 2331 2000 2000 2006 2563 2571 2341 2558 2457 2117 2233 2001 2219 2117 2450 2452 2118 2006 1886 2336 2239 1996 2347 2119 2115 2129 2005 2121 2351 2230 1669 2112 2004 2455 2230 2220 2445 2457 2463 2456 2457 2241 2460 2450 2235 2122 2234 2452 2563 2238 1787 2339 2342 2119 2340 2344 2232 2463 2336 2120 2125 2339 2450 2348 2446 2343 2570 2324 2116 2346 2459 2009 2347 2115 2350 2118 2454 2335 2112 2122 2577 2226 2228 2011 2231 2345 2232 2349

Tree=0
num_leaves=21
num_cat=0
split_feature=11 17 18 30 35 29 31 16 37 40 11 35 35 6 37 18 36 36 8 5
split_gain=28.3548 12.1793 9.59419 6.67907 6.31172 3.72446 4.04472 3.36094 3.36037 3.01879 2.82845 2.73144 2.71333 2.61747 2.48542 1.8164 1.22427 1.16396 1.1094 0.193675
threshold=0.44097222222222227 0.2593570118689828 0.45346320346320351 22.395000000000003 412.50000000000006 9.4166666666666696 23.77833333333334 197.50000000000003 0.23112535612535615 121.50000000000001 0.73863636363636376 356.50000000000006 115.50000000000001 0.29271058663997679 0.17929582854955992 0.27831196581196588 0.26933509528446242 0.2796604072235413 0.40833333333333338 3.5000000000000004
decision_type=2 2 2 2 2 2 2 2 2 2 2 2 2 2 2 2 2 2 2 2
left_child=2 3 4 10 5 6 12 -3 -8 13 11 -2 -1 17 -14 19 -5 -6 -11 -16
right_child=1 7 -4 16 9 -7 8 -9 -10 18 -12 -13 14 -15 15 -17 -18 -19 -20 -21
leaf_value=0.0076871708101537324 0.00074810286903557164 0.0055131045824343061 0.02334714755335273 0.02403902048866307 -0.026986929219411999 -0.029194240738275392 -0.008187095996041744 0.036002448118063871 0.021965192896762933 -0.037678796727504973 0.0055217041423269381 -0.034764009583903799 0.0042410388422655081 0.0099170808918256012 -0.0099600546386510985 -0.0047969939907433947 0.0026527065538287371 -0.0015690867815619225 -0.0093820336738467697 -0.0352999919777022
leaf_weight=4.4589668032713297 2.6822545337490755 4.7727503017522421 4.3175205131992689 5.1985668307170254 3.4283585064113158 3.7402033833786836 4.0594848492182773 19.876463197171688 6.6128669762983918 13.704755917191507 3.3188122380524874 4.4101008861325681 3.5199662670493117 2.8015071325935423 2.4849949728231859 4.7519758571870625 4.45421461481601 2.6844019109848887 3.1116991112940005 4.2000713595189154
leaf_count=55 29 52 33 45 72 80 57 135 65 224 35 75 35 38 39 61 61 45 37 96
internal_value=0 0.0176641 -0.0128922 8.99839e-06 -0.0161924 -0.00700191 -0.00259556 0.0309557 0.011014 -0.0268988 -0.0153063 -0.0241233 -0.0104063 -0.00973295 -0.0160708 -0.0220229 0.0163195 -0.0189633 -0.0339965 -0.0303433
internal_weight=0 44.7132 63.8768 20.0639 59.5593 33.8285 30.0883 24.6492 10.6724 25.7307 10.4112 7.09236 19.416 8.91427 14.957 11.437 9.65278 6.11276 16.8165 6.68507
internal_count=1369 432 937 245 904 488 408 187 122 416 139 104 286 155 231 196 106 117 261 135
is_linear=0
shrinkage=0.03


Tree=1
num_leaves=24
num_cat=0
split_feature=19 17 17 18 21 18 36 40 41 15 19 6 11 21 13 6 25 31 35 6 31 37 2
split_gain=82.8159 38.0827 18.9942 20.6051 18.0522 21.0666 19.3662 16.5618 17.7191 14.214 12.598 11.4716 10.7197 10.4123 9.2438 16.9872 8.4066 8.38891 8.25624 7.98771 9.6582 7.63062 8.01849
threshold=7.5000000000000009 0.41014833241201404 0.36484323432343241 0.13144603934077623 3.5000000000000004 0.33192090395480228 0.32629535205871091 132.50000000000003 -1.4999999999999998 0.14835164835164838 3.5000000000000004 0.3047162859248343 0.23303167420814483 5.5000000000000009 0.42261904761904767 0.35415650477318655 23.335000000000004 23.614166666666673 316.50000000000006 0.18158266603862463 23.151666666666674 0.24298084492259253 22.500000000000004
decision_type=2 2 2 2 2 2 2 2 2 2 2 2 2 2 2 2 2 2 2 2 2 2 2
left_child=1 2 3 13 10 6 7 8 12 -3 21 16 -6 -1 15 19 -12 -16 -10 -2 -21 -5 -23
right_child=14 9 -4 4 5 -7 -8 -9 18 -11 11 -13 -14 -15 17 -17 -18 -19 -20 20 -22 22 -24
leaf_value=-0.044690288943105248 -0.0099320537602225114 0.0098361182383706041 -0.031509739715284153 0.034013315075971516 0.01531270132089871 0.02239180584302922 0.024505333212855251 0.016146479068521399 -0.013086639835004309 0.038762480925395672 0.0082074944782158828 0.020486950067936088 -0.020140626530132443 -0.00010350505417961683 -0.023897805287887798 0.0022949652795104334 -0.022014474643870505 0.0079062828765668215 -0.043727953176666653 -0.013210297105787491 -0.05173257024775528 -0.0020126757362000109 0.024120246200524279
leaf_weight=9.3504261411726493 8.6210192292928678 28.027002554386854 12.753544110804794 27.976577751338482 14.243490573018791 22.013262983411551 11.372607572004197 11.683255489915608 14.815719677135347 37.063706368207932 13.385551214218141 17.054476924240589 12.564540591090916 8.0779190398752672 14.773416977375748 10.510395890101789 16.730951260775328 12.066788861528037 23.555660534650087 9.0694089438766223 32.721942193806171 18.09734021127224 22.465588081628084
leaf_count=55 45 62 41 52 48 50 27 32 57 42 41 37 52 32 53 43 68 39 115 50 214 54 56
internal_value=0 0.00684992 0.00156719 0.00354312 0.00604378 -0.00263548 -0.00923728 -0.0147247 -0.0205742 0.0269718 0.0142176 0.00212103 -0.00154843 -0.0261626 -0.0257221 -0.0320911 -0.00890742 -0.0100426 -0.0331313 -0.0390742 -0.0443577 0.0222467 0.0129142
internal_weight=0 321.232 256.141 243.387 225.959 110.249 88.2353 76.8627 65.1794 65.0907 115.71 47.171 26.808 17.4283 87.763 60.9228 30.1165 26.8402 38.3714 50.4124 41.7914 68.5395 40.5629
internal_count=1365 921 817 776 689 381 331 304 272 104 308 146 100 87 444 352 109 92 172 309 264 162 110
is_linear=0
shrinkage=0.03


Tree=2
num_leaves=24
num_cat=0
split_feature=19 17 14 37 17 17 6 17 31 37 8 10 17 19 17 35 25 28 17 11 6 18 11
split_gain=79.4241 27.9498 14.0977 16.3803 13.8962 19.6696 13.8518 12.4621 12.2736 9.8158 9.46865 9.02495 8.11238 7.71992 15.2637 7.46257 6.79386 6.65543 5.43692 3.50703 2.98415 2.41977 1.22856
threshold=7.5000000000000009 0.28151003205936392 0.86607142857142871 0.26600624634003517 0.19316411781365053 0.25803414130368757 0.27740019869942201 0.21948924565322017 23.801666666666669 0.24900000000000003 0.48076923076923084 1.5000000000000002 0.24652997568918861 9.5000000000000018 0.19316411781365053 174.50000000000003 23.445000000000004 6.166666666666667 0.30991268618387269 0.38675213675213682 0.2982788009811666 0.25789823744595947 0.17424242424242428
decision_type=2 2 2 2 2 2 2 2 2 2 2 2 2 2 2 2 2 2 2 2 2 2 2
left_child=1 4 3 17 8 6 7 -6 15 -9 13 -8 -11 14 -2 -1 -5 -3 -15 -7 -13 -16 -17
right_child=10 2 -4 16 5 19 11 9 -10 12 -12 20 -14 18 21 22 -18 -19 -20 -21 -22 -23 -24
leaf_value=-0.0024749863708622478 0.0084473895766013444 0.005700160934236872 0.032732572306936235 0.0077720749332809251 0.018225868087922675 -0.033596666276223014 0.0014046305567164152 0.0061803068363318718 0.0099028367633546971 -0.036001575819725379 0.0050782339609092035 0.035847733746655626 -0.00066414953526715574 -0.047041268736950914 -0.044251849578207443 -0.01739702970909731 0.029303847315124112 -0.019335047033581118 -0.0088728671204796224 -0.0074804572127504555 0.016313158485132317 -0.01724850356059995 -0.044667517091828292
leaf_weight=7.9173474237322834 11.126584541052582 21.622396890074015 38.156704861670732 24.260573104023933 17.241338388994336 9.915366608649494 18.704351551830769 16.784853018820286 9.8844748809933645 13.766851507127287 6.5341355949640265 18.015996536239982 9.4143645465373975 26.550104808062319 9.6639035772532242 6.0546282976865795 32.887149855494499 14.243224184960125 5.0130979269742957 9.9774038121104223 20.585243597626686 9.640583395957945 10.942235212773083
leaf_count=32 51 50 55 61 56 56 64 60 35 78 21 33 35 216 77 36 57 56 26 30 51 48 70
internal_value=0 0.00745127 0.0177326 0.0110197 -0.000632996 0.00378802 0.00863956 -0.00183129 -0.0169865 -0.0109402 -0.0279032 0.0188017 -0.0228429 -0.0314295 -0.0186872 -0.0275977 0.020735 -0.00473812 -0.0418691 -0.0223778 0.0267471 -0.0336517 -0.0378075
internal_weight=0 300.375 131.17 93.0133 169.204 134.406 114.513 57.2074 34.7987 39.9661 68.5284 57.3056 23.1812 61.9943 30.4311 24.9142 57.1477 35.8656 31.5632 19.8928 38.6012 19.3045 16.9969
internal_count=1354 915 279 224 636 463 377 229 173 173 439 148 113 418 176 138 118 106 242 86 84 125 106
is_linear=0
shrinkage=0.03


Tree=3
num_leaves=27
num_cat=0
split_feature=19 2 40 19 6 18 30 9 6 6 20 32 9 36 16 13 31 28 36 15 2 37 24 20 24 25
split_gain=58.8591 20.664 20.1275 17.1386 15.3749 17.393 13.4561 12.0494 13.6839 11.6568 11.3933 9.78276 12.2761 8.72176 7.64501 13.9407 12.4657 9.40234 8.58653 16.7836 8.79691 6.42429 2.14988 1.68349 1.18094 0.34532
threshold=5.5000000000000009 18.500000000000004 129.50000000000003 7.5000000000000009 0.22159620881600725 0.33847248576850103 21.538333333333338 6.5000000000000009 0.28725338491295943 0.23361429315282481 0.97000000000000075 2.5000000000000004 12.500000000000002 0.32629535205871091 563.50000000000011 0.70714285714285718 22.841666666666672 1.4166666666666667 0.2414523670368206 0.087121212121212141 31.500000000000004 0.24900000000000003 21.975000000000005 1.5350000000000004 22.095000000000002 22.975000000000005
decision_type=2 2 2 2 2 2 2 2 2 2 2 2 2 2 2 2 2 2 2 2 2 2 2 2 2 2
left_child=1 7 4 -4 22 9 -3 -1 24 -6 25 -12 23 14 16 -16 -8 -18 -19 -20 -21 -5 -2 -13 -9 -11
right_child=2 6 3 21 5 -7 13 8 -10 10 11 12 -14 -15 15 -17 17 18 19 20 -22 -23 -24 -25 -26 -27
leaf_value=0.0071377532002212928 -0.018322128976814418 -0.010722191875495599 0.021276193560220445 0.00015265290810293321 0.0099195803299106863 0.011682058379118629 -0.017583971255772952 -0.01918164441783813 0.007223550307677417 -0.021358533123972758 0.0098036036996968483 -0.016960213287354999 0.0096598608262405475 0.036397587666261978 0.0075820416826081908 0.041960447890639435 0.032953176176661936 -0.0070359012282174508 0.031637682946681858 -0.022434301107863788 0.013055208973843439 -0.03832523351864265 -0.048502064882323635 -0.046608325195713167 -0.046455978059671992 -0.048159273188579502
leaf_weight=26.801363795995712 6.3280774205923107 15.281019046902655 20.404397375881672 7.5351006817072612 7.9048931561410418 16.489522024989128 11.547478817403315 7.2278867699205893 9.0454513356089574 5.5937853045761612 9.591537646949293 6.1402666792273548 5.906792562454938 18.551888503134251 22.432903975248337 20.19321995973587 16.143924437463284 21.455258268862963 23.835659433156252 9.9360496737062949 11.383776344358919 6.0715327598154545 16.860645573586226 8.795625049620865 7.7435334660112858 15.160624343901871
leaf_count=75 45 56 53 41 35 42 45 37 23 36 40 44 22 31 64 25 32 79 55 48 38 50 122 72 47 123
internal_value=0 0.0100811 -0.015018 0.00468724 -0.0217617 -0.0145083 0.0150394 -0.00651834 -0.0211349 -0.0219596 -0.0270705 -0.0139115 -0.0247277 0.0176753 0.0146512 0.0250187 0.00954272 0.0136536 0.00815182 0.0153605 -0.00399012 -0.019728 -0.0423749 -0.037862 -0.0371007 -0.0434481
internal_weight=0 221.579 132.783 34.011 98.7718 75.583 170.761 50.8182 24.0169 59.0935 51.1886 30.4342 20.8427 155.48 136.928 42.6261 94.3021 82.7547 66.6107 45.1555 21.3198 13.6066 23.1887 14.9359 14.9714 20.7544
internal_count=1380 655 725 144 581 414 473 182 107 372 337 178 138 417 386 89 297 252 220 141 86 91 167 116 84 159
is_linear=0
shrinkage=0.03


Tree=4
num_leaves=25
num_cat=0
split_feature=15 19 37 2 40 0 8 6 6 6 24 24 40 36 28 28 9 40 40 35 27 41 9 3
split_gain=36.6048 19.996 12.5991 15.5537 12.2795 11.9028 12.8128 11.7183 14.3961 12.8573 12.3251 10.4038 10.1552 17.7244 8.7873 9.74112 8.07085 7.79126 7.27882 6.71501 7.14287 4.9804 2.17478 0.45299
threshold=0.55050505050505061 5.5000000000000009 0.26518318170641758 19.500000000000004 123.50000000000001 2.5000000000000004 0.40833333333333338 0.22539281934380853 0.23361429315282481 0.27242613693657364 22.815000000000001 21.595000000000002 129.50000000000003 0.26330699269420016 2.5833333333333335 5.8333333333333348 5.5000000000000009 130.50000000000003 128.50000000000003 115.50000000000001 1.5866666666666667 -1.4999999999999998 8.5000000000000018 1.0000000180025095e-35
decision_type=2 2 2 2 2 2 2 2 2 2 2 2 2 2 2 2 2 2 2 2 2 2 2 2
left_child=1 2 5 4 -4 -1 12 11 -9 22 16 -3 13 21 -5 -16 19 -13 -18 -11 -21 -7 23 -10
right_child=-2 7 3 14 -6 6 -8 8 9 10 -12 17 -14 -15 15 -17 18 -19 -20 20 -22 -23 -24 -25
leaf_value=-0.029821094835585652 0.030812618524688543 0.0035079476717622023 0.010478016531349601 -0.0014110500821424635 -0.02752852656410584 -0.012488731545441122 0.018447870451059563 0.020720978159216637 -0.044764368332468094 0.0094788241362122449 -0.034160231715926095 -0.047881976812730917 0.012569334702689812 0.012953962576256381 0.031265650022940898 0.0050745132435520406 -0.001729233715705219 -0.0056474895093716121 0.028588743819194656 -0.038013528259880726 0.0011366948913341139 -0.043985902901516237 -0.014290915745844648 -0.01794858753259786
leaf_weight=14.240168087184427 27.398522697389126 6.3570918142795589 12.935608997941019 19.371273286640644 14.235540043562649 9.7056839019060099 19.027248732745647 11.74973241239786 8.5840974692255276 8.2291126288473624 8.5658537186682207 16.843592353165153 11.772016711533068 10.119192168116568 34.317800097167492 21.10516363941133 14.877086091786625 5.7069473266601554 11.314191564917563 8.0597477667033655 6.9995158333331338 12.460563156753782 8.786037363111971 5.0008138641715041
leaf_count=62 48 33 38 59 60 37 43 36 73 30 72 162 35 29 77 72 71 29 29 57 35 67 58 38
internal_value=0 -0.00425399 0.00211595 0.00896593 -0.00995658 -0.00691517 -0.000987105 -0.0135679 -0.0080005 -0.012598 -0.00474136 -0.0296521 -0.00981716 -0.0182369 0.0159204 0.0218161 0.00148087 -0.0385243 0.0124667 -0.0108831 -0.0218167 -0.0323695 -0.0309216 -0.0384632
internal_weight=0 300.364 179.29 101.965 27.1711 77.3249 63.0847 121.074 92.1662 80.4165 58.0455 28.9076 44.0575 32.2854 74.7942 55.423 49.4797 22.5505 26.1913 23.2884 15.0593 22.1662 22.3709 13.5849
internal_count=1350 1302 579 306 98 273 211 723 499 463 294 224 168 133 208 149 222 191 100 122 92 104 169 111
is_linear=0
shrinkage=0.03


Tree=5
num_leaves=24
num_cat=0
split_feature=19 14 17 38 40 16 21 40 14 31 17 17 15 29 37 16 7 36 18 36 36 30 29
split_gain=45.5263 24.6147 19.1714 14.6606 15.8679 12.8946 12.8203 10.8692 10.0653 7.74316 7.37654 10.702 7.2408 6.96925 7.59693 5.95969 4.26059 5.55171 8.82547 3.48231 1.44746 1.20883 1.08655
threshold=6.7704540654699059 0.46410256410256417 0.36044826898485444 1.0000000180025095e-35 119.50000000000001 136.50000000000003 5.5000000000000009 131.50000000000003 0.19090909090909094 23.591666666666672 0.24534630784630787 0.21855357939695294 0.19375000000000003 6.8333333333333348 0.29442724458204339 597.50000000000011 11.500000000000002 0.29220189973366023 0.22528866895064081 0.2790333163228112 0.30518425155063195 22.288333333333338 3.5833333333333335
decision_type=2 2 2 2 2 2 2 2 2 2 2 2 2 2 2 2 2 2 2 2 2 2 2
left_child=1 2 3 16 -5 -3 7 13 9 -6 11 -7 -12 22 21 20 -1 18 -18 -14 -8 -15 -2
right_child=6 5 -4 4 8 10 15 -9 -10 -11 12 -13 19 14 -16 -17 17 -19 -20 -21 -22 -23 -24
leaf_value=-0.038974033603548806 -0.014799115225106303 -0.0058983661745012636 0.014224411636973102 0.02029426596560421 -0.0180295635822591 0.019016799756219418 -0.045464594528553844 0.010553551626535896 -0.035551434534583461 0.017206726551463394 0.0097881960653260647 -0.014266340485110527 0.018015225371331409 -0.028316831936077709 0.017625426816732667 -0.0031791406799413393 -0.004739357674799446 0.0047555992071484253 -0.044403591738574333 0.037862664381279623 -0.01592465921837358 -0.0058828245182613497 -0.0402217051951127
leaf_weight=13.42379069700837 5.7198238782584694 24.456239446997643 30.747799348086119 17.415354046970606 9.1770733054727369 18.839461240917448 21.204053195193417 13.475760541856287 10.172821540385483 9.2753929048776609 27.484235689043999 13.064010150730608 20.548243189230561 5.0731929689645785 6.1587205231189719 4.5696613602340213 11.016178391873842 7.3964579403400412 8.2526986300945264 25.433623172342777 4.7007716335356227 5.0182513482868671 9.56670408323407
leaf_count=75 35 79 76 53 55 53 204 49 61 25 71 57 47 43 21 25 54 27 63 41 33 37 86
internal_value=0 0.00444324 -0.0054999 -0.0127044 -0.000962645 0.0133423 -0.0218939 -0.0109318 -0.0143759 -0.000366956 0.0178348 0.00535024 0.0229708 -0.0201945 -0.00535757 -0.0364149 -0.0255027 -0.0164749 -0.0243052 0.0301139 -0.0416297 -0.0199792 -0.033522
internal_weight=0 246.703 116.878 86.1298 46.0406 129.826 75.4869 45.0125 28.6253 18.4525 105.37 31.9035 73.4661 31.5367 16.2502 30.4745 40.0891 26.6653 19.2689 45.9819 25.9048 10.0914 15.2865
internal_count=1370 837 489 413 194 348 533 271 141 80 269 110 159 222 101 262 219 144 117 88 237 80 121
is_linear=0
shrinkage=0.03


Tree=6
num_leaves=26
num_cat=0
split_feature=14 24 15 15 12 22 24 4 6 27 36 16 26 5 2 12 41 24 35 24 9 36 29 13 40
split_gain=33.7096 11.4587 11.125 9.14631 13.9177 10.1869 17.3828 12.4478 11.9615 9.62392 9.09849 7.09985 6.73376 6.64802 22.8374 12.8836 5.90499 3.91427 3.66948 3.58406 2.42566 1.80374 1.1175 0.169711 0.161244
threshold=0.43303571428571436 21.535000000000004 0.63333333333333341 0.095454545454545472 1.0000000180025095e-35 5.5000000000000009 22.475000000000005 1625.0000000000002 0.35415650477318655 0.91983407250967886 0.2123774859644115 432.50000000000006 0.34523809523809529 7.5000000000000009 26.500000000000004 0.29166666666666669 -1.4999999999999998 22.845000000000002 518.50000000000011 21.675000000000004 8.5000000000000018 0.27419455544455551 7.166666666666667 0.16025641025641027 124.50000000000001
decision_type=2 2 2 2 2 2 2 2 2 2 2 2 2 2 2 2 2 2 2 2 2 2 2 2 2
left_child=1 23 10 5 22 6 16 -8 9 12 -2 -6 21 15 -15 18 -3 19 -12 -17 -11 -7 -5 -1 -14
right_child=2 3 -4 4 11 8 7 -9 -10 20 13 -13 24 14 -16 17 -18 -19 -20 -21 -22 -23 -24 -25 -26
leaf_value=-0.02025009314564032 0.024159658903303016 0.033907518148216381 0.028546139221036462 -0.044684817261571398 -0.017684132214315262 -0.0043699014182045698 -0.034670936778886496 0.010542581708347806 0.011818125689160127 -0.042803058152448836 -0.025364949233821536 0.01405593517374302 -0.028309296420405434 -0.036854506803880416 0.010784478576663788 0.0039303312596068304 0.0073145769742351653 0.0014900423389552974 0.00027116034270626885 0.023543872474716877 -0.010831145179440328 0.014039718671326206 -0.017858207973545457 -0.040624474083627085 -0.011219381478796527
leaf_weight=8.8758971616625804 17.87029455602169 13.226143520325424 20.191971354186535 11.452866161242129 11.415242899209263 7.8273167014122027 10.267509307712318 8.5854396112263185 13.45247397944331 11.709221770986916 9.4772351980209368 10.085187807679175 5.7476877905428392 13.166453890502451 20.871431842446327 12.59732613712549 17.696603301912546 18.14801175519824 8.8642252832651121 30.068620298057795 4.5364294219762078 7.9632224552333355 6.1167178004980078 7.6817255839705458 5.1021563708782196
leaf_count=60 41 30 37 87 50 53 59 35 55 135 50 36 52 73 64 38 63 49 38 74 31 27 40 51 34
internal_value=0 -0.010733 0.00884469 -0.00777178 -0.0198066 -0.00305627 0.00669474 -0.0150448 -0.0116056 -0.0191523 0.005426 -0.00286668 -0.00705567 0.00210033 -0.00866576 0.00682936 0.0200577 0.0134112 -0.0141668 0.0181882 -0.0360411 0.00544876 -0.0381249 -0.033062 -0.0232698
internal_weight=0 161.742 151.256 145.184 39.07 106.114 49.7757 18.8529 56.3385 42.886 131.064 21.5004 26.6404 113.193 34.0379 79.1554 30.9227 60.814 18.3415 42.6659 16.2457 15.7905 17.5696 16.5576 10.8498
internal_count=1362 898 464 787 213 574 187 94 387 332 427 86 166 386 137 249 93 161 88 112 166 80 127 111 86
is_linear=0
shrinkage=0.03


Tree=7
num_leaves=26
num_cat=0
split_feature=19 8 15 41 27 27 11 37 6 31 36 33 31 16 6 36 0 19 41 31 19 20 24 36 16
split_gain=27.7315 15.0331 12.3687 14.7732 11.6954 11.9263 11.0597 10.3955 9.47329 13.394 9.21388 7.98768 7.61659 7.54593 7.19598 5.68219 5.50718 3.82709 3.7737 2.49305 2.11372 3.45568 2.28809 1.94805 0.62916
threshold=7.5000000000000009 0.34523809523809529 0.43650793650793657 -0.50663146779303048 1.4400000000000011 1.8249999999999995 0.44097222222222227 0.26600624634003517 0.26134958487899668 23.251666666666669 0.21720652606446481 1.0000000180025095e-35 23.478333333333339 381.50000000000006 0.18776709401709404 0.26594271232392297 3.5000000000000004 4.5000000000000009 -4.4999999999999991 23.413333333333338 9.5000000000000018 2.1800000000000019 22.265000000000004 0.2621584020669781 430.50000000000006
decision_type=2 2 2 2 2 2 2 2 2 2 2 2 2 2 2 2 2 2 2 2 2 2 2 2 2
left_child=2 20 3 8 6 -6 7 10 11 18 -5 14 -11 -4 -1 -12 -14 -9 -10 -8 22 -22 -2 -16 -24
right_child=1 -3 13 4 5 -7 19 17 9 12 15 -13 16 -15 23 -17 -18 -19 -20 -21 21 -23 24 -25 -26
leaf_value=-0.00067642253597828008 -0.0047579119622293423 0.0061055014258833877 0.004688403426700306 0.0083346967701576485 -0.028133135728162763 0.0091191144588847733 0.01502239091025584 0.023863838621300322 -0.032453006831986188 0.02893022761530193 -0.039278235360517756 0.0032054456864120387 0.014391670960152744 0.031254378769239283 -0.020200710520320273 -0.0022134648389892462 -0.011355849106601625 0.0030450860202496733 -0.004852163758455711 0.030884164496516944 -0.042248023514914287 -0.0086377097344248841 -0.032682462466676832 -0.046366501638952007 -0.0096877725508903757
leaf_weight=7.0493966341018703 8.4828649796545523 14.450964806601403 18.684070531278849 11.852551635354759 13.155057173222305 14.305357273668049 29.746408626437187 15.477450370788574 8.5150958746671694 11.083647835999725 8.0992884375154954 10.055906526744364 12.116381227970125 19.835599027574062 10.479387611150743 6.2944522500038138 13.903483770787714 15.804839916527271 9.1820619255304319 19.135306671261787 15.773671772331001 4.6893273815512648 5.7667105533182603 9.4641574434936029 3.9226993136107922
leaf_count=35 51 78 47 45 63 46 74 45 45 28 62 34 40 37 62 30 50 66 41 32 177 39 61 63 33
internal_value=0 -0.0194119 0.00397227 0.00122143 0.00753434 -0.00942515 0.0120041 0.00288452 -0.00794412 9.8062e-05 -0.0106062 -0.0192354 0.0102567 0.0192359 -0.02724 -0.0253171 0.00080517 0.0141606 -0.0200792 0.0222016 -0.0287871 -0.0360007 -0.0179003 -0.0357119 -0.0266235
internal_weight=0 53.0862 264.24 225.72 133.871 27.4604 106.41 57.5286 91.8495 54.8007 26.2463 37.0488 37.1035 38.5197 26.9929 14.3937 26.0199 31.2823 17.6972 48.8817 38.6353 20.463 18.1723 19.9435 9.68941
internal_count=1384 439 945 861 463 109 354 248 398 204 137 194 118 84 160 92 90 111 86 106 361 216 145 125 94
is_linear=0
shrinkage=0.03


Tree=8
num_leaves=26
num_cat=0
split_feature=18 5 15 39 28 29 5 6 14 8 31 5 40 41 16 2 0 27 24 30 16 15 24 4 28
split_gain=25.6338 15.1676 12.4449 10.5914 12.5346 9.83946 9.179 10.0871 7.78895 8.69851 8.56528 7.77451 7.22998 6.49373 8.69042 7.38766 6.35255 6.06201 10.6348 5.9838 4.53822 2.32225 1.29203 1.36673 0.964768
threshold=0.33449883449883455 5.5000000000000009 0.19375000000000003 1.0000000180025095e-35 6.166666666666667 2.1666666666666674 4.5000000000000009 0.26656686626746512 0.25833333333333336 0.36038961038961043 23.251666666666669 9.5000000000000018 131.50000000000003 -3.4999999999999996 233.50000000000003 23.500000000000004 3.5000000000000004 0.64000000000000001 22.075000000000003 22.891666666666669 160.50000000000003 0.080128205128205135 21.685000000000006 1500.0000000000002 5.8333333333333348
decision_type=2 2 2 2 2 2 2 2 2 2 2 2 2 2 2 2 2 2 2 2 2 2 2 2 2
left_child=1 3 6 4 19 -3 -2 11 20 10 -10 -8 13 17 15 -15 -6 -7 -19 21 -5 -1 -16 -24 -22
right_child=2 5 -4 8 16 12 7 -9 9 -11 -12 -13 -14 14 22 -17 -18 18 -20 -21 24 -23 23 -25 -26
leaf_value=0.026257548975504794 -0.017556777671918489 0.0075848744282076509 0.024844733264447499 -0.0028503563362186992 -0.033860688187864758 0.010955635065733882 -0.019188582655729734 0.028743590706060453 -0.0070110510712629538 -0.020838720561149184 0.026252558516603255 0.012675238617724483 0.0014612300634566865 0.013198188997401298 -0.016227431501227602 -0.025491820314765011 0.0031612211026377352 0.0065109815956998105 -0.042077951992005022 -0.0017730182817342437 -0.040562889653194739 0.0090440307263191036 -0.043542170167810923 -0.01737719090770137 -0.014280574573579154
leaf_weight=24.647896911948919 13.269659858196972 13.274742390960453 37.554105781018734 7.0381049737334278 6.1911257766187173 8.0075777545571345 10.836222551763059 13.464829187840222 13.11738842725754 10.777138531208037 11.430385194718836 12.923040997236965 12.665911111980675 6.8336301818490011 6.622125729918479 7.1974856369197369 7.8693799264729023 6.9051207229495031 6.4492563232779503 13.794242739677427 7.2648089677095395 13.642542712390421 22.859836254268888 6.059390850365161 5.1816002056002617
leaf_count=71 56 52 79 43 51 35 54 22 59 43 32 39 69 34 45 53 40 31 61 47 55 45 187 46 43
internal_value=0 -0.00676743 0.0122378 0.000351561 0.00832075 -0.0154833 0.00227213 0.00987554 -0.00922017 -0.000526887 0.00928866 -0.00221884 -0.0192378 -0.0228725 -0.0287031 -0.00735275 -0.0153269 -0.00804329 -0.0193786 0.0150352 -0.0234647 0.0208779 -0.0362911 -0.0395385 -0.0331131
internal_weight=0 217.83 88.0479 120.955 66.1452 96.8751 50.4938 37.2241 54.8094 35.3249 24.5478 23.7593 83.6003 70.9344 49.5725 14.0311 14.0605 21.362 13.3544 52.0847 19.4845 38.2904 35.5414 28.9192 12.4464
internal_count=1392 1142 250 529 254 613 171 115 275 134 91 93 561 492 365 87 91 127 92 163 141 116 278 233 98
is_linear=0
shrinkage=0.03


Tree=9
num_leaves=22
num_cat=0
split_feature=19 17 10 26 11 20 15 22 15 20 35 17 33 24 19 29 40 31 29 40 31
split_gain=33.0089 14.6399 13.9574 12.4584 9.75598 9.67214 9.30672 10.3993 8.80931 8.72263 7.49536 8.6775 5.9098 6.53038 5.42096 4.44917 4.14996 3.41882 2.81502 2.45409 1.75525
threshold=7.5000000000000009 0.35081686334129686 1.5000000000000002 0.36038961038961043 0.44097222222222227 0.67000000000000004 0.43650793650793657 3.5000000000000004 0.087121212121212141 0.29999999999999899 275.50000000000006 0.21261182902584494 1.0000000180025095e-35 21.735000000000003 4.5000000000000009 4.166666666666667 123.50000000000001 23.285833333333336 4.5833333333333348 125.50000000000001 23.438333333333336
decision_type=2 2 2 2 2 2 2 2 2 2 2 2 2 2 2 2 2 2 2 2 2
left_child=1 2 3 8 12 9 7 -3 15 18 20 -12 13 -2 16 -1 -5 -13 -4 -9 -7
right_child=4 6 5 14 -6 10 -8 19 -10 -11 11 17 -14 -15 -16 -17 -18 -19 -20 -21 -22
leaf_value=0.026013725589786877 -0.0071509408742333061 -0.00627912776513529 -0.0054387289389784838 -0.024049936246723684 0.0009571291964641681 0.031190361274998326 0.030866163215980062 0.027196719432271088 -0.017103939894619051 -0.026548965123528105 -0.016473066965273567 -0.0021315585660891083 -0.0012935811720565455 -0.041174636287017466 -0.037503846559439551 -0.00049962944715954325 0.0027005334217371515 0.017274897836644175 0.013413436223286288 0.0086476719574032253 0.013583337191379434
leaf_weight=10.06012334674597 7.5521268397569683 23.8110595010221 13.199234336614611 8.7209338396787697 13.175785312429069 14.522414207458498 23.186043761670589 15.798295341432096 11.473075248301027 10.71026600897312 11.408176762983201 11.039943899959324 6.1356795057654372 23.348222365602851 13.049349471926687 10.654951900243757 9.4665775783359987 25.552262373268604 11.689217928797005 14.258630480617283 15.359938245266674
leaf_count=23 48 73 51 47 72 36 36 36 50 51 65 57 50 267 94 62 35 70 45 50 50
internal_value=0 0.00495238 0.000154453 -0.0109181 -0.0212214 0.00642484 0.0156852 0.00827994 0.00225117 -0.00628983 0.0122484 0.00454583 -0.0287564 -0.0337994 -0.0238073 0.0135331 -0.0112382 0.0116129 0.00375458 0.0194858 0.0235599
internal_weight=0 253.96 176.906 63.425 50.2118 113.481 77.054 53.868 32.1882 35.5987 77.8827 48.0004 37.036 30.9003 31.2369 20.7151 18.1875 36.5922 24.8885 30.0569 29.8824
internal_count=1368 931 736 311 437 425 195 159 135 147 278 192 365 315 176 85 82 127 96 86 86
is_linear=0
shrinkage=0.03


Tree=10
num_leaves=23
num_cat=0
split_feature=19 6 5 4 11 9 11 16 13 35 37 35 35 16 2 35 0 24 24 28 7 37
split_gain=32.8943 17.027 11.3526 10.0167 9.87962 8.82041 7.51465 6.98969 10.9397 7.17792 8.54394 8.03086 6.95613 12.1925 6.26297 5.53244 5.37356 5.11458 4.81071 3.26275 2.47313 1.75108
threshold=5.5000000000000009 0.28403518062302863 2.5000000000000004 1500.0000000000002 0.84523809523809534 2.5000000000000004 0.57738095238095244 478.50000000000006 0.60769230769230786 382.50000000000006 0.29238026124818584 526.50000000000011 506.50000000000006 560.50000000000011 23.500000000000004 184.50000000000003 3.5000000000000004 22.625000000000004 21.865000000000006 3.8333333333333335 13.500000000000002 0.35683229813664602
decision_type=2 2 2 2 2 2 2 2 2 2 2 2 2 2 2 2 2 2 2 2 2 2
left_child=4 3 16 6 5 -1 20 8 9 10 18 -11 14 -14 -9 -6 -3 -4 -7 -5 21 -2
right_child=1 2 17 19 15 7 -8 12 -10 11 -12 -13 13 -15 -16 -17 -18 -19 -20 -21 -22 -23
leaf_value=0.022362828616574605 -0.036669839646084917 -0.029542643166133389 0.02140652689679513 0.014285828409424323 0.0074394053322865243 0.013147748806828695 0.0048135278712021778 0.0017291908615602392 -0.026191921218774783 -0.027157490208591973 0.027323620355485519 0.0066049483946216793 0.013628234281224484 -0.025420186651841526 0.026620435733755877 0.031788320602147993 0.00065137173709721755 -0.0033658741549647485 -0.012432840620037768 -0.011889470071872953 -0.0076612836867006378 -0.0097152150051634176
leaf_weight=21.49628222361207 34.134270556271076 9.3534487895667571 19.242346569895748 6.5426984131336194 15.574274621903895 9.6747769080102461 5.118231087923049 14.812861822545527 13.695388447493313 10.922676533460619 13.334461018443106 11.216586999595163 15.7082756459713 10.143982470035551 22.858676869422197 21.249862223863602 9.7985459789633733 10.84689750894904 13.304133057594298 6.6184473522007465 4.8356897681951514 4.1649987697601309
leaf_count=58 337 71 65 28 37 30 19 55 52 66 28 44 52 47 50 45 48 59 59 55 42 28
internal_value=0 -0.011537 0.00163459 -0.0218163 0.0088074 0.00538026 -0.0279194 0.00240371 -0.0039452 0.00196126 0.00997605 -0.0109221 0.00951489 -0.00241883 0.0174135 0.022404 -0.0154938 0.0128231 -0.00147231 0.00129085 -0.0318445 -0.0343662
internal_weight=0 110.656 49.2412 61.4143 193.992 157.168 48.2532 135.672 72.148 58.4526 36.3134 22.1393 63.5238 25.8523 37.6715 36.8241 19.152 30.0892 22.9789 13.1611 43.135 38.2993
internal_count=1375 752 243 509 623 541 426 483 279 227 117 110 204 99 105 82 119 124 89 83 407 365
is_linear=0
shrinkage=0.03


Tree=11
num_leaves=24
num_cat=0
split_feature=18 19 27 33 31 11 20 41 20 20 2 31 25 35 18 37 18 37 25 14 2 28 28
split_gain=29.7765 17.5468 11.5434 9.31348 10.6671 10.0349 7.49064 10.0673 7.54547 6.62848 7.3483 5.56889 6.62879 5.79125 9.62887 5.56446 6.49798 4.05983 4.03382 3.99135 1.19514 1.17577 0.68096
threshold=0.33449883449883455 2.5000000000000004 1.4183333333333328 1.0000000180025095e-35 23.52829897923267 0.57738095238095244 0.99500000000000111 -1.0000000180025095e-35 1.6649999999999994 0.60500000000000054 32.760042238648374 23.244166666666672 24.365000000000006 385.50000000000006 0.25087412587412594 0.26600624634003517 0.45346320346320351 0.30798149219201859 23.405000000000005 0.14835164835164838 34.500000000000007 7.8333333333333348 4.5833333333333348
decision_type=2 2 2 2 2 2 2 2 2 2 2 2 2 2 2 2 2 2 2 2 2 2 2
left_child=1 6 15 5 -5 9 7 -1 -8 20 11 21 13 14 18 16 -2 -12 -13 -15 -3 -11 -17
right_child=2 3 -4 4 -6 -7 8 -9 -10 10 17 12 -14 19 -16 22 -18 -19 -20 -21 -22 -23 -24
leaf_value=-0.0057784187607642567 -0.0050890686797593543 -0.038096005791608815 -0.0045478494985081025 0.023851634539732817 -0.01363496463590034 0.0049436563806330132 -0.019005012853689659 0.024521328361775875 0.011972842797913474 -0.033966537867314468 -0.037380291599483827 -0.0011755207238803662 -0.026389575059322427 -0.0027374059082832468 0.01514763879289026 0.033654961119788128 0.023808490752023653 -0.0060021278672861382 -0.033438280560216062 0.021196300823046813 -0.012798654582701432 -0.011045080044557501 0.019908817380187155
leaf_weight=13.572472892701624 13.124500863254072 13.99448728375137 18.82156608812511 12.184641458094122 11.364141061902044 20.113061085343361 13.680319327861072 28.745798690244555 11.078261785209177 5.6675691157579404 13.234059328213336 5.354777809232476 7.452064659446477 10.147959070280196 7.734788477420806 21.157066859304905 11.728080317378042 6.0657110027968875 8.8790144808590394 12.845293361693619 4.9604805819690219 6.6893707308918238 20.027737505733967
leaf_count=55 61 122 68 46 78 74 60 69 33 51 121 28 56 70 34 42 28 35 80 43 40 45 53
internal_value=0 -0.00499494 0.0158081 -0.0107625 0.00611017 -0.0140353 0.00756437 0.0149813 -0.00528506 -0.017764 -0.0135617 -0.00822818 -0.00354664 0.00120202 -0.00938571 0.021573 0.00930545 -0.0290081 -0.0229411 0.0112595 -0.0333291 -0.0248253 0.028202
internal_weight=0 213.764 84.859 146.687 23.5488 123.139 67.0769 42.3183 24.7586 103.026 84.0706 64.7708 52.4139 44.9618 21.9686 66.0374 24.8526 19.2998 14.2338 22.9933 18.955 12.3569 41.1848
internal_count=1392 1140 252 923 124 799 217 124 93 725 563 407 311 255 142 184 89 156 108 113 162 96 95
is_linear=0
shrinkage=0.03


Tree=12
num_leaves=22
num_cat=0
split_feature=22 19 35 18 18 6 18 37 18 28 36 6 21 16 18 13 25 35 22 28 35
split_gain=18.5971 12.655 10.4414 10.0171 17.1487 9.12686 8.64249 9.52787 8.76776 8.22225 8.19293 7.6342 7.46343 6.75248 6.74923 6.34629 4.9669 4.82604 3.84109 1.89424 0.585586
threshold=2.5000000000000004 7.5000000000000009 505.50000000000006 0.4130034219531456 0.2085622710622711 0.28403518062302863 0.28084674496157752 0.20084033613445382 0.43804824561403516 5.416666666666667 0.24857282131831235 0.35415650477318655 2.5000000000000004 164.50000000000003 0.22365281777046486 0.42261904761904767 23.145000000000003 240.00000000000003 1.5000000000000002 6.166666666666667 115.50000000000001
decision_type=2 2 2 2 2 2 2 2 2 2 2 2 2 2 2 2 2 2 2 2 2
left_child=3 2 6 4 18 19 7 -2 10 12 -8 15 17 20 -15 16 -3 -6 -1 -4 -9
right_child=1 11 5 -5 9 -7 8 13 -10 -11 -12 -13 -14 14 -16 -17 -18 -19 -20 -21 -22
leaf_value=0.0079420254139074675 0.011039092804710163 -0.0089378106917304915 -0.039103819303336604 0.027507825773448073 0.011913967786324855 0.0019741536577875321 -0.0029597388302205836 -0.015603265268045443 -0.009438900735432014 0.012712152641902683 0.025861370199042957 0.0047356965289793371 -0.031294662781451883 0.0063030256360906431 -0.022471970364963203 -0.0059741442921126976 -0.042107779622012467 -0.013433788437586884 0.029836763898442198 -0.01555488652473974 -0.039311985660737216
leaf_weight=14.995831968262793 18.048788636922836 6.7065083794295814 9.077221445739271 18.615786138921976 9.2482938617467898 13.657463541254399 12.184939507395027 6.0215684771537763 13.635505519807337 12.316482931375502 27.332393616437912 7.945778038352727 12.327957354485987 17.119587127119306 10.062645718455313 10.855866322293876 18.071063198149204 15.188524968922136 16.551305640488863 10.48086144402623 5.9449594244360924
leaf_count=57 71 60 69 41 23 53 55 39 38 40 73 49 53 75 67 72 233 70 41 62 46
internal_value=0 -0.00712036 -0.00270746 0.00881332 0.00393571 -0.0169354 0.0018004 -0.0061951 0.010317 -0.00711201 0.0172601 -0.0209014 -0.0140665 -0.014291 -0.00515931 -0.0265659 -0.0344678 -0.00366516 0.0205231 -0.0290981 -0.0313245
internal_weight=0 187.145 143.566 99.2442 80.6284 33.2155 110.35 57.1975 53.1528 49.0813 39.5173 43.5792 36.7648 39.1488 27.1822 35.6334 24.7776 24.4368 31.5471 19.5581 11.9665
internal_count=1387 1062 648 325 284 184 464 298 166 186 128 414 146 227 142 365 293 93 98 131 85
is_linear=0
shrinkage=0.03


Tree=13
num_leaves=23
num_cat=0
split_feature=19 17 16 35 14 37 17 17 2 40 7 36 41 40 16 17 24 6 36 2 2 25
split_gain=25.9091 13.0882 9.70127 11.5326 18.9363 9.83387 6.77175 9.69252 7.94385 5.79764 5.69847 5.60279 5.3266 4.98843 4.78292 4.69274 3.93377 5.19353 4.69961 3.63353 3.35611 1.27764
threshold=7.5000000000000009 0.19316411781365053 103.50000000000001 506.50000000000006 0.46410256410256417 0.28136574074074078 0.28151003205936392 0.25512510292214891 20.500000000000004 123.50000000000001 11.500000000000002 0.26770442156268931 1.5000000000000002 131.50000000000003 432.50000000000006 0.2339899751130429 22.715000000000003 0.35415650477318655 0.28799843905207895 29.500000000000004 27.500000000000004 23.065000000000001
decision_type=2 2 2 2 2 2 2 2 2 2 2 2 2 2 2 2 2 2 2 2 2 2
left_child=1 10 5 6 15 -3 7 8 -4 -8 -1 -12 19 16 -11 -5 17 18 21 -10 -6 -2
right_child=13 2 3 4 20 -7 9 -9 12 14 11 -13 -14 -15 -16 -17 -18 -19 -20 -21 -22 -23
leaf_value=-0.033384732533199901 -0.010005943033352557 0.007619212066390736 -0.0095361742651022263 -0.0066066875933284237 0.021964579502955238 -0.028090307658301873 0.032567570340423915 -0.014543627078914899 0.019226472726523905 0.0024283446177812513 -0.017339367083409173 0.010747322729233311 0.032730626987591271 -0.0018962211385603793 0.022093731085405469 -0.038302278451947669 -0.039239637150094285 0.0076095338451823294 0.00093635910491688052 -0.0016203317338078862 0.0017350829539114153 -0.034817815914236903
leaf_weight=7.5990341529250172 4.5708975605666735 12.699355252087118 10.448698353022335 8.0519321635365504 12.507916972041132 11.721520580351351 22.17001735419035 13.614875625818966 14.041963098570706 21.339733973145485 12.33117991872132 9.7373876273632032 13.303999867290257 11.881885323673485 22.600675828754902 9.862734340131281 10.716844612732528 5.5154203139245501 5.7577401790767899 13.632028959691523 15.789712734520434 11.958596203476189
leaf_count=58 39 50 56 46 31 51 49 75 44 62 79 44 33 78 56 73 137 26 40 66 58 150
internal_value=0 0.00401816 0.00677606 0.00922315 -0.00355206 -0.0103496 0.0137103 0.00653626 0.0124525 0.0203692 -0.013983 -0.00508331 0.0182421 -0.0193245 0.0130647 -0.0261506 -0.0243415 -0.016351 -0.0224188 0.00954038 0.0115364 -0.0297772
internal_weight=0 231.453 201.785 177.364 46.2123 24.4209 131.152 65.0416 51.4267 66.1104 29.6676 22.0686 40.978 50.4014 43.9404 17.9147 38.5195 27.8027 22.2872 27.674 28.2976 16.5295
internal_count=1401 931 750 649 208 101 441 274 199 167 181 123 143 470 118 119 392 255 229 110 89 189
is_linear=0
shrinkage=0.03


Tree=14
num_leaves=22
num_cat=0
split_feature=19 19 36 36 31 25 26 6 31 8 11 6 6 28 25 21 6 11 36 31 31
split_gain=21.4152 15.1899 8.29455 15.6332 10.5592 9.50048 7.72131 7.68145 7.54991 7.5766 7.45833 7.45821 12.5355 7.606 7.18281 6.14643 6.00932 5.90873 3.73793 2.86685 0.339413
threshold=9.5000000000000018 1.5000000000000002 0.21720652606446481 0.24349561746073076 23.238333333333337 23.275000000000002 0.36931818181818188 0.23862403865115364 23.21166666666667 0.36038961038961043 0.36931818181818188 0.24714201724588453 0.32373653686826848 6.5833333333333348 24.125000000000004 2.5000000000000004 0.21402502273047422 0.77350427350427364 0.28829432676640504 23.054166666666671 24.331666666666671
decision_type=2 2 2 2 2 2 2 2 2 2 2 2 2 2 2 2 2 2 2 2 2
left_child=1 8 6 14 15 -6 7 -3 -1 -10 20 16 13 -13 19 -5 -7 18 -17 -4 -2
right_child=10 2 3 4 5 11 -8 -9 9 -11 -12 12 -14 -15 -16 17 -18 -19 -20 -21 -22
leaf_value=0.024986633416125271 -0.041432236819518027 0.029220247500713569 -0.011920569620881991 -0.032452153671765113 0.020968986142868018 -0.004775041467190864 -0.012839132421032297 8.7201810309231315e-05 -0.012749076681761281 0.018332132458289969 -0.0028528361979473513 -0.036661765944163989 0.010744335344622932 0.0015563331047008192 0.0026710298943999513 -0.0020702531415771976 0.020946973632734591 0.014197209669054944 -0.023408938944232429 -0.039781256348839548 -0.013090064296735355
leaf_weight=28.618667401373386 13.004398441873493 16.158003715798262 6.9461565464735093 9.0223923623561841 22.048099257051945 13.918434366583826 9.3826835229992849 14.793681893497704 12.686883747577669 11.63065071031451 8.0747870523482543 13.113007735460998 13.466619852930306 6.564687078818678 6.2109269350767127 15.550446253269913 15.899494688957928 7.9443238005042067 12.856876876205204 15.069495588541029 2.8652968388050786
leaf_count=71 180 48 43 43 77 78 59 66 52 32 54 88 51 38 32 78 54 23 77 112 34
internal_value=0 0.00109434 -0.00273637 -0.00582627 -0.00129928 0.00492622 0.00911557 0.0161462 0.0150664 0.00237996 -0.0275239 -0.00116425 -0.0106578 -0.0249445 -0.0252677 -0.0126786 0.00939499 -0.00633443 -0.0126324 -0.0327157 -0.0383528
internal_weight=0 251.882 198.945 158.611 130.384 85.0103 40.3344 30.9517 52.9362 24.3175 23.9445 62.9622 33.1443 19.6777 28.2266 45.374 29.8179 36.3516 28.4073 22.0157 15.8697
internal_count=1390 1122 967 794 607 386 173 114 155 84 268 309 177 126 187 221 132 178 155 155 214
is_linear=0
shrinkage=0.03


Tree=15
num_leaves=23
num_cat=0
split_feature=19 17 24 21 19 33 35 19 18 18 35 18 25 36 20 25 28 6 8 24 35 16
split_gain=9.89989 8.87668 8.0113 10.7602 10.3896 7.79938 7.47795 6.98743 6.30491 10.1041 8.02776 8.91727 6.9572 5.6193 5.86338 5.61683 5.21855 4.60592 4.52443 3.09446 0.708637 0.0102163
threshold=7.5000000000000009 0.19831730769230771 22.805000000000003 3.5000000000000004 4.5000000000000009 1.0000000180025095e-35 400.50000000000006 2.5000000000000004 0.40685367264314637 0.32019417475728162 364.50000000000006 0.29708614864864874 23.542303824212976 0.24857282131831235 0.96499999999999997 23.765000000000004 7.5833333333333348 0.23862403865115364 0.40833333333333338 23.085000000000004 576.50000000000011 428.50000000000006
decision_type=2 2 2 2 2 2 2 2 2 2 2 2 2 2 2 2 2 2 2 2 2 2
left_child=1 7 8 19 -5 6 21 -1 9 10 17 13 -11 -12 -15 -9 18 -3 20 -4 -8 -2
right_child=5 2 3 4 -6 -7 16 15 -10 12 11 -13 -14 14 -16 -17 -18 -19 -20 -21 -22 -23
leaf_value=0.0051043198276800794 -0.036400901170791519 0.0044657021908785779 0.01697629378969558 -0.0406965272306304 0.0028297589952039483 0.010567455487469485 -0.030359696626219502 -0.033366930000425191 0.019911823301753607 -0.020111219289186081 -0.021786107277791737 0.026335402939611775 0.0089621339230852304 0.012034131614026637 -0.011453819550136208 -0.00081296477039707665 0.011833649582986746 0.026310697431908319 0.0076663178759944451 -0.0039401571530312644 -0.0078047976506297762 -0.013208963921957537
leaf_weight=13.528552941977976 11.213539384305475 13.681877195835112 11.581369899213316 9.6498389840126055 8.1398315802216512 9.6057408833876234 6.9631740059703606 11.622415855526926 32.340737201273441 18.51876683160663 9.6244840733706933 9.0122014358639699 10.136804088950155 20.561736050993204 14.654293645173309 7.497426211833953 7.7920565307140341 27.351404044777155 4.2759149074554434 10.823270969092844 3.5165490563958883 3.203710824251174
leaf_count=51 151 59 33 47 40 64 79 105 79 76 59 24 37 78 78 38 51 71 24 49 33 35
internal_value=0 0.00299632 0.00542377 -0.00628945 -0.0225074 -0.0119056 -0.0179881 -0.0110538 0.00848544 0.00522468 0.00990649 0.002104 -0.0099129 -0.00368264 0.00216992 -0.0218874 -0.00615886 0.0195729 -0.0159386 0.00737711 -0.025255 -0.0334843
internal_weight=0 228.725 196.077 40.1943 17.7897 46.5707 36.9649 32.6484 155.882 123.542 94.886 53.8527 28.6556 44.8405 35.216 19.1198 22.5477 41.0333 14.7556 22.4046 10.4797 14.4173
internal_count=1361 924 730 169 87 437 373 194 561 482 369 239 113 215 156 143 187 130 136 82 112 186
is_linear=0
shrinkage=0.03


Tree=16
num_leaves=23
num_cat=0
split_feature=19 9 17 37 19 15 17 16 15 25 8 13 30 12 5 35 18 29 15 40 2 30
split_gain=14.2921 10.8021 6.60886 7.2932 7.69069 13.0386 9.6316 7.25642 7.72412 6.59137 10.9132 6.45177 6.14324 5.85495 5.54836 8.22177 5.17133 4.06826 4.01229 3.33976 3.2103 0.182147
threshold=8.5000000000000018 13.500000000000002 0.26890056683986779 0.17262664963814392 2.5000000000000004 0.080128205128205135 0.23539749819084052 128.50000000000003 0.43650793650793657 23.785000000000004 1.0000000180025095e-35 0.42261904761904767 22.436666666666671 0.36666666666666675 4.5000000000000009 484.50000000000006 0.22869249394673127 3.5833333333333335 0.12132352941176472 125.50000000000001 27.500000000000004 22.511666666666674
decision_type=2 2 2 2 2 2 2 2 2 2 2 2 2 2 2 2 2 2 2 2 2 2
left_child=1 2 3 -1 17 6 14 -4 9 10 12 16 -9 -7 -6 19 -2 18 -5 -16 -18 -8
right_child=11 -3 7 4 5 13 21 8 -10 -11 -12 -13 -14 -15 15 -17 20 -19 -20 -21 -22 -23
leaf_value=0.016141795278037559 -0.038743364067429155 -0.023881406490306244 -0.0081363177761657537 0.023961319843553822 0.017159897155532101 -0.040539338567033359 -0.028857524158441051 0.020159346282695834 0.029541413389828818 0.024053793717369987 -0.022041106296505769 0.0021964389526361598 -0.0044354066733202262 -0.0069585820777371835 -0.034376488480639365 0.014335051105419497 -0.023322222886886478 -0.0056255088335901496 0.0023152479615946853 -0.0016178654479791959 0.0050937744905623908 -0.011171372168502306
leaf_weight=18.146993596106768 11.992328468710186 11.49554233253002 15.577484812587498 12.384861759841444 18.803872589021921 12.02961812913418 5.6688268259167653 19.897704549133778 18.377418048679829 14.348104298114775 10.905857138335703 9.5420583039522153 14.647073294967411 8.4743229970335943 5.2736535258591193 9.101979944854973 4.9351556263864023 16.570710714906454 17.639176122844219 4.8917354308068752 6.2005937173962593 4.9017216339707375
leaf_count=68 174 74 64 28 74 109 46 60 34 40 51 60 57 48 57 42 58 67 62 28 53 34
internal_value=0 0.0022346 0.00374992 -0.000546091 -0.00339234 -0.00962947 -0.000858142 0.00976823 0.0134499 0.00770859 0.00175229 -0.0183654 0.0100591 -0.0285122 0.00636235 -0.0047982 -0.0263483 0.00587883 0.012183 -0.0214701 -0.00913319 -0.0237384
internal_weight=0 239.137 227.641 133.887 115.74 69.1457 48.6418 93.7536 78.1762 59.7987 45.4506 32.6701 34.5448 20.5039 38.0712 19.2674 23.1281 46.5947 30.024 10.1654 11.1357 10.5705
internal_count=1388 1043 969 663 595 438 281 306 242 208 168 345 117 157 201 127 285 157 90 85 111 80
is_linear=0
shrinkage=0.03


Tree=17
num_leaves=22
num_cat=0
split_feature=17 19 31 22 25 31 27 20 25 31 15 6 6 25 25 27 17 37 26 26 9
split_gain=13.9424 10.0965 8.3758 7.85552 9.15559 7.09865 6.65886 7.10882 5.79144 5.25245 5.21096 9.55571 14.1663 5.18172 5.00312 8.75435 4.51209 4.00882 3.31045 1.81003 1.62053
threshold=0.20785868126735349 7.5000000000000009 23.251666666666669 1.5000000000000002 23.015000000000004 24.351666666666674 1.3733333333333337 1.5549999999999999 24.475000000000005 23.77833333333334 0.14835164835164838 0.24091988391522298 0.2852783180513106 23.265000000000004 23.635000000000002 0.85166666666666724 0.24614116207119305 0.27122830440587453 0.40833333333333338 0.40833333333333338 10.500000000000002
decision_type=2 2 2 2 2 2 2 2 2 2 2 2 2 2 2 2 2 2 2 2 2
left_child=2 6 -1 -4 -5 18 10 -8 13 -9 11 14 -13 -3 15 -2 -12 -14 -6 -18 -15
right_child=1 8 3 4 5 -7 7 9 -10 -11 16 12 17 20 -16 -17 19 -19 -20 -21 -22
leaf_value=-0.03557931611592554 -0.016679636230863663 -0.0017961276092729123 0.011521172240949871 0.017671876388781774 -0.039923133501207596 0.0041508485621701442 -0.021246213925011859 -0.0066799702326577398 0.010626711406017517 0.01724892779074318 0.0015348728595431932 -0.031054204169040249 0.015269242046949147 -0.036420087106549009 0.028375541570039235 0.017239810561984245 0.012498037279038393 -0.00674292301138113 -0.011809590766314377 0.026489439489240485 -0.0084336729504414891
leaf_weight=10.49846078455448 8.6954859159886855 9.6588607095181995 12.648890756070612 4.8855519853532341 11.413923102431005 6.6422876678407183 13.17074992507696 17.422496929764751 6.1075905337929717 12.501500174403189 16.520042255520821 12.233501609414814 14.773385066539051 9.3670051023364049 12.014700397849081 17.431013312190771 23.737121284008026 11.802419755607842 8.4534617308527213 21.286045424640179 4.0003293678164473
leaf_count=101 51 76 40 16 131 44 68 77 39 37 66 76 48 116 32 70 70 50 72 51 33
internal_value=0 0.00301296 -0.0137478 -0.00722462 -0.0150148 -0.0218559 0.00566647 -0.00447785 -0.0128277 0.00377126 0.00884187 0.00348703 -0.00683574 -0.019401 0.0138079 0.00556735 0.0152168 0.00570581 -0.0301352 0.0199582 -0.0302324
internal_weight=0 210.722 54.5426 44.0441 31.3952 26.5097 181.588 43.0947 29.1338 29.924 138.494 76.9505 38.8093 23.0262 38.1412 26.1265 61.5432 26.5758 19.8674 45.0232 13.3673
internal_count=1364 960 404 303 263 247 696 182 264 114 514 327 174 225 153 121 187 98 203 121 149
is_linear=0
shrinkage=0.03


Tree=18
num_leaves=24
num_cat=0
split_feature=19 16 17 15 2 8 24 14 24 25 37 29 24 5 14 6 24 16 29 25 37 27 16
split_gain=11.8251 8.53456 10.4736 8.12146 8.30193 7.60608 7.66902 7.40723 8.62983 6.96914 6.38607 6.1541 5.60774 5.59931 5.36348 4.97566 4.60656 4.60241 3.66586 3.33109 2.23431 2.1314 0.0945768
threshold=7.5000000000000009 103.50000000000001 0.28151003205936392 1.0000000180025095e-35 32.760042238648374 0.34523809523809529 21.285000000000004 0.86607142857142871 21.945000000000004 23.635000000000002 0.26600624634003517 4.416666666666667 22.275000000000002 3.5000000000000004 0.22649572649572652 0.2801828252540397 21.625000000000004 541.50000000000011 5.5833333333333348 23.542303824212976 0.23928352725045929 1.1466666666666667 473.50000000000006
decision_type=2 2 2 2 2 2 2 2 2 2 2 2 2 2 2 2 2 2 2 2 2 2 2
left_child=1 11 3 4 9 6 -2 8 -4 13 -10 -1 16 -3 19 18 -5 -8 22 -15 -7 -18 -14
right_child=5 2 7 12 -6 20 17 -9 10 -11 -12 -13 15 14 -16 -17 21 -19 -20 -21 -22 -23 -24
leaf_value=-0.00034772517475890321 0.013713455054414282 0.022052945266628224 -0.012637189927813094 -0.013722469719349923 -0.01566833766968485 0.013531026197066589 -0.032497181893192367 0.027895664987376112 -0.0010913872152528224 0.027410281493169944 0.022324245777473606 -0.029032873180665882 -0.040621269509307813 -0.032724372600879972 0.010287860578375841 -0.0017594934179926503 -0.00079077211929465578 -0.0018228074551829984 -0.0052136208685935326 -0.00056387487210256748 -0.0077149237332091586 0.016971847949542318 -0.017495339665223125
leaf_weight=15.721102498471739 3.6688191685825613 7.592662654817107 13.112521328032015 10.248787108808754 9.0882504396140558 7.8965672291815263 21.828920758329335 21.334788002073765 16.299488291144371 16.995977763086557 26.494053483009338 9.8360161781311017 6.5315277427434939 4.8777866326272505 8.7348236665129644 13.798180382698773 10.932243268936874 5.7028921395540229 6.6491540074348441 5.1333532407879829 6.3442342765629292 11.233465328812597 5.4277392104268074
leaf_count=63 21 24 58 54 50 39 290 44 60 46 67 70 52 48 33 58 53 47 38 35 52 36 36
internal_value=0 0.00298604 0.00515471 -0.000530629 0.00808193 -0.0135143 -0.0214055 0.0135801 0.00734218 0.0135344 0.013755 -0.0126935 -0.0075293 0.0032779 -0.00571944 -0.0159679 0.00134497 -0.0266971 -0.0253103 -0.0190734 0.00428154 0.00887083 -0.0341359
internal_weight=0 220.042 194.485 117.244 52.4229 45.4414 31.2006 77.2409 55.9061 43.3346 42.7935 25.5571 64.8211 26.3386 18.746 32.4066 32.4145 27.5318 18.6084 10.0111 14.2408 22.1657 11.9593
internal_count=1374 925 792 563 236 449 358 229 185 186 127 133 327 140 116 184 143 337 126 83 91 89 88
is_linear=0
shrinkage=0.03


Tree=19
num_leaves=26
num_cat=0
split_feature=21 14 35 17 30 5 36 31 21 15 19 6 31 31 24 27 25 40 40 16 30 24 36 30 24
split_gain=13.5801 9.65543 11.7183 9.56071 9.23935 9.02017 7.87816 8.12847 6.52615 6.21877 9.14859 5.91141 5.30436 5.27816 5.05613 4.90732 4.72555 4.44896 4.27798 4.27256 3.1827 2.07495 1.42388 3.50699 0.800836
threshold=4.5000000000000009 0.43303571428571436 125.50000000000001 0.48653847345173867 21.510000000000005 7.5000000000000009 0.24349561746073076 23.045000000000005 7.5000000000000009 1.0000000180025095e-35 1.5000000000000002 0.22451101022529599 23.916666666666668 22.743333333333339 23.005000000000006 1.5083333333333337 23.255000000000006 119.50000000000001 129.50000000000003 249.50000000000003 22.491666666666671 22.345000000000002 0.30518425155063195 21.84833333333334 22.595000000000002
decision_type=2 2 2 2 2 2 2 2 2 2 2 2 2 2 2 2 2 2 2 2 2 2 2 2 2
left_child=1 4 -3 5 -1 6 8 13 -2 11 -11 -6 22 -8 15 20 -12 -9 19 -19 -4 -13 23 -7 -18
right_child=3 2 14 -5 9 12 7 17 -10 10 16 21 -14 -15 -16 -17 24 18 -20 -21 -22 -23 -24 -25 -26
leaf_value=-0.032597935915111453 -0.033815331723633199 -0.013780164310214595 0.016896822199799391 0.019201728650090313 -0.0094822069608316017 -0.0071234920895888124 0.002448477095919591 0.023881737801327064 -0.00082588450588650937 0.014536158028858133 0.0016174249308404274 0.024869065885765783 0.0035438392697853217 -0.028470078797789403 0.0014676054612774057 0.0070276876795282378 -0.014999870728463559 0.0067380241644023143 0.01672902226600087 -0.022913634693195326 0.035892099104775914 0.0070461391686980172 -0.010890348659904993 -0.040017598224655608 -0.037574207327544469
leaf_weight=5.4301071837544432 9.5919174645096081 10.393718786537645 22.881590541452169 10.109012328088282 8.3537414595484716 4.8810527101159193 9.4734699092805403 12.652600727975367 10.290936479344962 9.8744403049349803 6.9227920733392265 14.109589356929066 5.3014099709689608 7.8200409598648539 13.609761759638785 16.8176537938416 7.6463901400566083 7.8918912131339329 9.0384053103625757 6.2184724733233452 20.54818768799305 12.688052196055649 6.3163512907922259 12.824385244399307 5.1838049851357937
leaf_count=51 87 37 77 23 66 35 44 41 77 35 36 45 38 52 53 69 54 40 31 53 45 73 34 138 51
internal_value=0 0.00735173 0.0140762 -0.00625055 -0.000884069 -0.00908562 -0.00321018 0.00293028 -0.0183767 0.00267103 -0.00719564 0.0109269 -0.0225694 -0.0130347 0.0182563 0.0218799 -0.0183969 0.0109236 0.00250503 -0.00755186 0.0270686 0.0175058 -0.0281618 -0.0325927 -0.0279579
internal_weight=0 154.46 84.2509 112.41 70.2089 102.301 72.9777 53.0949 19.8829 64.7788 29.6274 35.1514 29.3232 17.2935 73.8572 60.2474 19.753 35.8014 23.1488 14.1104 43.4298 26.7976 24.0218 17.7054 12.8302
internal_count=1385 692 281 693 411 670 425 261 164 360 176 184 245 96 244 191 141 165 124 93 122 118 207 173 105
is_linear=0
shrinkage=0.03


Tree=20
num_leaves=24
num_cat=0
split_feature=19 6 13 18 18 17 40 1 11 24 24 0 15 35 19 18 40 35 2 28 17 6 6
split_gain=15.1611 8.99806 7.30827 8.8498 7.08909 7.46079 6.40194 7.80702 5.04539 5.88794 4.57332 7.70505 3.76383 3.58419 4.18493 3.48561 3.17679 3.17666 2.37178 1.1627 1.15372 0.998563 0.0419681
threshold=7.5000000000000009 0.22159620881600725 0.26969696969696971 0.1734013605442177 0.16312611806797858 0.12780303936819434 129.50000000000003 1.0000000180025095e-35 0.88194444444444453 21.535000000000004 22.925000000000004 2.5000000000000004 0.11437908496732027 392.50000000000006 5.5000000000000009 0.26773138832997995 120.50000000000001 501.50000000000006 21.500000000000004 4.166666666666667 0.25022361359570666 0.19542813441396742 0.19283892902677438
decision_type=2 2 2 2 2 2 2 2 2 2 2 2 2 2 2 2 2 2 2 2 2 2 2
left_child=1 6 15 -4 5 -3 7 16 9 -6 13 -12 -5 18 17 21 -1 -15 20 -19 -11 -2 -18
right_child=2 4 3 12 8 -7 -8 -9 -10 10 11 -13 -14 14 -16 -17 22 19 -20 -21 -22 -23 -24
leaf_value=-0.0073803881142843588 -0.010700392777615671 0.010699472082413921 0.020650106878546591 0.00036091153640290625 -0.011613170100909719 -0.025372947380480817 0.0075466522193517365 0.0086240962080749491 0.021524021073755083 0.013866093073907446 0.012341193435856263 -0.021687511080645865 -0.029094793985791432 -0.004314033209765639 -0.0096695337207794597 -0.0065385173464545567 -0.037019010257753268 0.0062846226168153567 0.022116522455585715 0.020612412471249262 0.00056526297162287924 -0.03863804650108596 -0.018690342813663528
leaf_weight=9.8575795628130454 3.3469725996255901 7.223106466233733 7.0950201563537147 6.7473798654973489 14.024223778396843 10.656348802149294 14.281803295016287 8.2159461416304094 19.490464866161346 11.137245338410141 10.285670053213837 9.8200261108577234 7.1103181801736355 9.68652745336294 12.199896715581415 6.5010101720690718 7.7828614190220859 11.323036305606367 26.300038475543261 13.379579674452541 10.92930084466934 12.651296278461812 8.6300787143409234
leaf_count=64 43 33 33 51 71 76 54 33 47 39 35 59 76 48 66 61 57 42 82 45 42 189 55
internal_value=0 0.00248736 -0.0165667 -0.00322806 0.00580381 -0.0111898 -0.008615 -0.0153548 0.00797026 0.00562662 0.0078904 -0.00473756 -0.016516 0.0106068 0.00438408 -0.0277109 -0.0229336 0.00962717 0.0161887 0.0150075 0.00787278 -0.0346318 -0.0304586
internal_weight=0 215.224 43.452 20.9527 166.455 17.8795 48.7683 34.4865 148.576 129.086 115.061 20.1057 13.8577 94.9556 46.589 22.4993 26.2705 34.3891 48.3666 24.7026 22.0665 15.9983 16.4129
internal_count=1401 948 453 160 685 109 263 209 576 529 458 94 127 364 201 293 176 135 163 87 81 232 112
is_linear=0
shrinkage=0.03


Tree=21
num_leaves=22
num_cat=0
split_feature=18 5 38 23 17 27 29 15 27 27 27 20 24 37 35 10 17 36 18 29 37
split_gain=13.1604 9.53404 7.35848 7.19749 9.14507 7.75296 6.69785 6.3619 7.97727 5.41029 6.10455 5.14301 4.95698 4.43033 4.06668 3.9572 3.31171 3.05116 1.78205 2.1132 2.25831
threshold=0.26695402298850579 5.5000000000000009 1.0000000180025095e-35 1.0000000180025095e-35 0.42842516753536863 1.5983333333333329 5.416666666666667 0.19375000000000003 0.9666666666666669 1.9550000000000003 0.48166666666666619 0.45500000000000013 22.375000000000004 0.17262664963814392 381.50000000000006 1.5000000000000002 0.21317747876418855 0.25494102023279436 0.25247621849563601 7.166666666666667 0.2843982420554429
decision_type=2 2 2 2 2 2 2 2 2 2 2 2 2 2 2 2 2 2 2 2 2
left_child=1 2 6 4 14 7 12 8 11 10 -3 -5 -1 -12 -2 -4 -17 -9 19 -15 -21
right_child=3 9 15 5 -6 -7 -8 17 -10 -11 13 -13 -14 18 -16 16 -18 -19 -20 20 -22
leaf_value=0.0099915496143860912 -0.0041579694762888929 -0.00080972614652846957 -0.0068047661910942475 -0.023254003154482714 0.013015947609170634 -0.0097463525557803538 -0.029778669824054749 0.032689727090175494 0.018429560617746175 0.0037982708398213365 -0.0021873025759586223 0.004789033624046304 -0.016624725667919959 -0.039303622482966621 -0.032434035869843843 -0.00047902268749167856 0.019468403177232883 0.01312184584204734 -0.0088360544076410922 -0.025975486061181524 0.0025589387071586101
leaf_weight=12.762294679880148 9.3589062169194275 10.911294873803852 11.861470155417917 8.3746543191373366 11.078736968338488 13.779965121299027 9.7056376598775369 14.686693422496317 18.108108464628458 8.8863822519779188 6.1602391973137847 12.346016235649584 9.0000216998159868 18.825856378301985 8.4422626458108407 11.335441555827858 19.556608431041241 21.035663910210133 4.7764367647469035 4.0920662842690936 3.6740460731089115
leaf_count=54 51 73 70 49 26 66 100 33 65 56 50 58 50 175 69 68 64 64 30 63 25
internal_value=0 -0.00804266 -0.00085267 0.00567321 -0.00698456 0.00987469 -0.0114722 0.0136613 0.00485038 -0.0170091 -0.0208255 -0.00759435 -0.00148867 -0.0263096 -0.0194895 0.00712705 0.0125649 0.0224735 -0.0306318 -0.0336548 -0.0147167
internal_weight=0 131.548 74.2215 117.211 28.8799 88.3311 31.468 74.5511 38.8288 57.3263 48.4399 20.7207 21.7623 37.5286 17.8012 42.7535 30.892 35.7224 31.3684 26.592 7.76611
internal_count=1359 878 406 481 146 335 204 269 172 472 416 107 104 343 120 202 132 97 293 263 88
is_linear=0
shrinkage=0.03


Tree=22
num_leaves=26
num_cat=0
split_feature=14 2 9 2 41 18 25 12 40 35 18 31 12 11 36 14 36 6 2 36 40 29 11 9 27
split_gain=12.978 11.2303 9.86069 6.04046 7.8366 6.7116 8.99913 6.08282 5.7305 5.64572 8.85159 5.11839 9.16521 4.40235 4.12359 3.97685 3.87156 3.78362 3.7117 3.34501 2.67905 2.67282 1.22415 0.135479 0.11731
threshold=0.91608391608391615 52.500000000000007 2.5000000000000004 18.500000000000004 1.0000000180025095e-35 0.26695402298850579 23.675000000000004 0.29166666666666669 130.50000000000003 99.500000000000014 0.21254208754208756 23.651666666666674 0.29166666666666669 0.44097222222222227 0.28638706140350884 0.13392857142857145 0.23476219636660547 0.21923816390290798 21.500000000000004 0.21720652606446481 122.50000000000001 4.166666666666667 0.44949494949494956 2.5000000000000004 0.75166666666666704
decision_type=2 2 2 2 2 2 2 2 2 2 2 2 2 2 2 2 2 2 2 2 2 2 2 2 2
left_child=1 3 -2 4 7 9 13 15 24 -5 11 12 23 14 19 17 -12 -1 -13 -7 -9 -18 -6 -11 -3
right_child=2 8 -4 5 22 6 -8 20 -10 10 16 18 -14 -15 -16 -17 21 -19 -20 -21 -22 -23 -24 -25 -26
leaf_value=0.011318122566680426 -0.0058239578058222573 -0.016065840376529448 0.024694458045085646 0.015797439611769021 -0.036908689324602624 0.0014731671016153225 0.023049618473666277 -0.0024675750356982378 -0.00011049866401440216 -0.012000782150841216 -0.0024774411049594543 0.023300220615662084 0.0087488804820538939 0.010018065866782021 0.0071375001954171145 0.01706913430029099 -0.011227106052990463 -0.01897963172711558 -0.0021297206240415761 -0.025859083385641211 -0.029721141503525166 -0.037092805155769584 -0.011870747944013389 -0.031991678509424665 -0.038767492494197163
leaf_weight=4.9031223747879285 13.404678843915461 4.7544778138399151 26.215209998190403 9.0044223759323341 6.9785300027579051 5.8574626091867712 22.542675195261836 6.1163681298494321 6.3902737461030474 4.1717489324510115 8.5185635536909121 9.9613956585526484 12.637494117021559 21.381932437419891 9.2206439375877363 12.075574938207863 8.7173330336809176 6.3512480370700359 8.5490244608372432 9.6081818416714651 6.0221964791417122 9.7595739811658841 5.5736111588776112 5.683024313300848 8.7920228950679284
leaf_count=32 48 37 72 48 68 24 76 36 30 43 56 32 51 69 33 53 49 68 61 77 44 94 30 68 94
internal_value=0 -0.00371366 0.0145854 -0.0013941 -0.010393 0.00167416 0.00837586 -0.00263079 -0.0240611 -0.00435806 -0.00740219 0.0014985 -0.00783092 0.000535229 -0.00781353 0.00631208 -0.0200921 -0.0060639 0.012493 -0.016524 -0.0182803 -0.0271779 -0.0289504 -0.0269814 -0.0338916
internal_weight=0 213.571 39.6199 193.634 48.0207 145.613 68.6109 35.4685 19.9368 77.0026 67.9982 41.0027 22.4923 46.0682 24.6863 23.3299 26.9955 11.2544 18.5104 15.4656 12.1386 18.4769 12.5521 9.85477 13.5465
internal_count=1393 1273 120 1112 331 781 279 233 161 502 454 255 162 203 134 153 199 100 93 101 80 143 98 111 131
is_linear=0
shrinkage=0.03


Tree=23
num_leaves=23
num_cat=0
split_feature=19 17 29 36 18 17 9 18 17 28 37 25 25 25 25 11 17 26 37 18 31 11
split_gain=11.0226 7.94804 5.43747 5.26722 5.95528 9.90223 10.0942 8.42151 5.05754 4.89637 4.79297 6.47174 4.2667 4.16075 6.06896 4.92701 3.78361 2.91613 2.85653 2.0422 1.51093 1.50012
threshold=2.5000000000000004 0.21261182902584494 3.8333333333333335 0.19880648817112909 0.21254208754208756 0.34721981638662747 3.5000000000000004 0.43804824561403516 0.22634126602380575 5.416666666666667 0.26458434613514831 23.755000000000006 23.685000000000006 22.805000000000003 23.185000000000006 0.51470588235294124 0.22438320947113724 0.36038961038961043 0.22568518069366969 0.29217479674796754 23.151666666666674 0.20714285714285716
decision_type=2 2 2 2 2 2 2 2 2 2 2 2 2 2 2 2 2 2 2 2 2 2
left_child=2 10 13 -3 16 6 9 12 -4 -6 11 17 -7 -1 -15 -16 -5 -2 -18 20 -8 -13
right_child=1 3 8 4 5 7 19 -9 -10 -11 -12 21 -14 14 15 -17 18 -19 -20 -21 -22 -23
leaf_value=-0.0010461135257199702 -0.032706691100520019 0.013745437932950036 0.0081970784033343763 0.018259147907463892 0.012280680149031373 0.0020459556689543918 -0.01485015474896847 -0.01335883222767264 -0.020686068582099926 -0.015364885818921203 -0.032613870162502043 -0.0037525792586038794 0.026330857955610375 0.027780462979359703 0.017756086013348424 -0.0074928598669131265 0.0092972347308470146 -0.0057278822488318693 -0.017274046146117324 -0.012016074433040329 -0.038731343284887171 0.015156677324930277
leaf_weight=15.457146778702734 7.2419324107468146 15.354255177080629 9.8680866286158579 13.48814668133855 11.67319440841675 13.922578219324352 7.3237066715955796 14.626789346337317 8.3517880514264089 7.9735519438982001 10.688302287831901 5.8252960573881847 10.872040245681999 21.205439709126949 12.286778163164856 11.91951861977577 5.5456193238496763 7.6067651957273483 5.2050985358655453 10.119846373796461 12.698267508298157 6.1795572005212307
leaf_count=59 88 63 40 53 54 65 59 52 47 67 120 54 32 52 40 44 32 67 52 68 128 32
internal_value=0 -0.0053389 0.00812593 -0.00169929 -0.00399151 -0.00755737 -0.0161947 0.00360669 -0.00577917 0.000677868 -0.0171086 -0.00910424 0.0138651 0.0123396 0.0167477 0.00570017 0.00870817 -0.0212064 -0.0042592 -0.0265503 -0.032138 0.00675551
internal_weight=0 166.345 79.0888 128.803 113.449 89.21 49.7886 39.4214 18.2199 19.6467 37.5419 26.8536 24.7946 60.8689 45.4117 24.2063 24.2389 14.8487 10.7507 30.1418 20.022 12.0049
internal_count=1368 1086 282 725 662 525 376 149 87 121 361 241 97 195 136 84 137 155 84 255 187 86
is_linear=0
shrinkage=0.03


Tree=24
num_leaves=24
num_cat=0
split_feature=19 17 30 30 24 24 19 31 9 37 40 6 18 28 15 6 18 31 36 20 9 9 16
split_gain=13.5747 6.97307 5.83939 5.23706 4.86504 5.12566 6.60084 9.9759 8.46009 6.70546 8.63132 6.25466 4.74216 4.15585 4.09501 3.48672 3.1453 2.75913 4.25225 2.5846 1.86243 1.84066 0.135185
threshold=7.5000000000000009 0.38610862962301234 22.268333333333334 21.985000000000003 21.145000000000003 23.085000000000004 4.5000000000000009 24.175833333333337 11.500000000000002 0.15815528921313185 123.50000000000001 0.24012118953830869 0.24399846360668334 2.8333333333333335 0.21825396825396828 0.3073115003808074 0.21824583866837391 23.368333333333336 0.27769015071854192 1.8649999999999987 6.5000000000000009 12.500000000000002 527.50000000000011
decision_type=2 2 2 2 2 2 2 2 2 2 2 2 2 2 2 2 2 2 2 2 2 2 2
left_child=1 4 3 19 -1 6 8 9 15 -8 12 -7 -11 -3 21 17 -12 20 -19 -2 -6 22 -4
right_child=2 13 14 -5 5 11 7 -9 -10 10 16 -13 -14 -15 -16 -17 -18 18 -20 -21 -22 -23 -24
leaf_value=-0.015465045222460169 -0.0013864199506621023 0.0024593902054664313 -0.035956705030960795 0.012909419636906151 0.027594580599013031 0.0095935274451229274 0.014396904270890357 0.025532779828425192 -0.012100558236530723 -0.016320817920077883 -0.0082474062545437737 -0.022996914981986548 0.011757308649772272 0.021884970788528229 0.0038327377473053336 -0.00086199194893463757 -0.037198346172841401 -0.0066002583052750313 0.01890856099712988 -0.027914360477221751 0.011673504346636315 -0.0057394436074594182 -0.013175337642041381
leaf_weight=11.400519222021101 7.1545700095593947 15.7415274977684 11.456674553453928 10.038663700222967 22.897903129458427 7.3104428425431278 7.5960207507014266 7.2970845103263846 10.974237587302921 7.0526980515569475 6.5455086547881391 11.386945124715565 11.470558442175387 27.595660280436277 3.7399192526936522 10.880974806845186 10.588143423199652 9.4804525859653968 10.731936667114494 4.5203331224620342 15.490008696913717 3.7420371137559405 3.5547983162105075
leaf_count=69 63 42 174 68 59 34 30 20 63 58 48 76 49 76 23 43 96 49 34 60 65 32 37
internal_value=0 0.00484919 -0.0131428 -0.00165689 0.00189901 0.00340781 0.00552995 -0.00290338 0.0107705 -0.0086172 -0.0140242 -0.0105587 0.000517953 0.0152487 -0.0231899 0.0146204 -0.0281565 0.0174287 0.00742688 -0.014238 0.0220664 -0.0284289 -0.0327452
internal_weight=0 204.441 44.207 21.7136 161.103 149.703 131.006 50.55 80.4555 43.2529 35.6569 18.6974 18.5233 43.3372 22.4934 69.4813 17.1337 58.6003 20.2124 11.6749 38.3879 18.7535 15.0115
internal_count=1368 911 457 191 793 724 614 301 313 281 251 110 107 118 266 250 144 207 83 123 124 243 211
is_linear=0
shrinkage=0.03


Tree=25
num_leaves=25
num_cat=0
split_feature=19 16 37 15 41 5 35 36 21 2 14 15 35 37 21 9 36 22 2 2 35 16 37 18
split_gain=7.59062 9.05519 9.36524 8.42651 9.36886 5.95573 8.94053 6.24246 5.5068 5.47922 4.93087 8.89127 5.15746 5.07209 4.5666 9.84081 3.45616 3.89153 3.15374 5.83586 2.47552 1.80421 1.0266 0.282785
threshold=7.5000000000000009 103.50000000000001 0.28136574074074078 0.63333333333333341 -6.4999999999999991 3.5000000000000004 359.50000000000006 0.2770352823837427 5.5000000000000009 35.500000000000007 0.36931818181818188 1.0000000180025095e-35 260.50000000000006 0.21579768270944746 2.5000000000000004 2.5000000000000004 0.23971775167947421 2.5000000000000004 26.500000000000004 14.500000000000002 480.50000000000006 91.500000000000014 0.31051221961834624 0.23986301369863014
decision_type=2 2 2 2 2 2 2 2 2 2 2 2 2 2 2 2 2 2 2 2 2 2 2 2
left_child=1 2 -1 4 20 6 -6 -8 9 18 11 13 -12 -7 -15 -16 -14 -18 19 -2 -3 -10 -23 -13
right_child=8 3 -4 -5 5 10 7 -9 21 -11 12 23 16 14 15 -17 17 -19 -20 -21 -22 22 -24 -25
leaf_value=0.0012843344418752378 0.012775686366091023 -0.0062238102162590642 -0.034681961663837253 0.023604265739129642 0.026309265376108535 -0.019802295533395034 -0.014881453453247248 0.013979087636206403 -0.0035901497240310278 -0.025351535099972806 -0.01252252003914923 -0.014169965240588667 0.021311923707376057 0.021737212141683587 0.015291147328150047 -0.025998144548753429 0.012978200178090402 -0.0082218614423228854 0.016109765783199718 -0.02267318321204222 -0.031083624897619982 -0.034516023259886383 -0.0070768548956777625 -0.036737428266483137
leaf_weight=13.977647218853237 6.5270129218697601 8.4130251780152303 9.9857383146882039 15.379823572933672 20.70588119328022 6.5528369992971411 11.256877094507219 11.73234975337982 3.4270333014428607 5.7362976502627125 9.2875223085284215 4.9354001618921739 14.437959697097538 8.9664793387055415 10.074714129790665 7.1433172933757296 15.328147560358049 12.341197967529295 8.585985165089367 6.3577667884528637 6.593675920739769 9.5038298275321704 2.7388001158833495 4.9874415807425976
leaf_count=72 40 47 66 35 56 52 65 46 35 71 37 41 46 29 46 56 49 72 51 70 53 149 29 43
internal_value=0 0.00129891 -0.0152202 0.00380451 0.00153174 0.0040714 0.0129567 -0.000212727 -0.0123947 -0.00363433 -0.000240279 -0.0075914 0.0059173 0.000458925 0.0065748 -0.00276163 0.0103679 0.00360563 0.00383366 -0.00541215 -0.0195177 -0.0254723 -0.0302333 -0.0297727
internal_weight=0 192.1 23.9634 168.137 152.757 137.75 43.6951 22.9892 42.8767 27.2071 94.055 42.6602 51.3948 32.7373 26.1845 17.218 42.1073 27.6693 21.4708 12.8848 15.0067 15.6697 12.2426 9.92284
internal_count=1356 911 138 773 738 638 167 111 445 232 471 267 204 183 131 102 167 121 161 110 100 213 178 84
is_linear=0
shrinkage=0.03


Tree=26
num_leaves=24
num_cat=0
split_feature=14 35 19 18 41 41 24 25 29 18 25 25 16 17 16 21 16 20 21 19 17 2 26
split_gain=8.10339 8.36568 6.78127 5.5642 4.27274 4.7518 5.37912 4.72749 8.94362 6.37239 8.52635 5.19766 7.4499 5.07023 4.77882 4.31105 4.92456 2.8967 2.86814 2.84911 1.98386 1.77787 0.656443
threshold=0.91608391608391615 125.50000000000001 9.5000000000000018 0.25281040798282184 -9.4999999999999982 -3.4999999999999996 22.365000000000006 23.595000000000002 2.8333333333333335 0.2990172463628481 24.165000000000003 23.275000000000002 399.50000000000006 0.21317747876418855 286.50000000000006 4.5000000000000009 582.50000000000011 1.3849999999999982 9.5000000000000018 6.2704540654699059 0.26754088157075767 22.500000000000004 0.44949494949494956
decision_type=2 2 2 2 2 2 2 2 2 2 2 2 2 2 2 2 2 2 2 2 2 2 2
left_child=2 -2 4 22 21 6 -6 8 -7 10 14 13 19 -10 -9 -15 18 -16 -17 -13 -3 -1 -4
right_child=1 20 3 -5 5 7 -8 9 11 -11 -12 12 -14 15 17 16 -18 -19 -20 -21 -22 -23 -24
leaf_value=-0.025394313245889914 -0.0084697121115482141 0.010235050651815349 -0.032258960531934069 0.00094569317527152098 0.021397047982874878 -0.025427993152406202 -0.0034198282580416499 0.019131058592067152 -0.014252451153671018 0.020861235694099346 -0.02592890760267395 -0.014341070400233233 -0.032889402818938172 0.017854534762008809 -0.016895476240980253 -0.019500910910788493 0.017728849666617089 0.0078054598855928255 0.0051003176183721643 0.006877505028729046 0.028540839265238434 -0.0025371629188268509 -0.0080706447231383878
leaf_weight=6.0456695258617383 10.962420783936976 13.081040196120741 9.8232990130782145 9.2121439278125745 17.542759155854586 14.225206606090067 12.338027246296404 12.380850303918125 8.5644547119736654 15.500372536480425 7.47580294124782 6.8556650355458322 7.49286289140582 21.409036837518215 6.725224092602728 8.7905810400843638 6.6404202207922927 6.6770076230168343 5.9281039386987677 13.97715883515775 14.177392631769179 5.739999420940876 2.9078477136790744
leaf_count=47 40 47 160 73 72 74 79 48 64 47 73 47 68 73 49 69 24 33 33 77 34 34 28
internal_value=0 0.0125876 -0.00212123 -0.0171411 -0.000168199 0.00110366 0.0115783 -0.00122031 -0.00512417 0.00620211 -0.0014256 -0.00096437 -0.0108598 0.00469849 0.00703421 0.00896065 -0.000719445 -0.00517385 -0.0101677 -0.000749654 0.0210562 -0.0162453 -0.02858
internal_weight=0 38.2209 206.252 21.9433 184.309 172.524 29.8808 142.643 93.8835 48.7593 33.2589 79.6583 28.3257 51.3326 25.7831 42.7681 21.3591 13.4022 14.7187 20.8328 27.2584 11.7857 12.7311
internal_count=1393 121 1272 261 1011 930 151 779 529 250 203 455 192 263 130 199 126 82 102 124 81 81 188
is_linear=0
shrinkage=0.03


Tree=27
num_leaves=26
num_cat=0
split_feature=18 25 16 21 13 41 19 21 15 3 16 25 6 6 25 6 37 11 27 31 37 40 25 36 19
split_gain=6.85677 7.06292 7.59658 6.61487 7.42774 6.51207 6.0304 8.03184 5.07141 4.49841 4.27863 6.21566 5.06045 6.79639 6.28243 7.87132 5.91632 4.57682 4.25261 4.77636 3.42534 1.93445 1.92348 1.74347 0.212648
threshold=0.40685367264314637 24.575000000000003 525.50000000000011 6.8330657088527369 0.77350427350427364 1.0000000180025095e-35 8.5000000000000018 8.5000000000000018 0.19375000000000003 100.00000000000001 443.50000000000006 23.125000000000004 0.21820693119035664 0.23949546863352819 23.435000000000006 0.2852783180513106 0.29140295358649798 0.48333333333333339 0.86333333333333273 23.355000000000004 0.23827838827838829 121.50000000000001 23.455000000000002 0.23156736151192606 8.5000000000000018
decision_type=2 2 2 2 2 2 2 2 2 2 2 2 2 2 2 2 2 2 2 2 2 2 2 2 2
left_child=1 2 3 4 9 18 7 -5 22 10 11 17 16 -14 -15 -16 -13 -1 -4 -20 -9 -17 -2 -12 -3
right_child=8 24 5 6 -6 -7 -8 20 -10 -11 23 12 13 14 15 21 -18 -19 19 -21 -22 -23 -24 -25 -26
leaf_value=-0.025628719974455746 -0.0086190173284384584 -0.031872205155976288 0.006978433227891003 -0.024185303457742106 -0.017842889802348137 -0.032453581544979571 -0.032091148111587441 0.019231848817869077 0.022010543461444695 -0.012576436733021038 0.029084641730231973 -0.026381236855659847 0.031004153500117187 0.022459878985534285 -0.026831069019333683 0.016895695688118852 0.01109404285952457 0.005108132471953155 0.0011268478783151483 -0.030084842897130003 -0.0050020748514428672 -0.0011173021009287284 0.0083082267434525028 0.010002428110584743 -0.011612502546718773
leaf_weight=7.0982106011360866 9.5385689958930033 4.9588974118232709 12.885995259508492 8.255376052111389 9.9097245857119542 9.5130206830799562 6.5107839629054061 9.5414653886109608 16.55985102802515 7.7838481254875651 9.6508931927382964 5.2790020145475847 12.619198415428398 12.089381318539379 6.3654017727822092 8.2980990819633025 6.2207572609186172 7.3101814724504948 8.3284294623881561 7.0641095116734496 8.4113159812986833 10.720727629959582 10.684105731546877 12.092861659824846 4.2988695222884417
leaf_count=59 44 44 67 66 52 77 114 43 42 57 27 52 39 44 61 34 32 31 45 64 50 63 36 60 49
internal_value=0 -0.00311429 -0.00169843 0.00140915 0.00479281 -0.0133398 -0.0101174 -0.00277026 0.0106864 0.00721076 0.00900708 0.0053664 0.00950114 0.0135341 0.00637828 -0.00236165 -0.00746885 -0.0113124 -0.0051909 -0.0150095 0.00851438 0.00760179 0.000266903 0.0202085 -0.0261989
internal_weight=0 195.207 185.949 148.157 115.438 37.7916 32.7189 26.2082 36.7825 105.529 97.7447 76.001 61.5926 50.0928 37.4736 25.3842 11.4998 14.4084 28.2785 15.3925 17.9528 19.0188 20.2227 21.7438 9.25777
internal_count=1352 1230 1137 884 611 253 273 159 122 559 502 415 325 241 202 158 84 90 176 109 93 97 80 87 93
is_linear=0
shrinkage=0.03


Tree=28
num_leaves=24
num_cat=0
split_feature=19 6 6 24 30 21 6 18 31 20 6 20 24 10 27 35 6 27 9 24 26 27 40
split_gain=6.79502 9.15832 7.41176 6.75125 7.99525 5.30267 4.84573 4.72397 4.54437 4.4092 3.7651 11.7724 3.72538 3.56432 5.37114 3.42171 3.35639 2.90423 2.59919 2.27884 2.19649 2.05009 0.883177
threshold=5.5000000000000009 0.22855049747853348 0.23361429315282481 22.655000000000005 22.088333333333335 10.500000000000002 0.15167380612406792 0.31085858585858589 24.048333333333336 1.0150000000000008 0.237059551953169 0.77000000000000146 21.945000000000004 1.5000000000000002 0.67500000000000027 480.50000000000006 0.33253205128205132 0.995 9.5000000000000018 22.425000000000004 0.34523809523809529 1.3733333333333337 129.50000000000003
decision_type=2 2 2 2 2 2 2 2 2 2 2 2 2 2 2 2 2 2 2 2 2 2 2
left_child=6 5 -3 4 20 22 -1 -5 10 16 11 -8 -13 14 -12 -16 -6 18 -15 -11 -4 -19 -2
right_child=1 2 3 7 9 -7 8 -9 -10 19 13 12 -14 17 15 -17 -18 21 -20 -21 -22 -23 -24
leaf_value=0.024374952388882324 -0.033368340895356292 0.024519636085595282 -0.002262692709819423 -0.030781502232497576 -0.014359461729176664 0.0048075745264442773 -0.027034953990324209 0.0034545606429308923 -0.013652645442246359 0.006924911877977313 0.012546059225626268 -0.0053981803090991836 0.017557638211676593 0.011364730849022424 0.0010353278263599292 -0.024192382757829756 0.011528861339613736 0.027626694382801839 -0.0055348048967759026 0.028624581597350613 -0.023648581110896478 0.0092192826644515828 -0.010487545752949912
leaf_weight=8.1056690178811532 12.702743506059056 7.2577642984688273 8.1181811802089232 9.9164911340922099 7.8722955584526044 4.6154137626290312 10.813418973237274 4.6800135113298884 11.794369146227835 10.370032466948034 13.577608570456507 9.5354112088680285 13.474854361265896 20.612906869500879 9.7295055463910121 7.3273448050022116 6.3640786744654179 12.060861963778736 11.323283921927212 8.5172463841736299 8.5412029698491079 13.901578061282633 4.4105211757123461
leaf_count=26 151 25 60 133 72 36 72 26 65 70 50 53 54 76 46 46 24 33 56 28 74 57 41
internal_value=0 -0.00601435 -0.000645491 -0.00413575 0.00133638 -0.0221686 0.00430657 -0.020711 0.00275375 0.00971939 0.00452936 -0.00382369 0.00837383 0.00773457 -0.000553685 -0.0112037 -0.00279204 0.011992 0.00539978 0.0185143 -0.0145867 0.0191348 -0.0291858
internal_weight=0 93.366 71.6373 64.3795 49.783 21.7287 142.257 14.5965 134.151 33.1237 122.357 33.8237 23.0103 88.5331 30.6345 17.0569 14.2364 57.8986 31.9362 18.8873 16.6594 25.9624 17.1133
internal_count=1374 740 512 487 328 228 634 159 608 194 543 179 107 364 142 92 96 222 132 98 134 90 192
is_linear=0
shrinkage=0.03


Tree=29
num_leaves=26
num_cat=0
split_feature=19 35 18 37 24 14 37 20 20 36 41 13 7 20 25 16 13 40 40 35 27 37 36 31 30
split_gain=7.02407 5.82164 4.22798 4.85204 4.41868 8.70184 5.11686 4.76173 12.5297 5.74512 5.0656 4.14453 4.11292 4.0541 3.68397 3.33207 3.20814 3.1383 3.76433 3.0046 2.20476 2.58809 2.35523 0.735619 0.71924
threshold=11.500000000000002 618.50000000000011 0.13144603934077623 0.21649971649971653 22.805000000000003 0.37980769230769235 0.28989813242784385 1.0549999999999999 1.4700000000000009 0.30251854874116918 -3.4999999999999996 0.70714285714285718 11.500000000000002 2.0450000000000021 23.015000000000004 483.50000000000006 0.63068181818181823 129.50000000000003 121.50000000000001 430.50000000000006 0.9666666666666669 0.28781779661016954 0.24857282131831235 23.721666666666668 23.041666666666671
decision_type=2 2 2 2 2 2 2 2 2 2 2 2 2 2 2 2 2 2 2 2 2 2 2 2 2
left_child=1 2 3 -1 7 6 -6 11 9 10 -9 12 15 19 -3 -4 24 18 -15 23 21 22 -14 -10 -7
right_child=-2 14 4 -5 5 16 -8 8 13 -11 -12 -13 20 17 -16 -17 -18 -19 -20 -21 -22 -23 -24 -25 -26
leaf_value=0.0046912334927642785 -0.025794024973440025 -0.00070720069001426248 -0.015310882454571005 -0.027979520453715535 -0.033566469537345593 0.0044344127266499464 0.0010402191382845104 -0.0017428751674292869 0.011801688675870869 0.0056783656106873309 -0.034064074182956532 0.023702978854377072 -0.0011612250199003957 0.005163120965938712 -0.032114501369628283 0.009240210080767277 -0.0081954099140010006 0.011345676535271503 -0.024412666944447093 0.0013977446974984022 0.019247545849640061 -0.0067809357247181267 0.020001471972989807 0.026230601757975414 0.017637545834331893
leaf_weight=6.862189441919325 7.1133927106857291 6.2804775405675155 9.8378332816064376 6.6073622368276119 9.3405801430344564 8.3149397261440807 5.6406264752149573 6.6301590651273772 12.06677880883217 7.3075682967901221 12.177016815170646 16.095947615802288 7.5195322223007741 6.3328452035784739 5.4671876039355993 6.8389091081917277 8.8317575901746732 7.7707752846181384 6.0835555456578732 11.194792475551365 17.786577519029379 8.9351094607263786 9.8821984678506833 11.372025836259125 8.9488200880587083
leaf_count=45 99 39 66 78 105 41 36 36 50 32 101 41 51 35 55 28 38 33 52 67 69 52 42 32 39
internal_value=0 0.00106903 0.00227354 -0.0128805 0.00341773 -0.00516834 -0.0219487 0.00568903 0.000562279 -0.0158321 -0.0239325 0.010934 0.00690644 0.00865439 -0.0178693 -0.00533146 0.00534179 -0.00195886 -0.0107043 0.0146098 0.0115625 0.00538016 0.0116797 0.0203142 0.012399
internal_weight=0 224.126 212.378 13.4696 198.908 41.0767 14.9812 157.832 80.9355 26.1147 18.8072 76.8961 60.8002 54.8208 11.7477 16.6767 26.0955 20.1872 12.4164 34.6336 44.1234 26.3368 17.4017 23.4388 17.2638
internal_count=1362 1263 1169 123 1046 259 141 787 438 169 137 349 308 269 94 94 118 120 87 149 214 145 93 82 80
is_linear=0
shrinkage=0.03


Tree=30
num_leaves=25
num_cat=0
split_feature=19 30 6 37 2 31 24 15 11 37 15 30 20 35 8 37 14 19 30 6 6 13 29 24
split_gain=7.04683 4.66653 4.61343 5.47749 4.71796 5.93574 4.47757 4.24152 4.26841 4.15609 3.05579 2.98207 4.37147 6.37303 4.40544 4.24932 3.40836 2.37854 2.78988 2.62857 1.57284 1.32977 0.42176 0.15608
threshold=4.5000000000000009 23.010000000000005 0.33080003161139065 0.21649971649971653 31.500000000000004 23.361666666666668 23.795000000000005 0.63333333333333341 0.11437908496732027 0.22994252873563223 0.29285714285714287 22.491666666666671 1.3449999999999991 556.50000000000011 0.34523809523809529 0.26695402298850579 0.75961538461538469 5.5000000000000009 22.088333333333335 0.27792632204396917 0.2683454756625489 0.26969696969696971 6.8333333333333348 22.345000000000002
decision_type=2 2 2 2 2 2 2 2 2 2 2 2 2 2 2 2 2 2 2 2 2 2 2 2
left_child=1 7 3 4 5 -2 10 8 -1 -4 17 12 13 16 -14 -13 23 -5 19 -19 -6 -7 -11 -10
right_child=2 -3 9 6 20 21 -8 -9 11 22 -12 15 14 -15 -16 -17 -18 18 -20 -21 -22 -23 -24 -25
leaf_value=0.022741259605942081 -0.012654333432195478 -0.0082278812345789997 -0.0078964245551971495 -0.0033386368478641494 -0.020979663889086741 0.0074662158288084039 0.01150311322940289 0.022748344516259698 -0.029748089300885655 0.0071555863349279806 0.0045975644004438414 -0.0038630200892086322 0.016825588638842159 0.012952968451563459 -0.0075675464016982125 0.019396091337091258 0.0002551594121159074 -0.018488489063294141 -0.027712891845610668 0.0069511554695173023 0.0011716660384477981 0.026641954261204946 0.019872891591032168 -0.012752850009964151
leaf_weight=9.8864900134503824 6.0644978713244226 15.503571234643458 9.5907997190952319 8.4875046052038652 5.9509510118514282 8.0907271038740856 4.545547677204012 14.518035285174845 7.5328277125954681 7.4617847837507716 5.0280936397612086 10.311965286731722 15.615096151828768 7.2277297750115386 9.2286651469767076 17.101888380944729 6.979206182062625 6.3585197869688255 22.715331552550197 5.0431508086621761 4.2112497352063656 7.878670021891593 8.5356027707457525 5.8376834020018578
leaf_count=33 56 73 58 54 65 58 27 38 55 40 29 49 58 29 47 57 28 75 255 29 37 24 40 37
internal_value=0 0.00636329 -0.00406764 -0.0074209 0.00225011 0.00983926 -0.0132511 0.00864748 0.00591951 0.00672576 -0.0159817 0.00333149 -0.000924413 -0.00884859 0.00787561 0.0109792 -0.0170582 -0.0185077 -0.0218875 -0.007878 -0.0131169 0.0188391 0.0153954 -0.0249527
internal_weight=0 119.743 109.962 84.3742 32.1961 22.0339 52.1781 104.24 89.7216 25.5882 47.6326 79.8351 52.4212 27.5774 24.8438 27.4139 20.3497 42.6045 34.117 11.4017 10.1622 15.9694 15.9974 13.3705
internal_count=1351 504 847 709 240 138 469 431 393 138 442 360 254 149 105 106 120 413 359 104 102 82 80 92
is_linear=0
shrinkage=0.03


Tree=31
num_leaves=24
num_cat=0
split_feature=19 20 18 18 17 17 2 11 11 35 11 41 24 9 30 15 29 36 22 10 37 25 28
split_gain=8.92973 6.35919 5.90105 5.75916 5.69456 5.2868 4.71983 4.46852 6.31151 4.98448 5.50415 7.53376 6.14696 3.32767 3.95974 3.10935 2.65945 2.51291 2.32673 2.26754 2.37661 2.1604 2.98978
threshold=6.7704540654699059 1.6199999999999994 0.16312611806797858 0.15674462556106783 0.25359879867439938 0.14769007400635878 16.500000000000004 0.38675213675213682 0.095454545454545472 125.50000000000001 0.88194444444444453 -1.0000000180025095e-35 22.485000000000003 9.5000000000000018 22.228333333333339 0.17156862745098042 5.166666666666667 0.26152246478998953 7.5000000000000009 1.5000000000000002 0.25362623502207277 23.145000000000003 5.8333333333333348
decision_type=2 2 2 2 2 2 2 2 2 2 2 2 2 2 2 2 2 2 2 2 2 2 2
left_child=2 3 5 -2 6 -1 -3 8 19 -9 11 15 17 14 -10 -11 -15 -13 -8 20 -4 22 -5
right_child=1 4 7 21 -6 -7 18 9 13 10 -12 12 -14 16 -16 -17 -18 -19 -20 -21 -22 -23 -24
leaf_value=0.0032152179495945244 0.0043107882589463482 0.0094833375702260744 -0.0089487258320733037 0.0058421362474195705 0.016242125957672871 -0.028689411993585712 -0.0014954749788845486 -0.009082733672774854 0.010249131159099509 -0.018628535161862778 0.026537057929845689 0.012590780171276095 0.025949679512043647 -0.029497974594317241 -0.01257955012610144 0.0025296285232623019 -0.0037692583256881459 -0.007591032927227616 -0.032110527618473224 0.018571599144858876 0.0099549537953216721 -0.033445337683836264 -0.023098958294370836
leaf_weight=8.3404016979038733 6.5772388763725784 5.2130345068872002 8.3507286421954685 4.3056050296872872 10.032951202243565 7.6811127401888362 3.4895782209932786 10.49838514626026 11.239947296679022 8.4516107104718703 15.727912522852419 8.5020848512649554 19.48442979156971 7.7830080948770028 12.186094872653483 14.547682255506514 6.794450081884861 9.8684518635272962 5.4130608625710011 10.689175765961407 12.334936039522288 13.86579445376992 5.8867626059800386
leaf_count=51 63 32 55 30 47 67 27 45 53 55 42 31 56 61 70 63 39 49 90 42 63 190 67
internal_value=0 -0.0109433 0.00275384 -0.01958 0.000672981 -0.013567 -0.0110354 0.00457526 -0.00110325 0.0090226 0.0116726 0.00710868 0.0150458 -0.00911131 -0.00168161 -0.00611372 -0.0194075 0.00206846 -0.022586 0.00856142 0.00220746 -0.025941 -0.0119204
internal_weight=0 54.784 172.48 30.6354 24.1486 16.0215 14.1157 156.459 69.3783 87.0806 76.5822 60.8543 37.855 38.0035 23.426 22.9993 14.5775 18.3705 8.90264 31.3748 20.6857 24.0582 10.1924
internal_count=1388 546 842 350 196 118 149 724 383 341 296 254 136 223 123 118 100 80 117 160 118 287 97
is_linear=0
shrinkage=0.03


Tree=32
num_leaves=25
num_cat=0
split_feature=19 14 31 13 0 28 16 28 15 15 5 21 30 21 17 6 28 9 27 25 17 17 18 16
split_gain=11.5923 5.10229 5.31909 4.95699 4.41786 3.47852 3.9111 5.45954 8.49068 3.35482 3.27397 3.17168 5.95073 5.3017 5.07921 4.56877 5.91532 2.92276 2.88184 2.37998 2.32507 1.64272 1.57213 0.281684
threshold=8.5000000000000018 0.91608391608391615 23.198333333333338 0.26969696969696971 1.5000000000000002 8.8333333333333339 525.50000000000011 2.4166666666666674 0.17156862745098042 0.11437908496732027 9.5000000000000018 8.5000000000000018 22.501666666666669 3.5000000000000004 0.20561053942452648 0.29423624288425054 2.8333333333333335 6.5000000000000009 0.77333333333333287 23.225000000000005 0.17045099542756528 0.26039266513056841 0.29217479674796754 365.50000000000006
decision_type=2 2 2 2 2 2 2 2 2 2 2 2 2 2 2 2 2 2 2 2 2 2 2 2
left_child=1 4 -3 19 -1 6 11 -8 10 -5 -9 12 13 15 20 16 -6 21 -19 -2 -14 -16 23 -15
right_child=3 2 -4 9 5 -7 7 8 -10 -11 -12 -13 14 22 17 -17 -18 18 -20 -21 -22 -23 -24 -25
leaf_value=-0.015731018221545701 -0.0047613432020297657 0.022611318271308786 -0.0010455408034845694 0.009847957936574071 -0.018448863858722603 -0.01264305741243728 -0.022797069839389981 -0.019589622337444604 0.023680304489975393 -0.016047971182587165 0.0057180380029542696 0.02034133860221822 0.0069983813622214392 -0.026984181705410139 0.028647377583101326 0.01724853433755856 0.013381625560515193 -0.0072844025955108522 0.015607563261180313 -0.034227210983998023 -0.016819934190743936 0.011711344057361548 -0.0025477186722230312 -0.0093304200054948674
leaf_weight=10.845552980899809 3.9825892969965961 20.505377251654863 13.523994043469427 7.407316751778124 10.411675289273267 10.580069884657858 8.7872899621725065 9.7720848843455368 8.6613155603408796 6.7198327351361513 6.3549291566014281 11.320158729329703 5.3354860432445985 5.9737816862761992 13.163561634719374 11.850726023316382 7.2666954789310685 8.1668661870062369 7.9068819731473914 10.408962123095987 5.9057520180940628 15.080164209008215 5.9943921342492095 4.3800575770437717
leaf_count=72 50 58 58 51 77 78 50 73 26 70 32 43 31 53 41 41 33 52 30 179 55 63 33 33
internal_value=0 0.00342709 0.0136734 -0.0163998 0.00121203 0.00256636 0.00382167 -0.00495542 0.00259913 -0.00293249 -0.0100864 0.00647606 0.00456531 -0.00336558 0.0110036 0.00424772 -0.00533468 0.0154367 0.00445745 -0.027649 -0.00616541 0.0209772 -0.0160812 -0.0222356
internal_weight=0 201.787 34.0294 28.5187 167.757 156.912 146.332 33.5756 24.7883 14.1271 16.127 112.756 101.436 45.8773 55.5587 29.5291 17.6784 44.3175 16.0737 14.3916 11.2412 28.2437 16.3482 10.3538
internal_count=1382 1032 116 350 916 844 766 181 131 121 105 585 542 270 272 151 110 186 82 229 86 104 119 86
is_linear=0
shrinkage=0.03


Tree=33
num_leaves=25
num_cat=0
split_feature=19 24 27 37 22 36 35 18 36 36 16 19 5 27 40 5 37 20 38 16 24 13 16 11
split_gain=9.72527 7.87106 6.75368 4.84931 4.58489 4.41294 4.7947 6.02705 4.27221 3.79953 3.53892 3.73481 3.37194 4.40162 3.32482 4.92391 3.42442 3.03883 2.83837 2.60085 1.76155 1.61268 1.16421 0.798789
threshold=6.7704540654699059 21.075000000000003 1.3733333333333337 0.34161778326644032 2.5000000000000004 0.21418892760356176 132.50000000000003 0.25896068859198362 0.28137045729322246 0.27487883432003307 386.50000000000006 1.5000000000000002 4.5000000000000009 0.86333333333333273 131.50000000000003 4.5000000000000009 0.20415349238286867 1.5049999999999992 1.0000000180025095e-35 487.50000000000006 21.775000000000002 0.40588235294117653 424.50000000000006 0.44097222222222227
decision_type=2 2 2 2 2 2 2 2 2 2 2 2 2 2 2 2 2 2 2 2 2 2 2 2
left_child=2 -2 3 4 10 -4 -7 22 9 12 -1 -12 18 -14 15 17 -16 19 -6 -3 -17 -10 -8 -22
right_child=1 14 5 -5 8 6 7 -9 21 -11 11 -13 13 -15 16 20 -18 -19 -20 -21 23 -23 -24 -25
leaf_value=-0.00012990704804106138 0.018150334355142881 -0.027316476485134071 0.008335137315492026 0.018961655047534789 0.0016424005495972237 0.0063721204980478445 -0.012016328599355086 -0.035238884551582028 -0.0044609886209717141 0.019941489178080214 0.02515525270529257 0.0044795382156202004 0.016874941797370081 -0.0075117371132636885 0.015246807410300177 -0.005036941528831447 -0.013583682184776269 0.0065681910884913351 -0.023363631279330187 0.0032400389962147992 -0.035175317382569404 -0.024051828135098957 0.0040869485975659247 -0.011258112653127013
leaf_weight=18.560012564063072 5.7149082366377106 4.9107084423303622 10.775146245956419 21.891950882971287 7.1761602684855443 7.7382065877318409 6.2775147892534751 9.4899462796747667 9.0622097663581354 7.5888058245182028 16.796373683959246 15.3179331459105 12.249911647289993 10.87273272871971 4.9419513940811139 3.5476385559886721 5.959294255822897 8.3023834526538831 6.788049004971981 3.3310868851840496 13.770300252363088 6.3022936657071105 6.4182869046926498 4.0785878151655188
leaf_count=79 28 75 44 78 36 32 45 68 56 29 51 66 53 78 20 37 62 60 49 22 222 42 35 38
internal_value=0 -0.0109126 0.00339435 0.0066599 0.00393414 -0.00705911 -0.0127772 -0.019431 -0.00168115 0.00310087 0.0103985 0.0161341 -0.00118915 0.00572272 -0.0148934 -0.0189014 -0.000176256 -0.00559934 -0.0119173 -0.0167454 -0.027829 -0.0143415 -0.00442713 -0.0313951
internal_weight=0 54.5569 173.306 132.606 110.714 40.6991 29.924 22.1857 60.0402 44.6757 50.6743 32.1143 37.0869 23.1226 48.842 37.9407 10.9012 16.5442 13.9642 8.2418 21.3965 15.3645 12.6958 17.8489
internal_count=1405 564 841 617 539 224 180 148 343 245 196 117 216 131 536 454 82 157 85 97 297 98 80 260
is_linear=0
shrinkage=0.03


Tree=34
num_leaves=24
num_cat=0
split_feature=19 6 6 6 23 30 27 5 40 25 36 16 2 19 35 36 20 25 2 17 24 27 28
split_gain=9.82534 9.16275 6.55435 10.5659 4.88615 5.50158 4.19641 4.12463 4.70164 3.85248 3.41564 3.31437 2.81496 5.43099 2.77073 2.68202 2.53136 2.39577 1.78644 1.39779 0.786266 1.73625 0.283783
threshold=5.5000000000000009 0.22855049747853348 0.23361429315282481 0.27242613693657364 1.0000000180025095e-35 22.751666666666669 1.3866666666666669 3.5000000000000004 123.50000000000001 23.785000000000004 0.2414523670368206 450.00000000000006 29.500000000000004 1.5000000000000002 387.50000000000006 0.21819055377995031 0.22000000000000067 24.615000000000006 21.500000000000004 0.2325152321290655 21.945000000000004 0.94416666666666715 7.8333333333333348
decision_type=2 2 2 2 2 2 2 2 2 2 2 2 2 2 2 2 2 2 2 2 2 2 2
left_child=4 15 -3 17 11 6 12 14 -9 -7 -8 -1 16 -14 18 -2 -6 -4 -5 -12 -18 -22 -17
right_child=1 2 3 7 5 9 10 8 -10 -11 19 -13 13 -15 -16 22 20 -19 -20 -21 21 -23 -24
leaf_value=-0.019046970512921264 -0.004019091454273465 0.021457740652154139 -0.032563033447847063 -0.001800618620010633 0.0027069496942829776 -0.014453066151847899 -0.010730152540743713 -0.0070827310593371299 0.018422053259457834 0.0084745972581901606 0.016231497005172641 0.0031984810541173798 0.019885169896389679 -0.010907721921582859 0.0022792977758104814 -0.035171979460002813 0.011147631764006653 -0.0019764398014521156 -0.028407332470292136 0.00040414042026585634 0.013221614900184442 0.030961416741701754 -0.011885062375209494
leaf_weight=9.2092264518141764 4.8842674940824535 7.4113551080226889 10.525071037933229 3.8763559907674807 8.3039179742336255 13.465539094060661 10.948587305843832 8.7600674033164996 16.259938847273588 9.7612761706113798 9.0165323987603205 11.997325178235767 7.752748645842078 9.0651445388793928 10.760215658694504 9.6787366271018964 10.846862860023974 3.1556976065039626 4.6833438873291016 9.4214635342359525 13.594574000686409 16.697127982974052 3.4125096984207621
