tree
version=v4
num_class=1
num_tree_per_iteration=1
label_index=0
max_feature_idx=41
objective=lambdarank
feature_names=Column_0 Column_1 Column_2 Column_3 Column_4 Column_5 Column_6 Column_7 Column_8 Column_9 Column_10 Column_11 Column_12 Column_13 Column_14 Column_15 Column_16 Column_17 Column_18 Column_19 Column_20 Column_21 Column_22 Column_23 Column_24 Column_25 Column_26 Column_27 Column_28 Column_29 Column_30 Column_31 Column_32 Column_33 Column_34 Column_35 Column_36 Column_37 Column_38 Column_39 Column_40 Column_41
feature_infos=[0:5] [0:0.7142857142857143] [3:529] [-1000:800] [1000:2400] [1:14] [0:1] [5:14] [0:0.9285714285714286] [0:21] [0:6] [0:1] [0:1] [0:1] [0:1] [0:1] [0:734] [0:1] [0:1] [1:14] [-3.5800000000000018:16.330000000000002] [1:14] [1:14] [0:1] [20.129999999999999:28] [21.34:41.060000000000002] [0:0.7142857142857143] [-2.0600000000000023:8.2650000000000006] [1:14] [1:14] [20.260000000000002:25.190000000000001] [21.399999999999999:30.600000000000001] [0:3] [0:1] [0:1] [0:705] [0:1] [0:1] [0:1] [0:1] [105:135] [-30:30]
tree_sizes=13665 13664 13652 13677 13658 13701 13653 13672 13667 13664 13669 13693 13706 13668 13702 13692 13682 13685 13699 13701 13696 13718 13674 13711 13672 13714 13691 13693 13691 13736 13732 13684 13697 13698 13687 13695 13692 13722 13693 13696 13736 13699 13768 13705 13680 13722 13706 13679 13738 13691 13703 13712 13715 13695 13719 13734 13734 13738 13717 13714 13715 13740 13716 13718 13731 13707 13731 13719 13744 13741 13730 13713 13731 13728 13725 13731 13712 13742 13747 13721 13715 13755 13748 13726 13721 13746 13729 13705 13748 13768 13759 13751 13730 13768 13745 13731 13690 13746 13721 13735 13731 13748 13758 13738

Tree=0
num_leaves=127
num_cat=0
split_feature=14 18 14 29 15 37 40 30 30 40 6 29 18 8 35 8 17 0 30 10 37 31 13 16 13 25 40 18 35 27 31 18 4 37 25 41 25 6 40 30 6 2 26 28 36 37 15 6 31 13 1 18 26 30 18 13 18 0 7 30 15 37 17 28 17 13 37 17 18 35 5 2 21 25 36 26 2 26 16 5 36 11 25 31 41 25 37 17 28 40 2 37 6 25 30 30 6 25 29 6 30 6 11 6 36 36 30 2 35 17 18 29 17 37 2 36 26 5 28 4 2 16 30 6 16 41
split_gain=196.37 70.4047 64.4048 28.1838 21.8518 19.7213 15.0452 14.7908 14.3363 14.1537 14.2094 12.6667 11.7986 11.6358 9.00026 8.84775 12.6286 8.53912 8.51978 8.45138 8.3751 9.29296 8.39054 8.09054 8.04001 7.7248 7.62976 7.61489 7.15949 7.0598 6.92446 6.99977 6.90457 6.87782 6.81501 6.73065 6.61642 6.50745 6.77115 6.29331 9.0678 6.17731 5.98341 5.88184 6.75453 5.85173 5.74288 6.80293 6.30619 5.46033 5.62049 5.40677 6.95994 5.31447 7.35709 5.2545 5.20718 5.05259 5.05239 4.65449 5.43164 5.12735 7.19398 5.78662 4.64612 4.64138 4.6243 4.60362 4.55718 4.50019 4.93886 4.45819 4.37474 4.50062 4.24916 4.22217 4.20329 4.12659 4.1254 4.07956 4.07936 4.0485 4.29719 6.69723 4.01454 5.53046 3.98915 3.94819 3.84722 3.78262 3.70979 3.69064 4.80127 3.6248 3.47269 3.42125 3.59713 3.40374 3.39231 3.35603 3.25391 5.5135 3.64582 3.23762 5.04936 3.20119 5.08404 3.14849 3.10858 3.05993 4.31147 3.02873 3.02016 2.97691 2.91369 2.83032 2.82918 2.79492 2.78126 2.75706 2.72451 2.71811 2.62546 3.01684 2.76156 2.61646
threshold=0.63961038961038974 0.34646401985111669 0.095454545454545472 7.5833333333333348 0.087121212121212141 0.26458434613514831 122.50000000000001 21.911666666666669 23.523333333333337 133.50000000000003 0.23703062924516213 4.8333333333333348 0.22869249394673127 0.8257575757575758 244.50000000000003 0.70714285714285718 0.46549901227010942 4.5000000000000009 22.553333333333338 1.5000000000000002 0.22961896322552064 23.28166666666667 0.21825396825396828 208.50000000000003 0.16025641025641027 24.685000000000006 134.50000000000003 0.17295821462488131 518.50000000000011 0.12333333333333309 23.548333333333336 0.26021828711437806 1725.0000000000002 0.28215467328370564 22.825000000000003 15.500000000000002 22.735000000000003 0.22732289785269919 133.50000000000003 22.744166666666672 0.25336349924585227 28.500000000000004 0.20714285714285716 5.416666666666667 0.28757728327280241 0.31175813433877958 0.19375000000000003 0.27590012940549596 23.481666666666673 0.44949494949494956 0.080128205128205135 0.23413839371286183 0.10555555555555557 22.068333333333339 0.26336189310485519 0.14835164835164838 0.14933950934980275 1.0000000180025095e-35 13.500000000000002 22.771666666666668 0.12132352941176472 0.26600624634003517 0.24670681627577434 5.166666666666667 0.34150717703349287 0.56696428571428581 0.17974358974358975 0.16136265007956027 0.331989247311828 464.50000000000006 5.5000000000000009 27.500000000000004 2.5000000000000004 22.985000000000003 0.23695730790460423 0.07417582417582419 20.500000000000004 1.0000000180025095e-35 390.50000000000006 5.5000000000000009 0.28098875414944796 0.23669467787114848 23.755000000000006 24.23416666666667 1.5000000000000002 23.495000000000001 0.19929078014184401 0.23276664740255573 3.4166666666666674 125.50000000000001 18.500000000000004 0.2943802521008404 0.33376511226252165 22.975000000000005 22.048333333333336 22.261666666666674 0.29110952635645099 24.145000000000003 6.5553995072157702 0.20297977415864385 23.081666666666671 0.29481525730449609 0.2817460317460318 0.18113941639647987 0.32639830712258938 0.27952639689401221 23.488333333333337 127.50000000000001 210.50000000000003 0.34150717703349287 0.27568613652357499 4.8333333333333348 0.23677854055428429 0.081989247311827967 20.500000000000004 0.20277548550365851 0.10555555555555557 8.5000000000000018 8.4166666666666696 1300.0000000000002 38.500000000000007 434.50000000000006 23.231666666666673 0.2942219440967877 66.500000000000014 1.0000000180025095e-35
decision_type=2 2 2 2 2 2 2 2 2 2 2 2 2 2 2 2 2 2 2 2 2 2 2 2 2 2 2 2 2 2 2 2 2 2 2 2 2 2 2 2 2 2 2 2 2 2 2 2 2 2 2 2 2 2 2 2 2 2 2 2 2 2 2 2 2 2 2 2 2 2 2 2 2 2 2 2 2 2 2 2 2 2 2 2 2 2 2 2 2 2 2 2 2 2 2 2 2 2 2 2 2 2 2 2 2 2 2 2 2 2 2 2 2 2 2 2 2 2 2 2 2 2 2 2 2 2
left_child=1 2 3 9 11 6 86 -7 13 10 17 30 34 19 43 16 46 45 24 29 21 -13 25 56 53 28 74 -11 42 -6 41 76 36 72 -2 55 -9 38 109 -36 -41 69 80 88 108 68 47 -8 -49 50 71 67 -53 54 93 111 -24 -57 91 61 -61 62 66 116 107 -10 -59 -31 113 -4 -71 79 -20 -74 -18 -68 -32 115 -76 121 120 -25 -83 -84 85 -65 -3 -15 -5 -43 -34 -35 122 -12 -47 -55 -97 103 -96 -46 119 102 -102 104 -38 106 -79 -16 -45 110 -14 -21 -100 -1 -81 -75 -63 -19 -115 -62 -22 -23 123 124 -93 -26
right_child=12 5 4 14 8 7 15 32 65 27 18 20 37 87 64 -17 26 117 33 35 22 49 23 81 125 -27 -28 -29 -30 51 31 -33 90 58 39 -37 97 -39 -40 40 -42 89 -44 44 99 94 -48 48 -50 -51 -52 52 -54 95 -56 57 -58 59 -60 60 100 63 -64 84 -66 -67 75 -69 -70 70 -72 -73 73 77 78 -77 -78 105 -80 114 -82 82 83 -85 -86 -87 -88 -89 -90 -91 -92 92 -94 -95 98 96 -98 -99 112 -101 101 -103 -104 -105 -106 -107 -108 -109 -110 -111 -112 -113 -114 118 -116 -117 -118 -119 -120 -121 -122 -123 -124 -125 -126 -127
leaf_value=-0.010475976124598285 -0.015578404428274855 -0.0021802146180953789 0.033090621284071517 -0.018736927225585207 0.015263610833007582 -0.02503233431772036 -0.045051550329600142 -0.0044569224832485075 -0.039719885813266097 -0.0073436749256250147 0.0050083111371395607 -0.033189564202847043 0.021835559355614112 0.021806841726601023 -0.03922083949504316 0.016614887638339466 0.020097370227833016 0.013348125056825581 0.0065413664515523648 -0.00031017980210987846 -0.039250291072981995 -0.0063083511037865829 0.011250526873391804 0.029174919744233523 -0.034309881540376008 0.024275509169871142 -0.020478520298010512 -0.04169049738550195 -0.03867674763504813 -0.0067913878758282305 0.004881061677952072 0.019462623621570061 0.011846354617453082 0.013094157363148881 0.024000879226659992 -0.037138448367875936 -0.013407833949586187 0.033118455560233025 -0.0036051437931111617 -0.024333071390413994 0.016870813361034513 0.013739754330363573 0.016385843896376484 -0.037375690258243624 0.013901792530240526 0.016175847393943052 0.0021588101111700096 0.010759965401542617 -0.031337129287891043 0.017286085726315757 0.019443166027632363 0.0084857276437887309 -0.02480461296877759 0.031541087938324934 0.020252590872340371 -0.027013984059593796 -0.026829409468814701 0.01378465025325055 0.016760331386183065 -0.014686296746696021 0.0047808314885868734 0.0055225068392214995 -0.035702741675856034 -0.020647653670814968 -0.0088572228925519695 0.001229132018374986 0.0081150570158824951 -0.040922520514675119 0.0059505587641701888 0.023059179696536685 -0.010110434946028162 -0.029937060041134333 0.0079273676060224035 0.014457378867614595 0.014492110408146202 -0.025696067490838581 -0.022612174798084271 -0.041707570852290869 -0.01999329356398882 -0.031573942624543758 0.0064210432825838222 0.016271104456089751 -0.027477335069082221 0.015705558514210148 0.026281311188599266 0.020528007702829826 0.031764867042441275 -0.0063855075898948286 0.014108657178112424 -0.020407543445046694 -0.019358675701238733 0.0052187396626308573 -0.037169561013284141 -0.032914426334665771 -0.034461564581431833 -0.0099973375131512526 0.019471780784364949 0.0043036351783142133 -0.017366594727967286 -0.016193724514553452 0.008604870568970132 0.022743176204484461 -0.02947141049248771 0.027756841783236313 0.024301084285006956 -0.0031268763929054215 0.0014663174710944991 -0.005257428645048196 -0.009392529574267788 0.031783641547708442 -0.00954737596640199 -0.037779231129721036 0.012036161694027782 -0.039799568881987706 -0.00035288429374937691 -0.016174044956739707 -0.025528603807576985 -0.011793257034552303 -0.0095308221176692975 0.03173060474277907 -0.00029544382604196437 0.021964665834524669 0.015297095058229527 0.011520864083420113 -0.034351256007750818 0.0011884487458930335
leaf_weight=6.8004246368072918 5.5365550450514993 3.8140468308702102 24.481125532649457 3.1681375349871796 3.2396685825660816 5.4831089731305829 13.378381670219829 7.3892055046744636 15.538544239010664 9.2465619090944546 2.8047960866242629 10.861402173992245 8.6513664401136356 13.543608036590742 84.742501036496833 9.1504458049312216 12.891208726214247 6.8768525229534117 4.9706426283810279 2.9880329193547359 4.0524108493700712 4.5786966767627835 4.0537850718246755 13.638268818845971 2.8369984466116867 3.3992060786113134 8.4972657356411236 19.981917689554393 6.2210049963323391 5.5252315595280406 8.5224136305041664 10.173280374612657 5.1251897900365275 4.0549880461767343 27.9673302823212 3.4823299972340456 4.3830198813229782 116.64165845955722 9.7646144004538638 5.9435483308043358 10.176733260275794 4.2340065212920299 6.21374014369212 18.736904543940913 4.5817081828135979 2.7321920052636406 4.8961588367819777 5.2631562482565624 4.0309130176901817 7.1439588249195358 3.5549160987138739 8.6040756900329161 11.017794787418095 11.481936300639065 5.2858787789009511 4.0405219874810419 5.7403662318829447 7.4712640598882052 10.340491029084662 4.923351593315604 5.9291844344697919 3.4381314981728819 6.7523268996737889 4.2228306331671801 6.654761738376691 2.7663219422101966 4.0819480575155449 16.516237825271674 2.3384811063297084 7.458681501913814 5.5057497897651047 8.2530328994616848 3.2999779363162807 2.7313664520625052 3.7594353170134109 6.9025558480061591 8.4004075757693482 15.466770649654796 5.0077654912602156 3.8308051407802832 3.6481787073425949 21.082484288723212 4.5431284807855246 4.5599134208168834 9.1139039217960072 3.5652385093271732 10.600762338843195 5.214897970086894 6.5124624285381287 3.5306488238275051 4.7062511811964214 1.6609900775365511 3.6053148237988344 4.3415226531215012 2.7768628369085482 4.8295096217188966 6.784684204030782 8.2104837412480247 4.027671442832796 4.7797492127865553 2.6576070727314782 4.2346028075553477 3.4259867598302662 74.816186745883897 4.6290283566340804 3.5897180277388534 2.7015001210384062 3.2176477250177404 6.3200458372011772 18.344254954252392 4.8028328611981115 3.7266973569057882 4.6193951251916587 28.646047686808743 5.0797181320376694 4.527533981250599 4.5198021698743105 5.2626184721011668 4.6471837314311406 9.9275213141227123 2.2460649181157351 4.3458399545634165 3.164338712580502 2.0739038847386837 2.8794885633978993 2.8342314008623362
leaf_count=89 98 75 187 75 40 88 252 70 334 58 45 232 90 135 2069 75 146 96 89 44 112 79 51 118 76 36 55 187 149 86 108 103 52 54 235 35 67 811 57 110 120 62 69 495 53 28 44 63 76 80 36 103 174 99 54 70 110 88 146 97 75 34 146 93 85 41 57 355 36 58 92 211 51 34 41 161 167 414 97 97 59 266 101 44 75 31 111 85 85 54 70 19 87 119 81 102 73 98 96 112 36 37 71 570 38 58 55 71 108 145 76 104 66 824 80 109 91 123 100 67 35 45 34 33 105 40
internal_value=0 -0.006839 -0.0111755 -0.0205426 -0.00258498 0.0090328 -0.00226031 0.0169351 -0.0101889 -0.0132452 -0.00978802 0.00421442 0.0253303 -0.00705807 -0.0309453 -0.00836077 -0.0127437 -0.0202137 -0.00279639 -0.0100466 -0.00151733 -0.011208 0.00443068 0.0110666 0.00765503 -0.00917368 0.000860306 -0.0319909 -0.0158284 -0.0205057 0.0140553 0.00182529 0.0194533 -0.00944503 0.0118932 -0.00480389 0.0217867 0.0293441 0.0177175 0.0158694 0.000669993 0.0209973 -0.00374205 -0.0184002 -0.02393 -0.0249625 -0.026676 -0.0325732 -0.00981402 -0.00334116 -0.00909069 -0.0238588 -0.0107723 0.0130809 -0.00257104 -0.00281418 -0.0118331 -0.000532234 0.00185336 0.00140399 0.0101715 -0.00422321 -0.0132802 0.00526566 -0.0362905 -0.03402 -0.00238795 -0.0336434 -0.0303706 0.0258204 0.00950407 -0.0140865 -0.0175283 -0.0213959 0.0102556 -0.0138169 -0.00971395 -0.0250268 -0.0052606 -0.0044727 -0.0169542 0.0164775 0.0092842 -0.00691348 0.0146992 -0.0014552 0.023612 0.0141092 0.00199171 -0.00278691 -0.00383864 -0.00780073 -0.0150106 -0.0201899 -0.00699914 0.0210396 0.00754922 0.0239436 -0.014126 -0.00160999 0.0155577 0.00178283 -0.0148243 0.0257221 0.00685704 -0.0311087 -0.0357791 -0.0381229 -0.0315336 0.0240912 0.0108468 -0.0250033 -0.00234882 -0.0326711 -0.0171027 -0.00401489 -0.0136986 0.00232253 -0.0363541 0.0233176 -0.028778 0.00895997 -0.00191672 -0.0117914 -0.0227064 -0.0208847
internal_weight=0 915.692 719.66 342.937 376.723 196.032 81.2895 114.742 177.37 204.223 174.994 199.353 207.829 159.065 138.714 66.8747 57.7243 68.7277 106.267 140.307 127.047 47.6484 79.3986 53.6179 41.1996 25.7806 30.1557 29.2285 22.3814 44.903 72.3063 27.0961 109.259 65.067 49.6242 95.4038 99.4279 158.205 41.5631 44.0876 16.1203 45.2102 16.1604 44.099 34.4184 56.5883 27.5686 22.6725 9.29407 36.787 29.643 41.6633 19.6219 35.5283 12.4322 91.9215 9.79415 85.2068 27.7795 81.1663 31.0983 50.068 25.2081 24.8599 94.6149 18.3049 18.4558 22.0415 42.4321 37.4456 12.9644 26.0881 37.2875 32.3169 21.6584 10.9845 16.9228 29.0169 8.7672 17.8351 9.94665 43.8238 30.1855 9.10304 16.902 7.78807 14.4148 18.7585 9.6806 7.76466 9.83144 17.439 13.384 7.14632 14.1561 23.0961 11.6142 92.0387 11.4239 9.36146 26.1749 10.3182 6.08359 83.8282 9.01205 21.758 18.1683 87.9601 25.057 31.7985 13.4542 6.71473 8.64707 40.0937 8.91052 7.2589 7.95793 12.1395 33.2932 15.8567 6.29848 8.92454 9.77872 6.61438 4.54048 5.67123
internal_count=16269 14527 12439 6833 5606 2088 1035 1053 2765 3680 3435 2841 1742 2390 3153 849 774 1539 1896 2170 2010 860 1150 690 608 460 339 245 424 758 831 378 965 1288 563 1412 843 1179 368 465 230 453 275 928 768 1320 435 391 139 628 548 718 277 492 218 1377 161 1229 478 1159 383 776 452 324 2225 375 306 441 1049 337 150 512 810 721 284 218 275 670 138 301 206 529 411 145 199 124 186 220 160 116 122 332 278 164 271 274 175 773 243 165 286 144 107 675 105 527 469 2140 603 311 166 148 162 1013 177 143 125 219 924 142 147 124 191 157 124 116
is_linear=0
shrinkage=0.03


Tree=1
num_leaves=127
num_cat=0
split_feature=19 19 17 17 17 8 24 22 6 27 15 36 24 26 35 25 27 31 5 9 35 40 27 29 36 35 20 31 17 35 14 35 35 40 25 25 22 17 16 18 13 36 16 36 18 18 27 41 25 20 21 17 2 6 26 41 29 40 2 27 6 16 17 3 18 6 2 9 9 26 25 27 6 11 5 2 16 2 35 37 37 37 26 36 40 41 36 26 16 20 25 6 25 35 18 10 31 24 25 29 16 19 9 26 28 25 5 20 2 17 18 17 36 35 17 27 18 36 17 21 35 28 6 6 13 22
split_gain=592.135 155.9 107.413 72.4661 55.0049 46.3053 45.9924 51.2785 37.8264 41.8263 35.15 29.1084 36.6374 29.0634 28.4233 28.0839 34.6285 27.3566 27.2809 27.0304 29.0077 26.6198 34.5489 33.4818 39.2646 30.3416 26.3907 27.6157 33.9454 26.3421 27.5737 25.9585 30.2475 25.8635 32.3887 25.3096 32.6707 25.1661 52.141 28.0765 24.8215 24.4726 24.4338 24.3335 22.895 22.838 23.9781 23.7305 35.8253 31.869 27.4623 22.649 22.5226 22.2546 33.4529 22.4677 22.4741 22.0006 21.7465 21.0259 20.8614 20.7662 20.5734 39.7191 27.4004 25.2089 21.6249 21.5693 20.5179 20.3835 24.2707 20.233 20.1745 57.7638 20.0397 19.9793 19.9004 19.6323 43.6804 19.4661 21.9575 19.4517 18.9347 18.8946 23.1776 18.7773 20.3607 18.6491 18.4808 18.3684 20.1737 18.1659 18.1131 36.9897 18.0631 23.1479 17.9513 19.4738 17.9383 17.9004 17.8027 17.3059 17.063 17.0516 16.9766 17.0359 16.8692 16.3339 21.1826 16.2843 16.172 26.6805 21.5008 19.4681 16.1006 16.009 16.0024 15.9827 15.9412 15.6859 15.6564 15.5437 21.1494 19.885 19.047 15.4276
threshold=7.5000000000000009 4.5000000000000009 0.35957200371199921 0.42810150375939854 0.40101351351351361 0.79285714285714304 22.655000000000005 6.7992182548066777 0.25026539278131638 1.7200000000000004 0.14835164835164838 0.28293209713954598 24.205000000000002 0.087121212121212141 623.50000000000011 22.985000000000003 1.6000000000000012 23.334166666666672 1.5000000000000002 6.5000000000000009 157.50000000000003 133.50000000000003 0.97333333333333216 9.8333333333333339 0.32728767942583736 575.50000000000011 0.080000000000000085 23.751666666666669 0.15617929864253396 500.50000000000006 0.42261904761904767 85.500000000000014 208.50000000000003 131.50000000000003 22.935000000000006 25.005000000000006 10.500000000000002 0.27297565822155995 466.50000000000006 0.32701294033069739 0.70714285714285718 0.27280887873347487 545.50000000000011 0.32132691713326683 0.4280261723009815 0.34054243628711717 0.51416666666666655 5.5000000000000009 23.165000000000003 0.84000000000000175 2.5000000000000004 0.22824397824397827 28.500000000000004 0.29766448564158493 0.20714285714285716 1.0000000180025095e-35 9.8333333333333339 123.50000000000001 28.500000000000004 0.37000000000000161 0.29678896933061555 444.50000000000006 0.22972224176752043 -424.99999999999994 0.24202037351443126 0.21378060969515247 19.500000000000004 6.5000000000000009 3.5000000000000004 0.07417582417582419 23.305000000000003 0.63666666666666749 0.23915284625728375 0.26969696969696971 3.5000000000000004 78.500000000000014 1.0000000180025095e-35 17.500000000000004 225.50000000000003 0.22961896322552064 0.29102416570771006 0.1623310810810811 0.22649572649572652 0.19698858913322756 128.50000000000003 -3.4999999999999996 0.30372431663077998 0.21825396825396828 301.50000000000006 -0.21499999999999983 23.005000000000006 0.23445651880085425 22.825000000000003 386.50000000000006 0.19823015749259321 2.5000000000000004 23.493333333333336 23.895000000000003 22.905000000000005 8.8333333333333339 18.500000000000004 9.5000000000000018 7.5000000000000009 0.16025641025641027 5.166666666666667 23.542303824212976 6.5000000000000009 1.2850000000000004 26.500000000000004 0.51415969124354677 0.24019230769230773 0.2781145962964145 0.25517618312757206 228.50000000000003 0.24492088970419632 1.0333333333333334 0.27660423925667837 0.27256631066987569 0.22918592113370304 3.5000000000000004 390.50000000000006 8.5833333333333339 0.23233261987908829 0.27649815026385943 0.26969696969696971 3.5000000000000004
decision_type=2 2 2 2 2 2 2 2 2 2 2 2 2 2 2 2 2 2 2 2 2 2 2 2 2 2 2 2 2 2 2 2 2 2 2 2 2 2 2 2 2 2 2 2 2 2 2 2 2 2 2 2 2 2 2 2 2 2 2 2 2 2 2 2 2 2 2 2 2 2 2 2 2 2 2 2 2 2 2 2 2 2 2 2 2 2 2 2 2 2 2 2 2 2 2 2 2 2 2 2 2 2 2 2 2 2 2 2 2 2 2 2 2 2 2 2 2 2 2 2 2 2 2 2 2 2
left_child=1 4 15 8 5 11 44 -8 26 13 29 12 14 19 40 75 21 -18 -15 20 100 23 68 25 -25 43 125 28 76 30 -6 51 -33 34 -30 -19 -37 38 57 -39 41 45 106 62 -4 47 -47 49 -49 50 -1 -13 91 55 -55 56 110 -34 79 -7 -48 74 64 -64 65 99 -67 101 -23 -66 -71 -16 73 114 -22 81 -28 78 -65 -21 -81 -2 -56 102 96 -36 -87 -74 -41 -43 -91 -27 -12 -94 95 -29 118 -98 -59 -17 -10 -68 -52 -24 -35 -106 -40 108 -32 -5 113 112 -112 -20 -51 -108 -44 -57 -85 -75 -121 122 -69 -124 -125 -3
right_child=2 3 6 109 10 59 7 -9 9 -11 92 31 -14 18 71 16 17 35 53 58 61 22 103 24 -26 52 27 94 33 -31 107 32 37 104 85 36 -38 39 42 88 -42 89 116 -45 -46 46 60 48 -50 72 83 -53 -54 54 82 117 -58 98 -60 -61 -62 -63 63 77 69 66 67 121 -70 70 -72 -73 87 119 -76 -77 -78 -79 -80 80 -82 -83 -84 84 -86 86 -88 -89 -90 90 -92 -93 93 -95 -96 -97 97 -99 -100 -101 -102 -103 -104 -105 105 -107 115 -109 -110 -111 111 -113 -114 -115 -116 -117 -118 -119 -120 120 -122 -123 123 124 -126 -127
leaf_value=0.02412516845432381 -0.0072009294318113081 0.028599554945673261 0.030833936870900733 0.01824963763579945 0.019035503633899373 -0.0031707549565898789 0.020341704569167281 -0.035940368164502537 -0.017034717222966865 0.022965353745708846 0.041075049570782056 0.0046105055414178637 0.03188950993435874 0.0091453869404864649 -0.048705986546607391 -0.05012776850409207 0.0022930544159083968 -0.049641651622290291 0.00057402863494683879 0.020087547316520179 0.0074465512475304614 0.0092059929908899791 -0.0067547464574568431 -0.042630431792990905 0.013524557585340619 -0.017133132370401656 -0.012978560353962309 -0.031809664342043208 -0.041338152001562573 0.027521682296884734 -0.030376456674463682 0.021201434330088167 -0.0076572427098703742 0.034674794566540677 0.014445034703175104 0.014199257876024895 -0.044058236977130107 0.022267208578986696 0.023555472040238827 0.016801352273944373 0.018631415270961883 0.044808179380472039 -0.037714535906446016 -0.052946666737018665 -0.0027073641073162434 0.010283445689613277 -0.04635932451662008 0.0082460230763036352 -0.044098948469669157 -0.051107615869419087 0.032576941441317411 -0.039917390711447141 -0.026741257085989168 -0.046932481334845642 0.02147626548358493 -0.012498532752617376 0.022948484641988297 -0.0093125751510386486 0.033641014031689995 0.026184329365540916 0.0023843619256447147 -0.0436594606018701 0.017493244235199764 0.023160255241885166 0.02846785264439524 -0.029290477061919611 -0.0018957388648207644 0.022792664948009772 -0.042574088207036842 0.021963807493215606 -0.037789635427686166 -0.002723034999914603 0.028567620779337697 0.036623791488900902 -0.028755492058822014 -0.0031107176110606533 -0.053492044274886678 -0.040927274794153062 -0.039852167036425828 -0.039538383276097877 0.0075713072989304136 -0.048703078204143137 -0.022744381268292764 0.015878276907251753 -0.03774695826912354 -0.016295964055862519 0.0064868912643963363 0.0037633030383183706 -0.015320188985149787 -0.014013687742978613 0.01984542506186672 0.022002245791648455 0.0010912562909615483 0.035183751789928844 -0.042291963509084277 0.016492568429231545 -0.036202554296000361 0.010227602093884071 -0.049073334503200977 -0.0022591811259015417 0.019464039407696945 -0.039998301865784555 -0.0056273202278095055 0.032767053069368196 -0.026305667762605543 0.015800446850362374 -0.02879712007072777 0.011811373630132491 0.0046184030680970489 -0.0027789345648337898 0.021932365547727897 -0.040454040316287514 -0.019538003823997414 -0.047004642893415563 -0.0014783068642833168 0.017281932839683919 0.0053842808028040012 0.024427059744765202 -0.012753213623612517 -0.017515117215749991 0.024079625417170517 0.025896833314133144 -0.048815159751689582 -0.02469139427563475 0.020103492361643951 -0.0027804358862284525
leaf_weight=31.111341491341591 12.47557859867811 16.948121313005686 51.129815854132175 165.25786663219333 79.153894448652864 24.756667071953416 21.578830718994141 37.119830135256052 14.29702536948025 61.204101516865194 80.932723542675376 16.659377712756395 61.028160072863102 54.267174318432808 10.044401753693817 28.983261905610561 14.599708467721937 82.348354373127222 10.471769096329806 37.672974025830626 32.665997907519341 9.5401814244687575 15.275839001871644 93.411771426908672 11.75665809214115 13.039897438138722 23.199678289238364 19.77543755248189 25.515393416397274 74.895987553521991 31.100155051797628 64.665089752525091 42.804880386218429 17.683891300112009 30.667239431291819 15.210053753107788 16.077254325151443 68.264622375369072 56.338181182742119 22.369967188686132 196.1494557056576 18.740202140063047 13.734490782022478 18.345807597972453 27.489735815674067 20.462098505347967 21.143690714612603 26.098438726738095 18.689231887459755 14.84763070754707 17.294611401855946 23.352936029434204 16.914401814341545 36.903550228103995 12.600473262369631 15.332580359652637 10.937051272019742 15.849811412394045 36.981919515877962 167.7937232516706 11.713713757693766 17.67554847151041 14.336147950962184 15.310469489544628 20.7038340754807 46.196791039779782 20.453954730182886 16.667407225817442 18.12714072316885 9.28099273145199 11.711932985112069 31.144321482628584 107.04972198233008 25.451497245579958 21.03503552172333 12.933835381641982 21.916954251937568 87.738913955166936 21.642379660159349 12.22590576764196 22.46110936626792 79.97394095454365 19.785074315965176 39.621791398152709 22.451441206037998 131.92453421838582 46.694861112162471 37.274149617180228 45.973682928830385 18.426469225436449 74.576376523822546 36.833893859758973 47.111144598573446 71.585052805021405 45.149242339655757 13.497582148760555 23.939798027276993 10.768980372697113 33.6813432443887 9.3466257192194444 46.382338197901845 21.057336369529366 22.058214342221618 22.867241814732552 12.155973156914113 20.228844624012709 11.632557336241009 32.419413890689611 28.519119884818792 40.729003582149744 23.543635163456202 15.190787594765423 18.161613030359149 27.159676745533943 9.2273705005645734 11.644867960363625 14.42654726654291 26.052013155072927 28.309233170002699 13.592417176812889 15.148809744045137 19.590741885825992 9.7158721014857274 15.20291435159743 14.995535515248774 53.97251277975738
leaf_count=81 80 36 109 340 165 71 44 163 80 167 78 56 118 190 59 246 67 681 58 99 114 41 81 847 41 68 87 134 177 122 80 136 170 41 105 56 118 129 112 46 344 25 80 149 81 50 110 83 102 109 41 67 116 241 28 74 29 57 85 349 30 100 50 56 51 284 111 52 137 28 83 132 244 47 116 59 207 587 144 79 71 629 108 121 118 807 169 109 116 69 196 113 97 94 308 40 138 28 169 57 146 174 80 55 83 72 77 52 55 97 62 64 75 208 48 30 34 54 105 64 45 61 81 89 35 248
internal_value=0 0.00619343 -0.02007 -0.00208298 0.0113819 0.00870694 0.00453648 -0.0152614 -0.00527239 -6.41794e-05 0.0206652 0.00674706 0.00976261 -0.00289684 0.00813217 -0.0239434 -0.0218378 -0.0360978 -0.00961912 0.00465038 -0.00446951 -0.0188726 -0.000774564 -0.0209404 -0.0362177 -0.0173683 -0.0114723 -0.014396 -0.0104737 0.0129113 0.00627527 0.00040282 0.00273833 -0.00652116 -0.0106929 -0.0409845 -0.0165854 -0.00091164 -0.00765846 0.00893943 0.00935694 0.00641019 0.00648991 -0.0204703 0.0193298 0.00361913 -0.0146285 0.00577472 -0.0145481 0.00801039 -0.000835833 -0.022041 0.00132228 -0.0143711 -0.0281637 -0.00757224 -0.0148488 -0.0239602 0.0155472 0.0224163 -0.0298424 -0.0172162 -0.0186474 -0.0278546 -0.0132153 -0.0177546 -0.0123397 -0.00530745 -0.0253024 0.00860325 -0.0117599 -0.0156728 0.0157204 0.0033335 -0.00725735 -0.0385821 -0.0340946 -0.0332623 -0.0138959 0.00564371 -0.0102834 -0.0433737 -0.00529072 -0.00579138 -0.0114651 -0.00660085 -0.0103342 0.0223005 -0.00462753 0.0190145 0.0129832 0.0115039 0.0300009 0.0218946 -0.0302293 -0.0123912 -0.00510464 -0.0220245 -0.0372053 -0.0391461 0.0105952 -0.022174 0.0119261 0.0173911 0.012702 -0.00061529 0.0149164 -0.00487007 -0.01403 0.014105 -0.0196069 -0.008984 0.00380537 -0.034404 -0.0336583 -0.00620193 -0.0167426 0.010801 0.00392304 0.0203801 0.00454874 0.00421639 -0.00391806 -0.0156273 -0.00258069 0.00529726
internal_weight=0 3264.35 1009.98 1258.32 2006.03 1560.31 137.318 58.6987 1052.34 573.007 445.717 1367.76 926.364 511.803 865.335 872.667 767.283 128.235 270.405 241.398 132.056 639.048 65.8104 573.238 105.168 468.069 479.33 408.41 329.987 246.089 171.193 441.398 401.386 284.871 234.802 113.636 31.2873 336.721 200.113 136.608 824.147 627.997 107.777 401.281 78.6196 516.254 53.3195 462.935 44.7877 418.147 195.555 40.0123 66.7882 216.138 69.2891 146.849 105.465 92.336 109.342 192.55 32.8574 71.3766 382.935 139.028 243.907 202.21 163.881 117.684 27.6673 41.6968 20.9929 41.1887 222.592 78.2677 53.701 105.383 45.1166 124.692 36.9528 72.36 34.687 92.4495 32.3855 164.444 125.091 209.287 178.619 144.324 68.3437 111.743 93.0028 49.8738 199.629 118.696 78.4223 33.273 102.64 34.7088 49.5312 38.3299 60.6794 41.5113 39.3528 38.1431 50.0687 32.3848 79.6156 92.0387 59.6193 205.987 94.5275 56.896 41.7052 37.6314 24.075 23.2774 28.161 41.3846 67.931 54.1927 28.7412 76.1725 56.5817 39.9143 30.1984 70.9206
internal_count=16261 10337 5924 5199 5138 4395 397 207 4762 2248 743 3975 2696 2081 2578 5527 4759 922 1191 890 556 3837 314 3523 888 2635 2514 2230 1748 474 352 1279 1156 1454 1258 855 174 1020 729 291 2387 2043 333 2338 190 1753 190 1563 185 1378 712 123 297 1001 377 624 496 396 334 420 140 330 2189 837 1352 1190 887 603 178 162 111 191 666 313 230 768 294 787 200 249 150 709 136 631 510 1081 976 353 162 290 265 181 269 191 482 174 392 166 226 303 226 285 121 136 196 155 219 187 135 437 467 201 137 266 157 107 114 128 226 156 109 318 257 205 124 284
is_linear=0
shrinkage=0.03


Tree=2
num_leaves=127
num_cat=0
split_feature=19 18 14 19 6 8 37 25 0 14 22 18 27 31 40 37 40 36 18 17 30 25 5 30 27 27 24 14 12 24 30 31 11 0 12 4 24 25 31 17 36 19 9 31 35 17 9 11 30 31 26 40 9 26 30 14 30 6 9 37 40 37 24 5 40 35 40 25 6 10 35 17 37 30 37 6 31 25 14 4 25 3 37 25 35 30 36 31 8 18 36 6 41 24 26 27 11 36 28 36 9 18 25 2 17 17 17 18 40 24 30 19 26 30 24 30 29 31 2 17 9 26 7 40 29 30
split_gain=398.714 115.536 76.3542 59.709 46.9141 42.5068 38.5055 47.9558 43.7964 37.5603 37.5952 35.8834 34.3945 34.1035 33.6156 32.3501 28.4244 28.2583 27.5742 27.5359 28.4923 32.1573 27.3816 32.5493 28.137 32.2189 26.1572 25.8077 25.3711 23.786 26.3252 22.9111 27.801 22.7598 22.982 70.6637 22.9204 21.9323 20.3383 19.1467 18.6441 18.556 18.4571 18.4114 19.7466 32.9025 18.0847 21.5778 17.5439 17.6342 17.5018 21.8113 37.2227 17.4722 25.0558 24.9761 23.9883 22.6483 20.2846 17.2205 23.7152 18.4531 17.1897 30.4477 47.9593 29.2063 27.5341 24.3144 27.0259 19.0026 25.2445 17.2426 20.6816 16.7939 22.3715 16.6935 16.6443 16.4381 16.4262 16.0456 16.0341 15.9792 17.8048 26.1057 23.0241 15.9616 15.9242 15.7553 19.1073 15.6495 15.6125 18.9922 19.7868 15.5584 23.7559 20.7253 19.6438 15.3637 24.0567 21.4576 16.8179 33.1327 15.3028 17.6705 15.7773 16.2698 15.2387 14.9762 14.8915 14.7015 14.4756 14.4627 26.5516 14.4306 13.8106 25.8024 13.5197 13.498 13.393 13.1258 24.3356 13.0435 24.8229 19.4776 19.1511 13.1045
threshold=5.5000000000000009 0.32315462315462323 0.35504201680672276 7.5000000000000009 0.35494378480613648 0.80909090909090919 0.259437321937322 22.615000000000006 4.5000000000000009 0.55050505050505061 8.5000000000000018 0.32461836409204836 0.93666666666666576 24.02833333333334 133.50000000000003 0.30368444846292952 116.50000000000001 0.32728767942583736 0.20603395997574289 0.26988996007400917 22.378333333333341 23.625000000000004 6.5000000000000009 22.561666666666671 1.0600000000000012 1.4699999999999995 21.285000000000004 0.21825396825396828 0.63333333333333341 22.915000000000003 21.94166666666667 22.904166666666672 0.43303571428571436 1.0000000180025095e-35 0.22500000000000003 1300.0000000000002 23.335000000000004 23.665000000000003 22.98416666666667 0.46549901227010942 0.24195988208061578 3.5000000000000004 10.500000000000002 23.001666666666669 85.500000000000014 0.23535764197687717 4.5000000000000009 0.64495798319327746 22.448333333333341 22.69166666666667 0.19090909090909094 121.50000000000001 8.5000000000000018 0.13392857142857145 22.841666666666672 0.55050505050505061 22.648333333333337 0.278589196872779 11.500000000000002 0.23697775366250681 132.50000000000003 0.33463541666666669 21.845000000000002 8.5000000000000018 127.50000000000001 591.50000000000011 119.50000000000001 23.425000000000004 0.23859228916318506 1.0000000180025095e-35 237.50000000000003 0.23212558717877871 0.22756041426927506 23.41833333333334 0.1734013605442177 0.28769879551280292 24.358333333333338 22.755000000000006 0.88194444444444453 1500.0000000000002 23.725000000000005 -424.99999999999994 0.22182539682539684 22.785000000000004 533.50000000000011 21.981666666666673 0.25997903563941305 23.443333333333339 0.72077922077922085 0.25463121783876502 0.18734485201268905 0.14547859547859551 15.500000000000002 22.405000000000005 0.14835164835164838 0.69166666666666654 0.2752525252525253 0.17837161772944995 9.5833333333333339 0.2139032073310424 9.5000000000000018 0.36086349895356956 23.665000000000003 24.500000000000004 0.19269968161683282 0.22491027900335733 0.22918592113370304 0.23670062252405208 126.50000000000001 22.165000000000003 22.08666666666667 2.5000000000000004 0.19090909090909094 22.338333333333342 23.195000000000004 22.391666666666669 6.166666666666667 24.338333333333342 28.500000000000004 0.15402860916729902 11.500000000000002 1.0000000180025095e-35 13.500000000000002 131.50000000000003 6.5553995072157702 22.59416666666667
decision_type=2 2 2 2 2 2 2 2 2 2 2 2 2 2 2 2 2 2 2 2 2 2 2 2 2 2 2 2 2 2 2 2 2 2 2 2 2 2 2 2 2 2 2 2 2 2 2 2 2 2 2 2 2 2 2 2 2 2 2 2 2 2 2 2 2 2 2 2 2 2 2 2 2 2 2 2 2 2 2 2 2 2 2 2 2 2 2 2 2 2 2 2 2 2 2 2 2 2 2 2 2 2 2 2 2 2 2 2 2 2 2 2 2 2 2 2 2 2 2 2 2 2 2 2 2 2
left_child=2 3 4 16 6 17 7 111 14 10 97 33 39 19 18 117 -2 38 29 20 21 26 24 85 -13 -26 -8 -7 -25 30 -9 48 62 36 35 -35 78 -19 79 -10 -6 -37 -21 -40 45 -45 90 73 49 -18 51 -22 -53 59 56 106 58 -57 77 60 114 -61 118 66 65 -65 -64 68 -68 -69 107 72 -72 81 -75 -32 -20 108 -4 -5 -30 -48 83 -83 102 -24 -29 -79 -89 -42 113 -92 -93 94 -12 -95 -97 -3 99 -99 121 -102 109 -104 -105 -106 -56 -71 -55 110 -84 -1 -113 -46 115 -36 -43 -15 -33 120 -85 123 125 -101 -124 -123
right_child=1 9 11 5 40 27 13 8 12 -11 93 22 -14 15 -16 -17 31 37 76 42 50 -23 23 28 25 -27 -28 86 80 -31 75 32 -34 34 53 41 -38 -39 43 -41 89 116 -44 44 46 -47 47 -49 -50 -51 -52 52 -54 54 55 57 -58 -59 -60 61 -62 -63 63 64 -66 -67 67 69 -70 70 71 -73 -74 74 -76 -77 -78 87 -80 -81 -82 82 84 119 -86 -87 -88 88 -90 -91 91 92 -94 95 -96 96 -98 98 -100 100 101 -103 103 104 105 -107 -108 -109 -110 -111 -112 112 -114 -115 -116 -117 -118 -119 -120 -121 -122 122 124 -125 -126 -127
leaf_value=0.037826589635181852 -0.035837526970272905 -0.018931416718374474 -0.049637877395475566 -0.051625702520342952 0.030137760129236073 -0.020848370775914674 0.0085513565019174915 0.010027501796912208 -0.028895739624224485 0.023675067509157925 0.013811028775545521 0.029291446802855125 0.021100153924219829 -0.014194629629821404 0.011687657231203614 -0.040053674160767931 -0.029430475908588407 0.018039862137966888 -0.038019059331945992 0.021729290045992011 0.018151336208667917 0.020380282487404346 0.0011941947546835351 0.011646958954554667 -0.014491927520813531 0.028032105179658436 -0.039753337670217381 -0.0077127976143203745 -0.037836367673174803 0.0061480557460060871 -0.052958042996245035 -0.0036401460885024379 -0.034828733975101431 -0.036235170689051334 0.0064489850980466445 0.031797162714238179 0.015031998289279827 -0.025213283342049531 0.018162872206528617 0.01369509922610555 -0.01391009311400641 -0.021656832125010676 -0.0038394446371809335 -0.032850393856583338 0.010815650893620835 0.023883623850245186 0.0066941898444225299 0.021436923263378052 0.03004849051624546 0.01209416524191374 0.024396375058336275 -0.044818999807037727 0.0062165134794810138 -0.025410502379449713 -0.0075134561361274357 0.016860374797263277 0.030896989057680648 -0.019860379118920354 -0.015072213969819115 0.024833973931749128 0.029279236098886385 -0.0017408541497365617 0.015256284481948787 -0.045491969715948176 0.0010222108647147906 0.010254237759235908 0.0056012804892067811 -0.011821123907947973 -0.047563552695932751 -0.046981077721981457 -0.029543840060997018 0.025911893867340746 0.013561211384604383 -0.0036675093025803369 -0.04969135097976829 -0.0054278228618664113 0.0019677433125589749 0.021867082125108555 -0.0024937533959625228 -0.008385972769737118 -0.0018359109263093622 0.019808493235276215 0.0043060586657929544 -0.038178595595906188 -0.035374081222792564 0.026269989023456453 0.029438667906749472 -0.019875979441090728 0.017881167001013616 0.018003574033341227 -0.0041109498696286122 -0.044254815303549161 0.0055681257771249886 -0.047691406039933992 -0.031684858005695961 -0.028641997325089642 0.018085288889371418 0.028583590145266038 -0.027005655417156736 0.0039820467047155354 0.01478575679823604 -0.042739834289610187 -0.039818695683882382 -0.03454429826441506 0.021541537009148345 -0.020341733635700833 -0.049830968568900784 0.0027106946598712818 0.010409000962496412 0.0097888380313046648 -0.046163182434313971 -0.026903546421705938 0.028165946968337675 -0.034817377925348753 0.014006872459533548 -0.043050930624575642 0.014937964156671807 0.023087576192657968 0.027010977239803582 -0.040221567595023884 0.023127605329655049 0.023104144674108786 -0.04825113106723785 0.036377351163543341 -0.0026160488894891175 0.0017712773152080785
leaf_weight=19.168793223798275 30.178723692893982 23.395786695182323 13.465721543878317 40.662328584119678 61.623844761401415 26.521251315250993 12.893729243427513 12.653374101966618 27.481909658759832 60.020889215171337 25.608063112944365 243.46377532929182 49.385309021919966 15.874719131737949 25.221247108653188 25.583391236141324 12.132859484292565 24.463608166668564 97.777477601543069 137.65219369530678 37.961228186264634 15.469125580042599 29.954956784844398 49.471568934619427 31.361207414418459 29.029932022094727 35.976752284914255 15.410323267802594 19.611872345209122 38.488427527248859 21.911603145301346 29.109071446582675 32.655258607119322 35.463745061308146 19.467493515461683 29.947428524494171 15.543826419860123 15.548735892400144 8.1127833388745767 12.573897488415239 20.510090883821249 13.454726889729498 30.393924839794636 14.607652156613765 12.830821521580221 18.632353944703937 18.58043634146452 8.8017548024654371 22.861270252615213 24.449388055130839 40.790989512577653 17.196120094507933 37.778372330591083 17.020196424797177 17.819934727624062 44.419090896844864 48.529916025698185 20.49668950214982 28.443502740934491 193.2340528331697 22.798963584005833 26.450215339660645 53.507480813190341 58.222462628036737 48.236447533592582 9.0777282845228893 12.306044682860373 128.73749932972714 23.907714772969484 9.5503998901695031 13.237572519108651 41.330150742083788 27.257469661533833 12.916655365377663 37.927913930267096 9.8996333889663202 10.128196727484463 107.66121191997081 12.061182366684079 10.497382619418202 23.411527143791318 7.2396572306752196 9.8529751263558882 11.08068696036935 36.704835928976536 97.002842787653208 25.987851325422525 20.17521352507174 24.454582318663597 34.3203159943223 14.185735787265001 117.36896362900734 7.1856989450752726 24.10434022732079 14.531047999858854 18.099084754474465 11.813565738499163 35.913609717041254 17.421744258143008 39.118961388245225 16.041321160271764 16.537642069160938 21.744054146111012 11.098640426993368 18.339792982675139 12.22198407538235 12.67026585433632 9.9587460905313474 21.428970202803612 48.896271855570376 7.9839835986495009 11.915441565215589 16.237076684832573 8.995292825624345 18.482949979603291 15.679506571963428 20.048454079777002 15.199973855167626 20.381374858319759 80.754926676861942 8.7219949662685377 37.358129762113094 11.205462094396351 27.902880350127816 22.838052675127983 76.974038621410728
leaf_count=34 208 89 84 419 114 186 40 47 143 121 74 383 140 77 96 124 72 110 562 296 105 37 75 116 81 42 206 73 80 139 178 139 181 190 56 55 45 117 30 21 80 57 79 141 67 66 73 21 62 91 113 123 117 65 67 111 95 72 96 387 42 95 200 533 252 43 57 698 178 74 82 113 102 71 356 32 32 239 26 72 51 29 55 100 295 168 65 75 43 71 99 1202 37 158 70 117 32 79 83 105 51 92 198 81 66 94 70 49 60 246 73 74 42 87 45 78 68 42 52 708 24 91 63 35 92 223
internal_value=0 -0.0107338 0.00826724 -0.0153044 0.00147908 -0.0211812 -0.00120351 -0.00849534 -0.0128594 0.00188514 -0.00133491 0.0128368 0.00472356 0.00489357 -0.020114 -0.0163905 -0.00834717 -0.0235481 -0.0243941 0.00825856 0.000649341 -0.0154706 0.0189421 0.0107205 0.0247711 0.00619264 -0.0271737 0.00135901 -0.00280312 -0.0110065 -0.025481 -0.0067903 -0.00882048 0.00880195 0.00998663 -0.00343865 -0.012515 0.000831627 -0.0251554 -0.0155106 0.0190644 0.0154391 0.017114 -0.0233229 -0.0240025 -0.00149809 -0.025448 -0.021406 0.0105949 -0.00248958 0.00851878 0.00118271 -0.0107604 0.0120053 0.00752928 -0.00558589 0.0122099 0.005019 0.00783043 0.0174069 0.00497675 0.0216475 -0.0069328 -0.00884076 -0.0219054 -0.0378938 -0.00401387 -0.00797088 -0.0301496 -0.00425016 0.00541081 0.012757 -0.00125684 -0.0226195 -0.0385807 -0.0393627 -0.0342983 0.0113667 -0.0291624 -0.0434027 -0.0191982 -0.0196092 -0.0214243 -0.0309383 -0.0149836 0.0204638 0.0158911 0.0157511 0.000692362 0.0059964 -0.0339582 -0.0376441 -0.0413379 -0.0178179 -0.00338138 -0.0280416 -0.0102109 0.0035245 0.00538145 0.007544 0.0042926 -0.0151983 -0.00878423 -0.0190979 -0.00695442 0.00457133 -0.0270835 -0.0237217 -0.00591954 0.00128559 -0.0206611 0.0190594 0.00461951 -0.00933523 -0.00603584 -0.0167625 -0.000150449 0.00433506 0.0095416 -0.0349068 -0.011532 0.0073533 0.00230798 0.0181323 -0.0194808 0.00901918
internal_weight=0 1799.86 2214.59 1320.98 892.067 713.877 775.613 352.842 305.521 478.885 418.864 1322.53 89.4411 422.771 216.08 56.6581 607.098 645.958 190.859 366.112 198.066 64.3396 523.308 219.453 303.855 60.3911 48.8705 67.9194 92.495 82.953 44.4646 576.919 517.475 799.218 758.147 98.9144 41.0707 40.0123 605.946 40.0558 116.454 63.4506 168.046 554.786 546.673 33.24 513.433 352.867 59.4435 36.5822 133.727 92.9357 54.9745 659.233 363.12 95.406 267.714 64.9158 219.184 296.113 76.4289 219.684 484.82 435.33 115.537 67.3002 319.793 266.286 36.2138 230.072 101.334 81.8252 40.495 344.065 50.8446 31.8112 107.906 190.74 25.5269 51.1597 43.0234 293.22 274.64 107.797 166.843 126.958 41.3982 152.291 44.6298 54.8304 160.567 138.74 124.555 94.1561 40.1391 54.017 29.9127 324.708 301.312 283.89 247.976 32.579 130.138 63.4045 41.6604 30.5618 30.4902 19.5091 38.4492 66.7332 17.837 47.3213 28.1525 21.8261 53.63 35.147 33.5032 31.0747 49.4904 100.558 19.8027 215.398 148.376 67.0218 34.0435 114.332
internal_count=16403 10022 6381 8447 3164 5261 2899 1540 1390 1575 1454 3217 304 1359 1086 243 3186 4937 990 1116 741 283 996 490 506 123 246 324 247 396 257 2978 2753 2221 2066 370 155 227 4710 164 265 180 375 4219 4189 207 3982 2490 225 163 458 345 240 1696 993 320 673 183 578 703 221 482 2572 2381 828 576 1553 1353 235 1118 420 297 184 2469 427 210 594 482 110 491 131 2042 1969 861 1108 243 138 357 118 151 1492 1338 1239 451 144 307 149 1003 914 831 752 143 813 439 241 160 137 123 125 374 128 150 116 154 179 134 125 119 191 832 124 609 469 140 155 314
is_linear=0
shrinkage=0.03


Tree=3
num_leaves=127
num_cat=0
split_feature=19 18 31 13 19 30 6 37 30 13 18 18 25 37 18 20 11 16 35 20 20 37 24 11 14 7 36 6 16 31 30 20 25 14 7 35 9 27 26 16 20 37 12 6 18 9 35 26 35 31 24 6 35 37 37 6 11 40 35 4 35 20 6 26 14 25 36 9 16 15 2 29 14 13 37 11 26 37 26 5 28 31 37 37 26 18 18 4 40 37 5 22 27 18 18 7 25 30 28 18 28 31 35 11 14 16 18 18 16 19 22 35 16 37 20 14 35 40 6 28 6 2 28 36 31 26
split_gain=289.905 78.6011 66.9448 62.573 58.2344 36.6895 36.0667 34.7212 31.9357 31.072 27.7762 27.6787 26.8743 25.4111 25.1393 24.7376 31.8609 24.0951 24.0106 23.9953 24.0768 22.9454 25.8588 24.3215 35.0625 24.1499 23.3248 22.7311 22.6397 37.0284 24.9138 29.9936 29.1776 23.3652 21.8126 21.2885 24.5257 20.9499 20.8325 20.6416 20.0648 20.2581 33.3055 26.4762 19.3872 19.3049 26.6809 25.3279 21.4587 19.2549 26.132 23.9299 30.8454 23.5305 20.3034 18.9712 18.7801 18.6525 25.4892 23.1522 20.5236 20.0724 18.481 22.0516 29.7651 26.9618 24.9953 23.7678 21.3316 32.5313 30.3338 34.7364 24.2641 21.1496 19.1248 18.1307 19.2091 18.3076 18.0241 17.762 17.3833 17.1894 16.9168 32.3821 22.9702 16.8309 16.3723 16.1437 15.9137 15.8117 22.1527 17.9466 16.7355 19.2634 23.2807 15.7023 25.7126 15.5426 15.3169 29.9484 16.2164 14.9006 20.2388 14.755 16.8853 23.3163 14.5459 14.325 14.2427 14.0617 17.5332 26.5459 14.052 13.9724 13.8569 13.637 15.8043 17.8682 13.6057 20.4342 13.4261 13.0964 13.0764 13.9278 12.0822 11.9297
threshold=5.5000000000000009 0.32701294033069739 23.561666666666671 0.14835164835164838 7.5000000000000009 21.878333333333337 0.25336349924585227 0.23281766650921118 22.534166666666671 0.22649572649572652 0.19189041095890413 0.15227743271221536 22.995000000000001 0.25568475452196388 0.12560679611650488 1.3949999999999998 0.73030303030303034 548.50000000000011 173.50000000000003 0.53500000000000025 0.97000000000000075 0.20851449275362322 22.765000000000004 0.2817460317460318 0.78888888888888908 10.500000000000002 0.30283121493186765 0.37128129602356413 628.50000000000011 23.77833333333334 22.631666666666671 0.13000000000000081 22.715000000000003 0.5590277777777779 13.500000000000002 153.50000000000003 9.5000000000000018 1.2100000000000006 0.20714285714285716 514.50000000000011 2.3100000000000009 0.19163509180996796 0.45000000000000007 0.24061621800812186 0.17512886597938146 6.5000000000000009 169.50000000000003 0.17424242424242428 527.50000000000011 23.804166666666671 23.245000000000001 0.29240418755221392 440.50000000000006 0.29388422035480866 0.17767393561786088 0.27279120317095001 0.41421568627450983 128.50000000000003 560.50000000000011 1625.0000000000002 359.50000000000006 0.917411366997675 0.2001805054151625 0.07417582417582419 0.5590277777777779 24.275000000000002 0.26456679894179896 10.500000000000002 166.50000000000003 0.18465909090909094 24.500000000000004 4.5833333333333348 0.96153846153846168 0.58578431372549034 0.31175813433877958 0.67948717948717963 0.10555555555555557 0.32793442622950825 0.21825396825396828 6.5000000000000009 6.8536782822949673 23.721666666666668 0.31726674409601247 0.35088935088935097 0.22649572649572652 0.28623949579831937 0.036375661375661381 1300.0000000000002 125.50000000000001 0.19521722560975613 8.5000000000000018 2.5000000000000004 0.22999999999999807 0.36643192488262916 0.22564832384566733 13.500000000000002 22.895000000000003 23.501666666666669 4.166666666666667 0.21960458240946049 6.5833333333333348 23.474166666666672 451.50000000000006 0.41421568627450983 0.24264705882352944 328.50000000000006 0.32019417475728162 0.25324894514767943 83.500000000000014 11.500000000000002 11.500000000000002 297.50000000000006 48.500000000000007 0.25765385816932213 1.9399999999999997 0.63961038961038974 271.50000000000006 128.50000000000003 0.26379160427032516 5.166666666666667 0.24196913275606804 34.500000000000007 5.166666666666667 0.30673139158576057 23.661666666666669 0.095454545454545472
decision_type=2 2 2 2 2 2 2 2 2 2 2 2 2 2 2 2 2 2 2 2 2 2 2 2 2 2 2 2 2 2 2 2 2 2 2 2 2 2 2 2 2 2 2 2 2 2 2 2 2 2 2 2 2 2 2 2 2 2 2 2 2 2 2 2 2 2 2 2 2 2 2 2 2 2 2 2 2 2 2 2 2 2 2 2 2 2 2 2 2 2 2 2 2 2 2 2 2 2 2 2 2 2 2 2 2 2 2 2 2 2 2 2 2 2 2 2 2 2 2 2 2 2 2 2 2 2
left_child=2 4 3 8 6 40 17 11 10 35 -1 -7 -4 -10 86 16 45 57 -18 -12 -21 22 -11 118 25 -25 114 49 29 30 32 -32 -3 82 -24 37 109 112 -29 44 41 -5 -43 -44 -38 46 -9 95 56 51 -51 78 53 54 -53 -45 -49 58 59 60 125 122 75 64 65 66 -64 -67 74 70 81 -72 -71 87 108 76 97 115 -16 -39 -22 -70 84 -84 121 103 -8 -73 -15 90 -13 -92 -91 94 -94 98 -97 124 -47 -100 -101 -46 -103 104 105 -83 -57 -81 -65 110 -37 -112 -6 -30 -27 116 -78 -118 119 -23 -48 -34 -59 -124 -14 -2
right_child=1 28 12 5 9 7 14 15 13 21 19 89 62 88 27 -17 18 -19 -20 20 80 23 34 24 -26 26 -28 38 113 -31 31 -33 33 -35 -36 36 39 79 -40 -41 -42 42 43 55 101 47 120 48 -50 50 -52 52 -54 -55 -56 106 -58 61 -60 -61 -62 -63 63 68 -66 67 -68 -69 69 72 71 73 -74 -75 -76 -77 77 -79 -80 107 -82 85 83 -85 -86 -87 -88 -89 -90 92 91 -93 93 -95 -96 96 -98 -99 99 100 -102 102 -104 -105 -106 -107 -108 -109 -110 -111 111 -113 -114 -115 -116 -117 117 -119 -120 -121 -122 -123 123 -125 -126 -127
leaf_value=0.024102386684802132 -0.0072409356467914871 -0.040422065487655701 -0.032033341022309703 0.018957528207220686 0.00021516577553028259 -0.031232644311988758 0.00061492622005037746 -0.0038273305775702775 -0.051127717863913277 -0.047089642317925784 -0.032637676703782662 0.023048657788873425 -0.0033523636719020263 0.0088692510270996089 -0.0040159824368280559 0.034034738533709509 0.0076561845662419803 -0.041415915959289201 0.033141316301114623 0.020525508372777331 0.0059232590604613401 0.020175396884165454 -0.024440406194694436 0.008527683384217678 0.031951138336668794 -0.042294781872018482 0.0036305617249860816 -0.034240830913404741 -0.00109536444837682 0.013266140155269415 0.0039024940319385536 -0.044826527593408792 0.010267574320483095 0.028806306582594785 0.023164064420601069 -0.029926781137493485 -0.026472525715224616 0.018338467742403868 0.014380994043139844 -0.039002440085746742 0.02563931641919694 -0.043161634217181603 -0.02244768172440938 0.025528062354890295 0.021031518770058336 0.034051135436569284 0.013387773534218739 0.016688049491974392 -0.035589933521676678 0.031317502645194187 -0.0059375900523712328 0.008060912168254596 0.028879925838146109 0.015743940683605618 -0.042719434640057778 -0.020429225516834376 -0.019415539873589172 0.033469159957436038 0.010113380522857268 -0.0011960869455619324 -0.044691140021345208 -0.025466630877697169 0.024997735712970363 0.0016166786412844969 0.030573484178009175 -0.049886820127884569 -0.0072280661223416733 0.0063931100838925401 -0.014109087909940124 -0.033665803260919253 0.0072884153394530398 -0.011683908447995574 0.010271182585581851 0.0072031673138565544 -0.014015240170446683 -0.039983882815951381 -0.040186606703480794 0.02844215252908017 -0.04058923355627795 -0.044407138165229516 -0.030699189938223306 0.0224481413393053 -0.051484158945575516 -0.00052355785953316785 -0.02830291050169793 0.021505758750669037 -0.042312739583062017 -0.049571299496591732 -0.030289384250652703 -0.025396008759944189 0.014925486537878969 -0.031570127531084111 0.013939934222122259 0.021152014468464233 -0.022833249810008893 0.017033271396730994 -0.028699539226554802 0.0019364268235176228 -0.020520468855957243 -0.0027273418776913674 0.025581519206546451 -0.0451854430827738 0.0068506479170397701 -0.017786616227138168 0.020233158780957213 -0.028826768121791774 0.012283567451398391 0.011244894251004715 0.025985663272936006 -0.043105740011015511 0.024744777129678645 -0.035662204387732696 -0.037194531644532978 0.029601510320922321 -0.0047747120221781503 0.020521244719244099 -0.019694514998238166 0.022994035778313101 0.024900093796641244 -0.028680151359585744 0.03235960332289875 -0.017014430201256377 -0.0079217831528431357 0.027107004560339532 -0.046009956010210663 -0.033033191974488521
leaf_weight=38.110984174534678 43.488771346397698 15.212474906817077 20.493461403995752 30.096796009689569 13.471392637118695 14.471062200143932 13.70890490897 33.870280731469393 17.951776932924986 25.801602888852358 20.628837483003736 95.872374840080738 8.9107328802347201 20.371819855645299 71.430140066891909 92.113522034138441 44.499458931386471 24.590591745451093 149.22719474136829 34.433426413685083 22.704915791749954 13.85849164798856 21.805498488247395 22.205421073362231 12.380282294005154 46.416915882378817 17.625044651329517 22.879288430325687 20.264181736856699 112.82217101752758 17.730906467884779 28.2579006832093 110.75310072302818 20.950216256082058 11.732481550425289 173.57263050368056 25.20122842118144 28.383578650653362 10.289039991796015 20.192168358713388 24.696645148098469 18.116247104480863 34.109221307560802 31.91763948649168 24.146214634180069 35.676930017769337 58.402752216905355 29.489507691934705 16.937750462442636 49.617309001274407 24.391725048422813 10.7474531698972 44.990260027348995 25.07702655903995 16.089386351406574 22.21373688057065 20.059922676533461 13.135696310549973 26.175303673371673 38.451398467645049 41.283647736534476 17.80257853679359 49.560033163055778 34.256688132882118 54.045432694256306 11.996970914304258 36.110472034662962 12.272598106414078 27.019240111112595 45.489416947588325 44.335728406906128 17.401817532256246 13.813135072588919 11.931056436151264 20.271377451717854 13.003408186137674 11.1247495803982 18.916202004998922 12.752618549391626 7.525549501180647 20.874957954511046 11.580171156674625 15.278139702975748 32.137062411755323 17.660533763468266 73.940050892531872 16.999946156516671 28.706375703215599 14.271646918728946 16.301278803497553 13.917618319392206 12.255935870110987 28.010818971320987 40.573274280875921 30.202809102833271 22.852960910648108 17.97967790812254 17.935005612671375 19.816410087049007 23.776266928762197 71.085176978260279 7.90128215402365 19.684828433208168 22.417201848700643 44.915738860145211 17.659073583781719 22.84438331797719 6.2285614777356386 57.671838467940688 73.10894870152697 13.024109588935973 9.6091533172875625 25.310743324458599 36.316731251776218 11.5165604557842 13.094531219452618 18.091559875756506 13.739929504692553 29.780787281692028 13.030100425705312 94.173354219645262 16.575311616063118 36.421821627765894 11.922024283558128 18.467383205890656 25.200021620839834
leaf_count=124 263 83 114 73 75 81 59 97 154 266 104 222 36 69 348 150 106 205 229 90 81 57 158 91 26 410 91 151 63 369 68 169 344 32 46 1623 200 131 36 197 39 107 126 63 100 54 151 72 92 110 114 45 128 85 128 73 86 30 112 213 390 113 140 103 90 77 122 40 109 192 124 69 28 26 75 52 72 43 97 92 115 31 68 93 90 169 143 157 69 61 38 72 94 73 129 59 86 62 94 66 141 84 94 82 115 91 46 25 120 815 49 114 269 75 62 28 96 36 105 110 166 69 191 33 120 221
internal_value=0 -0.0092999 0.00723925 0.0112801 -0.0130908 0.0138754 -0.00624185 0.0161757 -0.00467421 -0.0191297 0.00302785 0.00649708 0.000290722 -0.0240777 0.000654427 0.0194849 0.0172839 -0.0140895 0.0274254 -0.00543159 0.00239842 -0.00993999 -0.0256422 -0.00411672 -0.0122627 -0.01839 -0.0263165 0.00346007 0.00156262 -0.00106062 -0.00700123 -0.0266595 -0.00284895 0.000180586 -0.00742068 -0.0237104 -0.0267852 -0.00947622 -0.0191979 -0.0134635 0.00156189 -0.00244257 -0.00764061 -0.00118678 -0.00594208 0.0127571 0.0200773 0.00734653 -0.00842202 0.00653255 0.0192059 0.00119982 0.011257 -0.00452042 -0.0232346 0.00856416 0.00188544 -0.0111396 -0.016567 -0.0213441 -0.0282416 0.000926269 0.0012334 0.00336789 0.0127716 0.00363052 0.0115594 -0.0231073 5.65402e-05 -0.00351686 0.00054993 -0.0125584 -0.0234305 -0.027457 0.0113581 -0.00884158 -0.0048759 0.00446233 -0.0103697 0.00513654 -0.0121964 0.00740139 -0.00320066 -0.0183632 0.0019403 0.010934 -0.0242833 -0.0363523 -0.00803518 0.00904149 0.0164725 -0.00754195 0.00101449 0.00579008 -0.00526369 0.0128606 -0.00350388 -0.0198608 0.0172925 0.0115844 0.0185763 0.00467234 -0.0101006 0.00256762 0.00902627 -0.00838234 -0.00402673 -0.0209769 0.0171325 -0.0314549 -0.0267225 -0.00171474 -0.0248266 0.0189455 -0.0352444 -0.00433155 -0.0124834 -0.000998154 0.0115943 -0.0038463 0.0253648 0.00650787 0.00913041 0.00145033 -0.0332996 -0.0173703
internal_weight=0 1714.92 2144.08 1354.91 1270.96 1165.56 597.445 981.566 189.348 673.514 136.753 251.605 789.171 52.5952 318.973 729.961 637.848 278.472 193.727 98.6421 78.0133 226.153 59.3396 166.814 110.144 97.7639 75.5585 288.264 443.959 387.378 274.556 45.9888 228.567 213.354 33.538 447.36 366.441 80.9198 33.1683 97.1257 183.995 159.298 129.201 111.085 76.9336 444.121 186.446 257.675 66.4872 255.096 74.009 181.087 96.9041 51.9139 26.8368 76.9758 49.5494 253.881 174.599 148.424 109.972 79.2821 768.678 635.394 163.986 109.94 85.6705 24.2696 471.409 359.209 299.906 102.375 59.3026 58.0392 112.2 133.284 120.28 74.967 84.1828 42.1377 43.5799 197.531 192.404 47.4152 144.989 170.512 30.7089 46.1082 34.6435 237.134 122.046 26.1736 115.088 98.7869 58.2136 191.187 40.8326 45.3131 150.355 114.678 94.8614 51.7323 27.5861 96.5722 74.155 29.2392 45.0581 13.7541 91.9285 269.315 196.206 22.6333 38.7821 56.5809 57.9335 56.0508 42.9562 31.8315 56.6694 26.8886 152.576 127.328 61.4795 48.3438 27.3781 68.6888
internal_count=16399 10028 6371 3752 8505 2946 3215 2419 806 5290 514 770 2619 292 1444 1649 1499 1771 335 390 286 1422 470 952 680 654 563 1242 1523 1385 1016 237 779 696 204 3868 3276 592 187 675 527 488 415 308 478 1164 414 750 250 1055 224 831 386 258 173 182 158 1566 1199 1087 874 367 2505 1960 469 379 262 117 1491 1193 973 376 220 252 298 545 493 275 445 248 196 597 664 161 503 488 202 226 138 689 332 110 357 296 223 500 145 218 355 301 207 278 178 319 237 122 119 117 223 2601 1786 163 344 138 472 232 204 132 272 167 317 413 254 224 156 484
is_linear=0
shrinkage=0.03


Tree=4
num_leaves=127
num_cat=0
split_feature=19 14 13 17 6 17 16 12 17 40 4 35 0 27 15 15 5 37 36 28 17 0 29 26 14 14 11 16 9 21 6 6 36 17 17 35 35 38 11 30 27 22 26 38 3 14 22 24 24 29 4 16 24 11 37 11 36 2 13 26 30 40 37 36 27 36 9 19 27 27 30 13 30 16 6 30 16 5 9 3 17 17 37 17 26 28 24 30 27 37 4 27 35 40 5 35 16 35 16 22 11 9 7 17 28 35 28 41 26 8 6 27 27 14 27 41 37 29 17 26 17 27 35 16 17 17
split_gain=256.043 98.9568 78.2455 41.7996 54.1908 40.0644 37.4695 36.1222 33.7595 33.468 36.2992 32.9567 32.6135 32.5251 31.1124 26.8311 26.4485 31.2471 35.1793 34.5725 33.7282 27.2465 25.8309 23.8475 23.5844 22.9385 24.4753 22.6982 27.1143 22.6365 21.83 21.6863 21.0567 20.9276 20.6664 30.4651 20.5098 21.05 22.0924 20.0541 25.1952 19.5962 19.3808 22.2505 21.7436 31.8968 31.3609 21.09 20.7338 20.2294 18.9591 18.7526 18.4133 18.2578 18.0193 18.7519 19.5868 19.7482 17.9518 26.7286 17.3565 17.0236 16.948 16.9165 16.3509 15.7076 33.2757 15.6677 15.6393 29.5761 15.6882 23.3999 30.5743 18.7454 17.3738 15.4365 15.4041 16.7085 15.3966 15.1864 15.0249 14.9763 14.8007 14.9885 14.6504 14.5524 14.4744 21.1672 16.2595 14.4296 14.215 13.9957 16.4146 13.9243 13.8155 13.8019 14.7539 13.7962 15.1215 13.7646 13.5639 13.3837 13.3148 12.7521 14.6634 12.6061 12.5767 12.4876 14.8131 19.2787 12.1435 12.1049 12.8701 12.0982 16.4726 12.0471 12.0385 11.3036 11.2784 11.165 11.1331 11.0337 10.9587 16.0787 10.8633 12.7067
threshold=7.5000000000000009 0.40588235294117653 0.16025641025641027 0.2781145962964145 0.25026539278131638 0.36949710783191608 573.50000000000011 0.22500000000000003 0.23915831678401639 130.50000000000003 1300.0000000000002 57.500000000000007 3.5000000000000004 0.47000000000000036 0.61250000000000016 1.0000000180025095e-35 7.5000000000000009 0.23697775366250681 0.23536006330783438 8.1666666666666696 0.38874658082845964 1.5000000000000002 3.8333333333333335 0.34523809523809529 0.29285714285714287 0.58578431372549034 0.2752525252525253 51.500000000000007 8.5000000000000018 3.5000000000000004 0.17654698242933539 0.097800095648015326 0.29547678349048218 0.48264915161466893 0.48264915161466893 153.50000000000003 309.50000000000006 1.0000000180025095e-35 0.324561403508772 22.243333333333336 0.50166666666666682 9.5000000000000018 0.27922077922077926 1.0000000180025095e-35 100.00000000000001 0.17424242424242428 6.7992182548066777 22.235000000000003 21.825000000000003 5.416666666666667 1300.0000000000002 37.500000000000007 22.205000000000002 0.47213622291021679 0.23430461711711714 0.29705882352941182 0.23862113087984405 21.500000000000004 0.16025641025641027 0.20714285714285716 21.981666666666673 128.50000000000003 0.30544953350296872 0.27577271640045714 0.78333333333333333 0.24007504690431522 11.500000000000002 5.5000000000000009 -0.11833333333333405 0.34666666666666585 23.33666666666667 0.26969696969696971 22.228333333333339 272.50000000000006 0.22921215429403205 23.071666666666673 267.50000000000006 8.5000000000000018 10.500000000000002 -174.99999999999997 0.25415902172018989 0.34150717703349287 0.29497688104245484 0.22035467671060896 0.17424242424242428 7.166666666666667 22.205000000000002 22.608333333333338 0.69666666666666732 0.32087118565105993 1725.0000000000002 1.0833333333333341 119.50000000000001 128.50000000000003 11.500000000000002 367.50000000000006 346.50000000000006 241.50000000000003 46.500000000000007 4.5000000000000009 0.324561403508772 11.500000000000002 10.500000000000002 0.23763541059988355 7.416666666666667 493.50000000000006 5.166666666666667 -3.4999999999999996 0.16025641025641027 0.73863636363636376 0.29766448564158493 1.3833333333333349 0.98333333333333373 0.58578431372549034 0.82333333333333358 1.0000000180025095e-35 0.30857630680325721 2.8333333333333335 0.244746043430254 0.17424242424242428 0.22431683309050854 0.71416666666666739 293.50000000000006 369.50000000000006 0.36007662835249049 0.48676019631310957
decision_type=2 2 2 2 2 2 2 2 2 2 2 2 2 2 2 2 2 2 2 2 2 2 2 2 2 2 2 2 2 2 2 2 2 2 2 2 2 2 2 2 2 2 2 2 2 2 2 2 2 2 2 2 2 2 2 2 2 2 2 2 2 2 2 2 2 2 2 2 2 2 2 2 2 2 2 2 2 2 2 2 2 2 2 2 2 2 2 2 2 2 2 2 2 2 2 2 2 2 2 2 2 2 2 2 2 2 2 2 2 2 2 2 2 2 2 2 2 2 2 2 2 2 2 2 2 2
left_child=1 3 8 4 7 6 9 11 31 10 82 -1 13 62 16 30 17 18 19 113 21 -19 -20 36 52 26 65 -10 34 -11 50 -2 79 61 35 119 111 53 -39 40 -13 51 44 64 48 47 -47 49 -6 -46 -14 -41 -17 106 55 56 91 -58 59 63 -55 -7 -5 116 -44 75 -67 -23 -9 -70 71 72 -71 -74 -75 -12 -40 -78 122 -31 -69 99 94 -84 -79 -42 115 -88 -89 -22 -43 92 -50 -26 -4 -73 -97 98 -90 -24 -98 -30 -8 -53 118 -54 -38 -32 -109 124 -80 112 -18 114 -3 -15 -56 -28 -105 -29 -57 -62 -60 -124 -110 -126
right_child=2 14 5 12 42 33 102 68 27 29 25 39 15 86 -16 24 23 20 22 -21 89 67 81 -25 93 -27 117 28 101 32 107 -33 -34 -35 -36 -37 37 38 76 41 85 90 43 -45 45 46 -48 -49 54 -51 -52 103 105 60 58 120 57 -59 78 -61 121 -63 -64 -65 -66 66 -68 80 69 70 -72 95 73 74 -76 -77 77 84 110 -81 -82 -83 83 -85 -86 -87 87 88 97 -91 -92 -93 -94 -95 -96 96 100 -99 -100 -101 -102 -103 -104 104 -106 -107 -108 108 109 -111 -112 -113 -114 -115 -116 -117 -118 -119 -120 -121 -122 -123 123 -125 125 -127
leaf_value=0.0014650452559012254 0.012448797843391264 0.021532397988911003 -0.04086551557588821 -0.045859891812964369 0.02388917414055728 0.042843227086129941 -0.0020015956076592772 0.026042637668316344 0.014542799460834133 0.028727786485672993 0.028411750708625248 0.036757302301625806 -0.02828029510820176 -0.001569276756476598 0.024620890370184001 0.011654738265772499 -0.0058388974842750272 -0.01602516714632788 -0.031971282218493588 -0.018794637674107374 0.033443075229757278 0.014936982412030427 0.02691581797651791 -0.030109111277207962 0.02722620128181728 0.023934545005136861 0.0077638658964622846 -0.017489864924916616 0.013923927113488017 0.0097107754400565464 0.036887858176327039 -0.032379128248141154 0.021521183044380519 -0.0091747086998598074 0.0086672003254197813 -0.039957484792481707 0.014530879922633263 0.020134058204913971 0.013903159626286916 0.012410780101382139 -0.0042089377856360053 -0.024396050697710794 -0.0066657820084971165 0.0040443580821343953 0.016054484870338295 -0.015535011437813297 0.039057745962217338 -0.046527408877300537 -0.016120257418987566 -0.031548119439825897 0.0094269155912353811 -0.040450580370718463 -0.045104359630836741 -0.0048411871400671899 -0.038278462572954371 -0.048194712354344652 -0.00079706193376470873 -0.048247994472470385 0.0006411920857918135 0.023942319194437449 0.014129139397846852 0.007116000104038833 -0.0029985025519549823 0.0013090757524055923 -0.050683224369353311 -0.041836009867640259 0.019167678261876268 -0.030654541236445794 -0.041582591051792836 -0.048535647022264809 -0.029297335876106983 -0.01064689396925996 0.026175490653215477 -0.037087632661367845 0.0097692508745704249 -0.010177205537020251 0.0048541350245408536 -0.042656298847992963 -0.014545147033587951 -0.034801919767765518 0.014346697265553857 -0.0225206570632796 -0.032774243497839861 0.011467641149799524 -0.0010693585661235179 -0.03633141235410426 -0.034712188585991177 0.024554471204880215 -0.014028716264201884 0.011411058877259342 0.019793548286939293 -0.020160009623296039 0.017484263192923379 -0.0057225960080774527 0.0023814689000490998 0.036810117471253949 0.021139056444058488 -0.024932350875285988 0.018348889200714199 -0.006412247147358891 -0.011207452638886076 -0.024127169027415778 -0.051409520056958306 0.015045249978115885 -0.047679223008524216 -0.0068397738035989681 -0.019257659238759255 0.019604143306831627 -0.021351816426698863 0.031135299342178673 0.019081130664416569 0.012460164025666779 -0.034529463067572451 0.025851365242657687 -0.016731339704587633 0.03088496541823782 0.0042801014080486918 -0.03436428423474442 -0.019691455876830365 0.018385795854698957 -0.0032791701412386255 0.033513496709769212 0.041224122356708269 0.013191913301398831 0.01544331340338159 -0.014213745136023052
leaf_weight=61.91579515626654 9.1213964708149415 20.811417512595654 51.03561152331531 21.333777334541082 51.849802896380424 23.986986838281155 6.3707496896386173 15.343933612108229 21.549521257169545 32.727761374786496 24.599957192316651 7.7795928847044697 17.269854631274939 18.443435614928603 122.12218734808266 11.39049184694886 73.667568063363433 29.011095367372036 33.322280783206224 25.009446810930967 110.2145371325314 353.9926459826529 19.91332496330142 17.351272784173489 20.961682949215174 22.767394185066223 6.1748955603688946 17.102588890120391 29.560045592486858 9.5804781615734118 24.465030785650015 245.0954974219203 16.559328805655241 20.756993794813752 13.705382000654934 69.603596836328506 16.292949270457029 24.964852560311556 14.656619079411028 7.2465204354375592 37.178284278139472 10.648160018026831 14.494519885629417 31.065759241580963 14.824236765503885 17.563018703833222 16.689248532056808 21.013653444126248 14.396761576645074 13.539278602227567 30.04528546705842 99.271111750043929 19.298558231443167 21.124463483691216 20.046868383884433 10.696718331426384 19.7175004221499 11.24051186069846 16.787070952355862 28.599282703362405 56.559378871694207 24.082265803590417 13.348895225673912 52.337389685213566 15.741211686283348 14.990701245144011 13.621072208508847 12.163885819725694 14.848602682352064 12.975630657747386 12.583547251299022 16.472066333517432 15.065281582996247 12.170722968876364 13.00055196508765 13.080584697425364 16.848996352404356 24.478793643414974 20.857102720066905 17.419975269585848 10.956754900515078 15.845202621072529 9.7923275865614432 14.875111185014246 10.85381321236491 17.778658853843808 15.59835081361234 18.876838065683842 22.39452344737947 38.810582041740417 11.603045664727686 12.965149143710731 68.634385075420141 22.065118834376335 7.3572233207523814 24.198243133723736 26.146992843598127 20.603823261335492 25.844782739877701 21.457151625305414 18.265900164842606 9.3372490499168617 22.142173234373331 10.045550886541603 11.2555356901139 13.477329421788452 19.776045132428408 181.43693790584803 18.389090107753873 17.144872710108757 14.748364485800264 22.082991663366556 15.766747472807763 75.653472373262048 16.302635772153735 20.780882623046637 7.6972924657165995 30.328257010318339 27.768406141549349 11.241024427115915 8.6696657203137857 57.531745620071888 37.215796675533056 39.997358195483685 32.542924540117383 18.959967665374279
leaf_count=285 40 51 464 116 126 29 32 35 80 94 75 17 96 62 203 33 249 102 114 92 149 788 45 80 38 72 30 117 139 43 44 2521 57 73 41 692 50 57 45 38 204 92 60 104 41 79 29 164 99 92 94 887 82 71 156 71 77 98 72 78 156 74 43 233 121 138 59 81 109 103 82 89 41 80 35 94 49 126 98 165 33 49 81 62 42 166 73 48 85 72 37 65 235 76 48 46 77 87 69 89 85 76 208 44 100 52 86 466 101 28 40 56 65 137 70 42 37 276 192 49 41 111 63 107 91 56
internal_value=0 0.00408927 -0.0149345 -0.00074172 -0.00431595 -0.00503801 -0.00959355 -0.0117146 -0.0237431 -0.00616268 -0.0123529 -0.0180248 0.00554669 -0.00523213 0.0102971 0.0100193 0.00876967 0.0119467 0.00257469 0.0120533 0.015778 0.011203 -0.0117982 0.0023909 -0.00474265 -0.00206802 -0.00817401 -0.0132525 -0.0173696 0.0106489 0.0138078 -0.0306861 -0.00359919 0.0153923 -0.024774 -0.0295331 0.00404816 0.00860007 -0.00295561 -0.0230115 -0.00809457 -0.0281253 0.00185686 -0.0138291 0.00375162 -0.0100999 0.0117523 -0.0251259 0.00643967 -0.00724984 -0.00492484 -0.0318471 -0.0197212 0.0147562 0.00397585 -0.00427498 9.95258e-05 -0.0199083 0.00903572 1.20592e-05 0.019754 0.0259434 -0.030426 -0.00890923 -0.0313047 0.00279489 -0.0134394 0.0133711 -0.00109137 -0.00388416 0.000321357 0.00339561 -0.0119389 0.00160235 -0.0139491 0.015178 -0.0119143 -0.0194113 0.0164873 -0.0194272 -0.00988433 0.000633554 -0.0274865 -0.00723605 -0.0306229 -0.0155115 0.00123409 -0.00468225 0.00131242 0.0279324 -0.00162106 0.00682651 0.0114155 0.0108257 -0.0355182 0.01304 0.0188672 -0.00557386 0.00335787 0.0101314 0.00792607 0.0040566 -0.0412249 -0.0341454 -0.020305 -0.0306684 -0.00403328 0.0168463 0.0147608 0.00445068 -0.000342562 -0.00665285 -0.0115415 0.019103 0.00472866 0.0162891 -0.0269772 -0.0272047 -0.0101712 -0.00298761 -0.0302766 0.0243129 0.0227365 0.0274028 -0.00277926 0.00440233
internal_weight=0 2967.17 808.566 1669.62 1064.95 382.25 313.424 483.562 426.316 284.911 208.623 302.491 604.672 177.225 1297.54 427.447 1175.42 783.464 228.315 137.777 555.15 406.124 90.538 391.956 87.1932 125.563 102.795 172.099 150.55 76.2875 340.254 254.217 43.5598 68.8262 111.653 97.9472 374.605 263.088 91.8031 240.575 62.7365 177.838 581.388 61.3015 520.086 83.6294 34.2523 49.3772 436.457 28.3635 47.3151 155.587 44.1664 171.285 384.607 146.321 126.954 30.958 238.287 108.681 135.216 48.0693 34.6827 80.0816 30.2357 66.2923 28.6118 377.113 181.071 165.728 150.879 138.295 53.2122 40.2366 25.1713 37.6805 66.8382 52.1816 129.606 27.0005 23.1206 57.2157 83.0603 24.6674 35.3326 54.9569 142.543 103.318 87.72 149.025 22.2512 95.9963 83.0311 43.0268 58.3928 85.0832 68.6111 68.8431 48.2393 41.3705 44.4129 38.8973 28.5129 148.341 49.0695 32.7759 36.069 292.939 268.474 87.0369 35.6055 111.517 89.4343 112.768 37.1141 39.2243 27.7442 36.5032 37.814 28.3436 19.3664 114.091 94.0002 77.2132 69.892 51.5029
internal_count=16359 10430 5929 7112 5230 2174 1998 2844 3755 1758 1399 2062 1882 625 3318 1257 3115 1872 647 350 1225 1004 297 1243 281 744 672 1194 1114 359 976 2561 265 176 899 858 1163 793 319 1777 387 1390 2386 285 2101 405 108 297 1696 133 190 1261 167 474 1570 686 574 175 884 504 338 103 159 426 181 366 197 902 782 747 638 556 259 156 115 169 262 217 380 208 114 183 655 143 168 370 466 362 289 221 129 399 334 114 512 297 208 241 154 134 162 215 240 1223 336 134 136 786 742 276 138 370 314 258 121 104 193 306 236 166 112 267 242 170 248 147
is_linear=0
shrinkage=0.03


Tree=5
num_leaves=127
num_cat=0
split_feature=19 19 17 17 10 8 13 15 37 18 37 24 40 36 25 18 16 6 25 22 23 36 8 13 36 35 28 37 18 36 14 11 14 6 31 35 16 16 2 28 17 8 20 14 14 27 26 16 6 29 16 37 16 36 41 13 29 29 24 36 37 28 27 36 36 13 35 37 15 11 36 24 24 35 31 30 30 16 6 14 35 26 35 31 29 36 35 20 2 17 25 2 37 17 21 35 9 17 30 16 8 25 35 16 18 15 18 37 41 20 36 21 7 28 28 16 29 27 18 2 17 30 31 36 37 28
split_gain=249.884 89.5852 63.4518 46.7762 39.0871 35.9141 35.1718 31.1009 29.1913 28.9389 25.4729 25.0157 24.9715 24.5362 27.1054 22.4488 22.1601 26.4227 22.7056 21.8833 21.9733 21.3139 21.1701 18.802 18.6377 22.3815 20.0166 18.4378 24.34 18.3806 18.0578 32.7088 17.9894 24.0116 17.7246 17.6711 17.5977 17.5873 19.0527 28.1506 17.4734 21.3263 21.3378 17.3787 26.6856 17.2895 17.23 23.9289 16.9333 16.8883 16.9661 16.8215 16.5982 22.9366 16.0126 26.4693 26.1362 27.5726 21.2295 17.9317 16.9711 15.3551 26.2258 20.4743 23.2271 15.2269 14.702 14.6342 26.1906 14.5808 28.8638 30.8556 18.5379 16.111 18.9661 15.7928 21.8333 17.3041 15.5798 43.8609 17.4508 25.0884 16.5572 16.5019 36.5247 21.8449 20.7497 19.9301 17.5214 17.4903 18.3607 14.5532 14.4339 14.3963 13.9114 13.7755 13.7039 13.5086 18.0462 13.4753 13.47 13.3796 13.3786 20.6576 14.1527 22.0381 15.0051 24.6041 23.5132 26.8859 23.3929 16.1087 13.6451 13.1322 17.694 14.8351 13.9982 13.0424 12.5799 12.4913 19.8368 12.4609 19.5317 17.4204 19.3251 15.2166
threshold=7.5000000000000009 2.5000000000000004 0.35957200371199921 0.34150717703349287 1.5000000000000002 0.63961038961038963 0.14835164835164838 0.27922077922077926 0.3222681359044996 0.40460699841744335 0.20218742529285202 21.575000000000003 128.50000000000003 0.32879588064430953 23.865000000000006 0.36908140403286044 6.5000000000000009 0.18113941639647987 23.295000000000005 3.5000000000000004 1.0000000180025095e-35 0.23155302048224011 0.80909090909090919 0.73030303030303034 0.19291971946399308 17.500000000000004 6.8536782822949673 0.23616579177602801 0.24110309017223913 0.20277548550365851 0.35504201680672276 0.30384615384615393 0.080128205128205135 0.25765385816932213 24.241666666666671 258.50000000000006 606.50000000000011 24.500000000000004 32.760042238648374 8.5833333333333339 0.18115887742753417 0.77350427350427353 0.15000000000000038 0.58578431372549034 0.34313725490196084 0.65000000000000024 0.10555555555555557 136.50000000000003 0.28560970508261874 9.4166666666666696 94.500000000000014 0.30857630680325721 272.50000000000006 0.26933509528446242 -1.0000000180025095e-35 0.41421568627450983 2.8333333333333335 5.8333333333333348 22.295000000000005 0.27665959307976423 0.2669211195928754 9.4166666666666696 0.25000000000000061 0.28382106503333265 0.24329851323716359 0.095454545454545472 25.500000000000004 0.2418468628146048 0.45804195804195807 0.39444444444444454 0.22511955758029059 21.705000000000002 22.815000000000001 496.50000000000006 23.371666666666673 23.584166666666672 23.875000000000004 103.50000000000001 0.23703062924516213 0.16025641025641027 547.50000000000011 0.17424242424242428 324.50000000000006 23.818333333333339 4.8333333333333348 0.26933509528446242 455.50000000000006 0.54500000000000004 21.500000000000004 0.21788127413127414 23.515000000000004 25.500000000000004 0.26064311594202905 0.15617929864253396 6.3330657088527369 575.50000000000011 9.5000000000000018 0.19460268651885423 22.19166666666667 402.50000000000006 0.8257575757575758 22.935000000000006 165.50000000000003 127.50000000000001 0.15815528921313185 0.069047619047619066 0.26131244881244886 0.32793442622950825 3.5000000000000004 0.54500000000000004 0.29821028187059578 4.5000000000000009 10.500000000000002 10.16666666666667 9.4166666666666696 289.50000000000006 8.8333333333333339 0.66666666666666863 0.48563771302913694 59.500000000000007 0.2521496273732774 22.994166666666672 23.151666666666674 0.23296273483215277 0.20218742529285202 6.166666666666667
decision_type=2 2 2 2 2 2 2 2 2 2 2 2 2 2 2 2 2 2 2 2 2 2 2 2 2 2 2 2 2 2 2 2 2 2 2 2 2 2 2 2 2 2 2 2 2 2 2 2 2 2 2 2 2 2 2 2 2 2 2 2 2 2 2 2 2 2 2 2 2 2 2 2 2 2 2 2 2 2 2 2 2 2 2 2 2 2 2 2 2 2 2 2 2 2 2 2 2 2 2 2 2 2 2 2 2 2 2 2 2 2 2 2 2 2 2 2 2 2 2 2 2 2 2 2 2 2
left_child=1 9 6 4 5 8 49 11 16 54 91 -5 -4 23 -15 -14 -3 -18 61 20 -13 -11 29 40 26 -26 -20 -27 34 -12 31 32 46 -34 65 -31 -17 -10 -39 -40 41 42 -6 44 -37 -22 47 66 -49 113 -51 -30 53 93 55 59 67 -58 -59 60 -1 63 -63 64 -19 94 -21 -57 -69 75 99 -72 -73 74 -74 77 -77 -42 79 -79 81 82 -81 84 117 88 -87 -88 89 -86 -91 -8 -78 -44 -29 -54 101 -7 -99 -71 102 -23 103 -56 105 -104 110 108 111 -110 112 -108 -106 114 116 -116 121 -80 -103 120 -118 122 -2 -123 -125 -126
right_child=2 3 12 7 13 97 10 -9 37 21 22 19 15 14 -16 36 17 18 24 30 45 96 -24 -25 25 27 -28 28 51 35 -32 -33 33 -35 -36 43 -38 38 39 -41 69 -43 52 -45 -46 -47 -48 48 -50 50 -52 -53 95 -55 100 56 57 58 -60 -61 -62 62 -64 -65 -66 -67 -68 68 -70 70 71 72 73 -75 -76 76 92 78 83 80 -82 -83 -84 -85 85 86 87 -89 -90 90 -92 -93 -94 -95 -96 -97 -98 98 -100 -101 -102 118 104 -105 106 -107 107 -109 109 -111 -112 -113 -114 -115 115 -117 119 -119 -120 -121 -122 123 -124 124 125 -127
leaf_value=-0.022089184862436308 -0.0056914361030057856 0.0036738245168694995 0.017984946399614173 -0.02512738887866961 0.0081345951802218337 -0.010998719802240079 -0.013810297162297482 0.026780908198063651 -0.029606541716077028 0.00028154160153841669 0.014577590802638308 0.017600106006894083 0.016142758172734809 -0.044056951379085184 0.0070616821060708341 -0.037591072075771767 -0.043561638844995559 -0.010983104591794395 -0.017845159895825292 -0.00038675199165662944 -0.00038944628246771398 0.03895556430284304 0.014346957495930408 0.022435767119623123 0.022602997208892701 -0.04209506284910941 0.029391925519681394 0.021563562620536374 -0.052416562889484153 -0.041418942846137563 0.019341186817444272 -0.031273669018380336 -0.034602081501555332 0.0071878792619243393 0.022733370639407568 -0.0058993147831649584 0.0076427701455203745 0.014845677394242659 -0.047212712928537445 0.01909350316350494 -0.015783450200250553 0.01782387163673825 -0.048864307416468918 0.012940938027560271 -0.037532952510372364 -0.030968911681193922 0.019782438838741929 -0.00093051290148888017 0.029389840409774146 -0.010803656302048081 -0.038718847200396866 -0.0042902053128653309 -0.051172051801853205 0.013299094465973346 0.0078820378828898304 0.011511722100738617 0.025814115813673592 0.020814399117470395 -0.027550167028884204 -0.040262896917376896 0.014103006930438335 0.015406321036973354 -0.044309799090238827 -0.027553373992875541 0.022107252277705956 -0.047072497698689972 -0.033185310051074543 -0.043604011653213273 0.0053392575916305597 -0.0035796115398972869 0.021232283050514923 -0.037790035025036854 0.0058768335069482548 0.0088760022883662935 -0.048822169137443389 -0.035883625735297513 -0.016054794716317648 -0.025213308762679611 0.00061600959514828693 0.013876589450470905 0.032711879918058524 0.02569933520666768 -0.028386431857600144 0.024208189766123874 0.017542315089918419 0.029155045467961438 0.016964628634466562 -0.036758736418752595 -0.047607473242078445 -0.047851256004803333 0.0064087990651262106 -0.042634580410308244 0.025750331154909802 0.0013082028032903759 -0.016394760606178883 -0.0021697594573524175 0.0071528311571070168 -0.010871947091868863 0.027644885869203252 0.031130349633054437 0.022521655629931792 0.028353297273163137 0.0193893200205668 -0.029180607007503735 0.038026157734829098 -0.028042581542882302 -0.0117554689659887 0.025603022760711788 -0.043866428962004232 -0.00010716592423673362 -0.010922569524827995 0.018077296568505898 0.017423779987452623 -0.04690239254067062 0.026360649927055325 -0.019581474390313342 -0.031348953885454757 0.030671130095625602 0.0044675393500033678 0.025879097730305143 0.019078646915283593 -0.036714545641006312 -0.037516958637757232 0.028642332402186554 -0.00056001785858856667 -0.04385374856878891
leaf_weight=21.355033725500107 23.323328346014023 48.149374440079555 64.186743969097733 21.506124433130026 25.368249341845512 17.593443334102631 40.560258789919317 66.007621511816978 11.150761675089596 37.141421299427748 22.974584329873323 22.353998523205519 18.055575802922249 19.244830177165568 15.79295036382973 22.805732104927301 31.288000445812941 31.54425672441721 19.259053193032745 38.148335471749306 33.146180421113968 68.017776902765036 38.151455968618393 40.866108905524015 6.8409979641437522 53.721761133521795 11.017108565196393 9.7043779715895635 23.386202163994312 15.99281500931829 116.67276765964925 18.432168442755938 17.317960109561682 32.974785612896085 11.667605493217705 94.591659055091441 10.393655583262442 69.542447920888662 10.476700581610205 9.1518687251955253 22.967347691766918 20.416487917304039 12.214451797306539 24.06244688667357 30.632757782936096 31.521627184003592 114.14090163260698 30.25631396099925 34.350770592689514 26.414445561356843 103.81450042687356 9.314198859035967 21.490622449666265 18.74736599624157 42.295991024002433 20.643970957025886 79.361280972138047 12.23154488950968 17.426508348435163 15.752260824665425 21.38855404406786 8.931893967092039 16.860141452401876 15.797170389443634 42.955276493914425 9.1166076064109784 16.187145315110683 17.414627563208342 19.169469930231571 16.715344671159983 17.102112451568246 33.242141397669911 9.2058872655034083 23.136169094592333 11.507224856875835 16.01250122115016 12.038666717708113 36.932085767388344 16.902185712009668 11.609213326126335 25.894815359264612 24.00827644765377 20.864895747974515 93.617879064753652 13.979656333103774 22.691404273733497 10.639471037313344 10.506881970912216 11.570416094735263 10.451551608741285 9.4563861936330778 27.391472777351737 14.013119515031574 7.9089268129318944 32.781874636188149 6.8516834191977969 33.435382049530745 13.419646376743911 41.40248297713697 21.956934807822108 85.789509102702141 58.330281984061003 13.964423866942527 17.527194324880838 37.330501228570938 17.916543431580067 20.487078715115786 43.991993624716997 16.902775075286627 38.148711040616035 20.565619770437479 60.369110144674778 148.32217182405293 13.286950241774319 13.132009632885458 9.0190869905054551 16.5567852370441 55.43009084276855 30.847406893968582 8.270506985485552 9.6074702423065883 16.722900813445449 76.322890306822956 11.384650494903324 23.933323819190264 8.5508262403309327
leaf_count=127 175 173 175 95 91 78 322 116 78 83 102 52 57 121 64 141 316 177 126 109 93 86 133 85 19 449 28 31 185 164 247 96 107 94 31 634 29 253 83 29 115 68 109 83 282 121 299 116 61 220 1287 45 177 81 108 55 167 26 84 89 51 27 121 100 126 63 67 74 43 61 48 187 30 80 81 113 65 309 60 49 64 69 141 228 49 60 34 67 102 76 36 281 38 40 238 34 68 59 104 54 151 89 32 75 58 88 77 81 70 109 78 138 409 172 57 88 191 119 68 31 42 174 810 40 161 106
internal_value=0 0.00452086 -0.0146647 0.00068805 -0.0024638 -0.00850321 -0.0182725 0.00766956 -0.0114589 0.0117077 -0.0104716 0.00518367 0.00575916 0.00195003 -0.0218786 -0.00965168 -0.0152217 -0.0179498 -0.0150358 0.00656717 -0.00700034 0.0211051 -0.00552735 0.00315645 -0.0214617 -0.0255807 9.99711e-05 -0.0280517 -0.0194918 -0.00966354 0.00940837 0.0054665 0.00805869 -0.00797524 -0.00812662 -0.0131672 -0.0238002 0.00289886 0.00752394 -0.0173905 0.00194511 -0.00873744 -0.0148479 -0.00963306 -0.014106 -0.015777 0.0115568 0.00346656 0.0155889 -0.024552 -0.0333058 -0.0397459 -0.0235066 -0.0099263 0.0089461 0.00215058 0.00825232 0.0167654 -0.00754887 -0.0148903 -0.00415802 -0.00450698 -0.0240094 0.00146317 0.00817544 -0.0156921 -0.0109891 -0.00798364 -0.0190111 0.00407684 -0.0045817 -0.0134802 -0.0215231 -0.00808057 -0.0261345 0.00670279 -0.0104256 0.00855837 0.0101269 0.00114647 0.0132818 0.00355991 -0.0133492 0.0142831 0.00830861 -0.00452998 0.0103532 -0.0105984 -0.0187141 -0.00674552 -0.0238453 -0.0263162 0.00666465 -0.0308098 -0.00714496 -0.0402497 0.0251172 0.010975 0.0181657 0.0166894 0.0116387 0.0288004 0.00959898 -0.00356942 0.0114916 -0.00734843 0.0130771 0.00663637 0.000214774 -0.0146096 0.0185781 0.0104171 0.0219276 -0.0193536 -0.0172522 0.00758225 -0.0201264 0.0238536 0.0203702 -0.00259339 -0.0127921 -0.0238157 -0.0303264 -0.0124817 -0.00204603 -0.0138387
internal_weight=0 2925.57 770.139 1909.44 1316.43 555.073 654.697 593.017 482.658 1016.13 294.357 527.009 115.442 761.354 35.0378 51.255 382.336 334.187 302.899 505.503 87.0218 227.772 226.406 726.317 186.81 156.534 30.2762 149.693 95.9709 188.254 418.481 301.808 283.376 50.2927 63.2705 165.28 33.1994 100.322 89.171 19.6286 685.45 112.998 92.5813 149.287 125.224 64.6678 233.083 118.943 64.6071 360.34 130.229 32.7004 67.2131 38.8707 788.355 224.743 166.247 109.019 29.6581 58.4958 42.7436 116.089 25.792 90.2967 74.4995 51.6029 54.3355 57.2281 36.5841 572.453 132.866 94.1935 77.0914 43.8493 20.7131 439.587 42.0643 397.523 374.555 119.309 82.3772 56.4824 32.4741 255.246 161.628 89.2958 43.8378 21.1464 45.458 33.8876 19.9079 67.9517 26.0518 20.1234 42.4863 28.3423 190.631 72.4156 54.8221 38.6723 563.612 157.195 477.822 59.8232 417.999 31.881 386.118 179.9 135.908 55.0515 206.218 80.8562 185.653 230.111 216.824 22.1511 194.673 72.3323 89.1777 34.4348 26.1643 160.238 99.6462 60.5917 43.8688 32.4842
internal_count=16358 10401 5957 7817 6144 2939 5555 1673 2698 2584 2001 1557 402 3205 185 227 2255 2082 1766 1462 266 394 1398 3020 1215 1061 154 1042 593 1265 1196 949 853 201 363 1163 170 443 365 112 2935 600 532 999 916 214 652 353 177 3554 1507 230 441 230 2190 716 449 277 110 267 178 551 148 403 303 332 176 172 117 2335 541 426 378 191 111 1794 216 1578 1463 632 323 259 190 831 603 424 161 101 263 161 112 603 103 149 269 211 311 241 163 115 1474 243 1323 183 1140 120 1020 475 394 179 545 215 467 2047 1875 145 1730 179 157 264 233 1466 985 481 307 267
is_linear=0
shrinkage=0.03


Tree=6
num_leaves=127
num_cat=0
split_feature=12 17 29 5 15 40 4 27 2 5 16 35 40 30 20 16 9 28 6 3 36 30 41 24 20 2 17 35 36 22 41 30 28 3 28 26 14 4 13 35 10 17 37 36 13 27 28 14 8 3 25 37 36 29 5 6 9 38 20 22 35 26 9 5 3 6 36 25 28 3 35 36 26 28 10 27 40 17 17 2 16 20 35 6 4 37 37 25 20 29 27 17 15 22 17 25 16 17 2 40 22 7 6 35 16 24 28 7 29 17 36 16 25 16 35 26 15 6 25 25 30 25 6 13 35 13
split_gain=169.758 93.7864 52.6095 50.3791 48.7531 36.7094 32.0285 30.7744 30.1523 29.7018 40.136 28.8922 32.7137 26.8761 28.9648 26.6625 25.4335 23.992 23.6006 23.2893 23.8725 22.8546 22.588 22.4896 22.2265 21.3368 20.9726 20.7124 19.8184 19.7097 19.5177 19.339 18.3727 18.2249 17.7475 18.6314 26.5539 20.5002 17.4475 19.1866 17.3375 23.3092 22.906 23.5228 21.1681 26.2766 22.3413 23.9066 19.2369 21.632 27.534 18.2092 17.3937 17.1933 17.0355 16.7921 16.2132 15.5781 17.8723 15.8013 16.7955 15.6094 15.5075 15.2071 14.9703 14.7648 14.4454 14.3011 13.9296 13.6306 13.6018 16.0322 13.4935 13.4118 13.2303 13.21 18.0296 13.1652 28.2367 22.1212 20.7188 16.5014 14.2125 34.1099 25.6687 24.2353 20.435 13.8293 13.1063 18.0611 16.3335 17.1725 14.6121 13.0921 12.978 12.8089 13.5173 12.7642 20.3077 12.7413 12.6151 12.459 12.3628 12.1747 11.5947 15.0171 26.6788 11.2622 11.1885 11.1877 19.7462 11.178 11.1705 17.324 11.2944 11.1307 11.6592 15.8808 12.68 14.5879 11.116 11.0283 14.612 16.6925 12.896 10.7526
threshold=0.36666666666666675 0.36744435244264778 10.16666666666667 7.5000000000000009 0.34523809523809529 129.50000000000003 1900.0000000000002 1.1500000000000001 44.500000000000007 10.500000000000002 212.50000000000003 518.50000000000011 129.50000000000003 22.761666666666674 0.33000000000000013 521.50000000000011 11.500000000000002 4.166666666666667 0.14222160708636511 -99.999999999999986 0.31256067961165052 23.33666666666667 -5.4999999999999991 22.155000000000005 0.73499999999999954 38.500000000000007 0.23535764197687717 507.50000000000006 0.27280887873347487 11.500000000000002 -2.4999999999999996 22.331666666666671 5.8333333333333348 -1.0000000180025095e-35 5.5833333333333348 0.17424242424242428 0.16025641025641027 1900.0000000000002 0.73030303030303034 416.50000000000006 1.0000000180025095e-35 0.19269968161683282 0.32087118565105993 0.23155302048224011 0.29705882352941182 1.1566666666666683 2.5833333333333335 0.27922077922077926 0.80909090909090919 175.00000000000003 22.695000000000004 0.27311577311577317 0.3309930159354712 7.166666666666667 3.5000000000000004 0.28655843589072189 1.5000000000000002 1.0000000180025095e-35 1.0600000000000007 2.5000000000000004 533.50000000000011 0.26136363636363641 8.5000000000000018 10.500000000000002 175.00000000000003 0.24098054266929217 0.22065825686450694 22.845000000000002 8.1666666666666696 175.00000000000003 333.50000000000006 0.30372431663077998 0.11805555555555557 3.4166666666666674 2.5000000000000004 1.5900000000000005 129.50000000000003 0.20483049516501764 0.1825421348314607 18.500000000000004 278.50000000000006 -0.52999999999999925 481.50000000000006 0.26456212779082738 1500.0000000000002 0.31923833363132492 0.23697775366250681 22.815000000000001 0.8249999999999994 4.166666666666667 1.3433333333333344 0.23763541059988355 0.06458333333333334 7.5000000000000009 0.041812354312354319 23.585000000000004 144.50000000000003 0.26784299298166181 17.500000000000004 126.50000000000001 5.5000000000000009 11.500000000000002 0.21435728600057261 533.50000000000011 27.500000000000004 21.885000000000002 8.5833333333333339 12.500000000000002 4.416666666666667 0.49097693351424704 0.24747982846574398 83.500000000000014 23.935000000000006 262.50000000000006 499.50000000000006 0.22649572649572652 0.07417582417582419 0.23859228916318506 23.825000000000003 23.105000000000004 22.161666666666669 23.155000000000005 0.24828759089842836 0.29705882352941182 382.50000000000006 0.095454545454545472
decision_type=2 2 2 2 2 2 2 2 2 2 2 2 2 2 2 2 2 2 2 2 2 2 2 2 2 2 2 2 2 2 2 2 2 2 2 2 2 2 2 2 2 2 2 2 2 2 2 2 2 2 2 2 2 2 2 2 2 2 2 2 2 2 2 2 2 2 2 2 2 2 2 2 2 2 2 2 2 2 2 2 2 2 2 2 2 2 2 2 2 2 2 2 2 2 2 2 2 2 2 2 2 2 2 2 2 2 2 2 2 2 2 2 2 2 2 2 2 2 2 2 2 2 2 2 2 2
left_child=1 2 3 16 6 26 7 9 11 23 -11 12 19 18 28 33 29 102 -3 -5 22 -16 65 64 32 38 94 34 -15 40 -8 75 -18 -10 -24 37 66 -36 39 -12 42 48 43 -1 46 -46 -43 51 49 50 -42 97 55 -14 72 -44 -56 58 73 61 101 -59 68 74 -2 -21 -37 -45 -28 115 -7 -72 120 -9 -55 76 -6 78 107 -80 111 -82 85 86 -85 87 -84 -83 -26 -90 91 -91 -92 -41 -4 96 -51 112 -99 -35 -74 -61 -13 -69 -20 106 -106 -25 -58 -107 -111 -79 -48 -114 -115 116 118 -118 119 -60 -53 -89 123 -123 -124 -101
right_child=4 13 5 8 31 70 30 57 15 10 25 17 53 14 21 -17 24 -19 104 20 -22 -23 27 77 88 -27 62 -29 -30 -31 -32 -33 -34 99 35 36 -38 -39 -40 93 41 44 52 67 45 -47 47 -49 -50 95 -52 54 -54 63 56 -57 108 59 69 60 -62 -63 -64 -65 -66 -67 -68 103 -70 -71 71 -73 100 -75 -76 -77 -78 80 79 -81 81 82 83 84 -86 -87 -88 121 89 90 92 -93 -94 -95 -96 -97 -98 98 -100 125 -102 -103 -104 -105 105 109 -108 -109 -110 110 -112 -113 113 114 -116 -117 117 -119 -120 -121 -122 122 124 -125 -126 -127
leaf_value=-0.0047241764926990717 0.026477342391502276 -0.015264868922733214 0.0014532692855646354 -0.046281620988852641 0.011639376315756875 0.015927248815538315 0.0092657788370036232 0.0046182040937863475 -0.01968146467146183 -0.043265658612575149 0.0064046755131186954 0.0081145952651090914 0.010121606387691646 0.026004322001267528 -0.040985393042619216 -0.028022746932260267 -0.033189035540317866 -0.044796739901316038 -0.0036487062247512565 -0.014883701900574182 0.0064169541707560628 -0.0014475943362394857 -0.043830101630221836 0.016277811837988786 0.036463851375807592 0.031679781759306268 -0.00061522298010367315 0.01347155482920365 -0.0096709799078482147 -0.028614199581310017 -0.03408987766260136 0.026221930143265168 0.0022371843557342061 0.022995110318999284 -0.032157928699358351 0.0019731796285615624 0.027457302562247252 0.01599219492347206 0.018850334610724474 -0.03549220520318265 0.014302822451724709 0.023664657059145344 -0.0070862216072539895 0.0066525617271076861 -0.0018743961731744678 -0.037505014385729465 0.01300530641375492 0.023101042974131764 0.018168268021402006 0.01014949482377998 -0.032960804269187072 0.032896289999939349 -0.017819195677203588 -0.020853055035749454 0.003166101312634219 0.032547646724724051 -0.0024057866057800113 -0.0141909288487527 0.027455340695495666 -0.0089323165214140448 0.0067891390493573598 0.020058598510443386 0.0048465115434431893 -0.044855323793190661 -0.001488034800391769 0.029177659721681147 -0.045253037053610896 -0.038262610157357095 -0.047259028130107766 -0.016197782076392046 -0.035830271060782334 0.019840742081464215 0.0036790870852513565 -0.03913960031491194 0.020898655305861137 0.027457731506128395 -0.020086707809799147 0.0028738913293592438 0.0076714632764040497 -0.040261560562234788 -0.02027002142203406 0.033444543117666856 -0.016005228351944886 -0.034962578113032931 0.0026699248154435796 -0.015914692536619906 0.020199813206761855 -0.0065922933956275333 0.026261294213273952 0.0016234537719318272 0.036388608427510322 -0.038231465768858788 -0.0033322528646966745 0.0036820997225317283 -0.047794465255131688 0.018710280897656424 -0.036028967059061008 0.015253295232664207 -0.02751180478618101 0.014996014431839797 -0.04413673013776874 -0.046848528450499034 -0.032020529523824767 -0.010342169524628048 -0.023914365027986974 0.024898897195946387 0.023080630088991638 -0.011250957786409702 -0.049766669077326499 0.024733632042242788 -0.0092540186218808083 0.022929657975129497 0.01612968027845656 -0.038401686367248312 0.0050734589790368814 -0.0084916161067990856 0.018524763704013233 -0.019436116590636092 0.037932601427483441 -0.0079024350878388466 -0.0028989915951208476 0.02285666724536696 0.0083176099525333804 -0.017222631659468281 0.032356488473123696 -0.024137498310039113
leaf_weight=78.802772828377783 112.36486561689526 23.779896833002567 5.0736965853720895 24.752000480890274 54.163453195244074 20.495900662615895 12.704208601266144 10.356082752346994 15.619779266417025 18.333737816661596 30.638271566480398 15.310668364167215 63.119341382756829 29.072402819991112 24.124235644936562 21.740168422460556 16.117691466584802 54.573949640616775 26.33035771548748 12.299345719628038 34.740165124647319 26.817163944244385 40.29248165525496 53.97356791049242 18.059313580393791 16.897002082318068 8.8759874459356087 11.281170032918451 24.04528272151947 29.14908582996577 27.122823420912027 157.73764896765351 47.482810687273741 47.07353874668479 79.537014856934547 10.999525208026173 14.372007606551049 7.6198528781533232 21.84091117978096 26.428248710930347 12.062431890517471 48.324997609481215 15.117227505892513 9.2994433026760799 80.079092431813478 22.367720365524292 107.14893648214638 40.037794098258018 14.534619584679602 9.641691558063032 66.312872793525457 10.917793031781914 17.750891286879778 13.148821542039514 10.733858493156729 21.836070746183395 5.9313677847385433 26.668973527848721 19.52061253413558 13.090855393558739 11.117122102528809 18.568515527993441 17.821687182411551 9.170846773311494 20.040747929364443 11.294855359941719 10.029168616980312 58.231129761785269 14.71207546815276 18.266305785626173 12.057581571862103 5.409533165395259 9.4352988507598656 12.726166006177662 10.456539509817958 24.115144118666649 20.637178208678961 31.277679000049829 12.949023108929394 21.184824088588357 17.751418806612492 34.867147047072649 15.89455124735832 29.521830154582858 33.264195963740349 21.299202844500542 68.961088608950377 22.124220125377178 36.897056553512812 30.930565340444446 14.986489936709406 12.094571169465778 15.763651341199873 10.038437118753789 63.348838656209409 18.543078718706965 9.8939743805676681 14.840819315984843 23.350913898088038 11.034759916365148 7.8605204327031961 22.488419136032462 9.7378893410786969 20.760265694931149 19.242387168109417 141.91765291802585 20.269490426406264 16.006462974473834 19.615308734588325 30.682879749685526 27.542643371969461 136.63710366748273 16.429029045626521 12.937162296846511 7.7446849867701522 21.575999369844794 19.207717388868332 16.635563515126705 25.277973409742117 19.151799181476235 19.00709480792284 14.038738880306481 36.293831877410412 20.435957793146372 48.607006138190627 10.352874599397181
leaf_count=384 257 92 33 279 120 115 32 40 131 118 125 77 287 69 124 189 102 544 83 96 178 83 394 157 36 37 66 48 90 257 130 306 229 185 808 75 50 36 45 136 42 141 77 41 369 145 527 127 57 46 577 27 100 108 50 49 26 94 39 48 41 40 77 105 74 30 129 456 190 80 145 19 38 71 41 42 63 96 43 113 61 60 76 118 104 85 175 73 86 158 29 95 79 51 814 76 99 55 168 55 75 131 75 119 77 320 45 73 204 63 87 311 73 119 37 91 55 61 46 67 96 34 91 89 98 72
internal_value=0 -0.00541663 -0.00844352 -0.0068121 0.0079267 -0.0254469 0.00534261 0.00627382 -0.0142316 0.00889624 -0.00465465 -0.0177273 -0.0139025 0.00775893 -0.00524514 0.000127114 -0.00291649 -0.0339332 0.0124328 -0.019441 -0.0162127 -0.0210124 -0.0202131 0.0110951 0.00687404 0.00271177 -0.0340998 -0.0239149 0.0100899 -0.00517269 -0.0204783 0.0197356 -0.0074787 0.00788758 -0.0266368 -0.0203713 -0.00184956 -0.027684 -0.00336692 -0.0109343 -0.00426021 -0.00154876 -0.0113673 -0.0168341 0.00166258 -0.010223 0.00513727 0.00207657 -0.0126034 -0.0166859 -0.0255118 -0.00123735 0.00533588 0.00104669 -0.0126732 0.0168025 -0.0275463 -0.00290642 0.0026792 -0.0126392 -0.0244985 0.000121434 -0.0161351 -0.0160065 0.0222854 0.00684083 -0.0225243 -0.0272987 -0.0311273 0.00678237 4.05747e-05 -0.018322 -0.000591044 -0.0207044 -0.00217042 0.00907751 0.00259114 0.00869948 -0.00103888 -0.0226595 0.0106057 0.00651411 0.00799982 0.000929304 -0.0155579 0.0132187 0.0132058 0.0168761 0.013971 0.00971857 0.000970328 -0.0107805 0.0170662 -0.0250777 -0.0442051 0.00184628 -0.0144119 0.00407709 -0.0109617 0.0145577 -0.0203743 -0.0341157 -0.00870229 -0.0313612 0.0150045 0.0170672 0.000144433 0.00984353 -0.0397436 0.0203735 0.00888291 0.0192716 0.00815396 -0.00580193 -0.0231098 0.0104474 0.0146286 0.000810315 0.022114 0.0104175 0.0114033 0.0123842 0.0159518 -0.000543229 0.0225082 -0.00439113
internal_weight=0 2111.21 1717.38 1569.59 1442.8 147.795 1186.15 1146.32 538.557 891.67 124.177 432.736 353.113 393.824 104.059 105.821 1031.03 79.6225 289.765 257.218 232.466 50.9414 197.725 767.493 192.332 105.843 109.832 174.131 53.1177 838.698 39.827 256.653 63.6005 84.081 162.85 122.558 35.4007 87.1569 88.9459 67.105 809.549 587.751 221.798 167.094 456.762 102.447 354.316 305.991 130.989 116.454 78.3753 265.953 54.7042 95.8955 83.5012 36.9533 36.2805 254.652 162.718 91.9339 46.6964 45.2375 41.4098 32.7762 132.406 23.5942 21.0287 88.2908 23.5881 139.636 37.963 17.4671 47.2207 23.0822 23.6054 98.9158 74.8006 635.088 104.114 34.1338 530.974 363.059 345.308 147.642 62.786 197.666 84.8556 176.367 128.732 110.672 73.7753 43.0251 30.7501 36.4667 68.4225 38.0787 19.5357 182.452 38.1917 68.4612 17.2958 35.5793 25.0486 78.9914 265.985 239.655 39.5119 69.98 25.5467 200.143 58.2255 167.915 144.26 37.1109 20.6818 121.37 99.7937 35.8433 63.9504 38.6724 29.9249 141.5 119.376 34.4747 84.9008 21.3876
internal_count=16352 12055 10922 9463 4297 1459 3766 3604 3992 2700 512 3360 2664 1133 366 632 5471 696 767 2123 1844 207 1666 2188 814 394 1180 1540 159 4657 162 531 331 443 1492 1098 254 844 357 312 4400 3174 1226 1000 2277 514 1763 1622 897 840 619 1495 226 541 516 126 280 904 550 354 220 134 333 254 331 126 204 616 256 439 279 164 236 111 149 225 183 1857 386 156 1471 1064 1003 473 222 530 251 445 483 447 361 253 108 187 847 221 145 979 223 312 113 179 152 575 675 592 122 230 230 470 150 407 756 229 156 359 268 116 152 106 123 385 312 123 189 127
is_linear=0
shrinkage=0.03


Tree=7
num_leaves=127
num_cat=0
split_feature=19 11 19 13 6 40 37 22 32 37 25 20 16 16 2 40 24 6 33 19 0 7 28 6 37 41 22 6 31 28 31 29 27 20 24 15 25 25 16 24 41 27 29 21 37 25 2 36 6 27 36 13 36 20 41 37 27 28 13 40 2 36 37 2 2 21 27 31 24 22 15 11 36 28 29 37 31 6 28 30 12 30 21 11 37 28 30 20 19 31 24 28 12 24 26 22 26 31 20 36 28 31 25 13 31 29 36 25 31 37 6 21 40 9 26 11 2 25 28 29 30 11 41 31 9 24
split_gain=213.795 52.3301 51.6514 39.9276 32.0007 27.4836 27.3187 25.6772 24.1265 31.9906 29.2916 21.8857 22.9081 26.532 21.2357 25.6527 19.3056 21.9649 19.2755 22.2082 17.8236 20.3057 17.7133 19.7025 17.3702 19.4517 18.8226 17.1772 16.613 22.2187 34.2181 20.8459 17.7308 17.7326 17.5759 16.4719 16.3985 21.325 19.4807 31.3557 23.4502 17.2709 25.9479 22.3808 16.689 16.2986 27.2775 19.7615 16.6796 16.0541 16.0055 15.7583 16.3614 15.5534 15.1791 14.8757 14.8672 15.9191 14.7492 14.5851 14.5445 14.2599 16.9791 14.2577 14.1453 14.6374 13.3092 21.4485 13.7412 13.26 17.9583 12.828 12.7561 12.6988 17.4058 12.1489 25.5905 26.2276 29.6608 27.6858 23.0327 20.4817 18.8749 21.0288 16.4508 15.8818 15.7984 15.0228 15.1771 13.8464 13.2972 24.794 14.6998 11.9944 11.9893 38.1326 11.8353 15.0389 13.4415 11.7883 19.0505 12.9267 16.8224 11.7202 12.2761 11.6475 21.9875 15.2948 21.2444 18.0441 24.2655 12.7744 17.6673 12.6523 11.8935 11.4879 11.2998 10.8039 10.4697 10.7063 10.4346 10.2663 22.5141 10.1986 13.3319 11.0863
